-0.14361036577049627,-0.08238671980402237,0.1100874689481118,0.13425681110353088,-0.03091801525457501,-0.1558496333122653,-0.04548589096187742,-0.18997105527568817,0.08440949157932193,-0.07967710715086936,0.08233867935809641,-0.05909404508971238,0.16048347944776506,0.07692200603691987,0.048841624210103594,-0.03336416068246414,0.14151410221063965,0.1939249997255657,-0.048778628427350694,0.1790740470291775,0.22480366527086346,0.10114855698645384,-0.14511595380645656,0.06334444850506592,-0.06186648630134675,0.08677531727894447,0.1867577363225192,0.06632232841868028,0.032939463714153544,-0.2106237232734766,0.12893604166794084,0.11176149168865847,0.17805974844791936,-0.05699073187399247,-0.01866005475316367,-0.033902636215999794,0.17012760619576658,0.05175862529131621,0.10925261199716764,-0.06046931318296939,-0.0448524541643094,-0.20199790315279112,0.2181933654361583,-0.17012958941954212,-0.17652079779574933,0.008869649358087093,0.17929850883612394,-0.22129311673953436,0.1290943965136897,0.12122885972750115,0.05543210328039997,0.0022067806152631466,-0.2304433571352119,0.01739833652977482,-0.10544909927354662,-0.03155154933355669,-0.19901772376385254,-0.0226937071238888,0.05784096416647179,-0.09848751781690526,0.001601708109711837,-0.10655134740826344,0.07847449207594272,0.17262569581099038,-0.09704313298429644
-0.15995555000172382,-0.16965040177496665,0.07765366901187329,0.07011711842600372,-0.05476666257978388,-0.20004119347213697,-0.02020446183561269,-0.08307293006423566,0.2076546633965149,-0.05493869283676236,0.06594229959592185,-0.1399270167441189,0.17347518906878273,0.13463729523043833,0.053963562984703305,-0.07798261531239367,0.051860062728527896,0.07604624632761957,-0.06528783653414538,0.2107518861702902,0.08918977285748504,-0.015709000571562298,-0.1730862483750712,0.1322809770817632,-0.03404350765123125,0.1762490692590805,0.2295664378131843,-0.005267270897632212,0.21343768405921915,-0.10065916822213819,0.09537142646041129,0.06500169193627331,0.11047312221085484,-0.10381376683584853,0.08686906734192613,-0.1582079635435581,0.186284991914107,0.19325561889200885,0.07557839781212043,-0.004444633602275007,-0.05357745052594496,-0.14493163855499064,0.06394355339276529,-0.08053812250001546,-0.086754522025867,-0.12998413699449854,0.0768948971150137,-0.20373882529333662,0.056657780589655295,0.13329531413981516,0.06968460429116802,-0.009881042376534841,-0.24798401523093488,0.15351415962247122,-0.17293924258971707,-0.07702886525322329,-0.12898126349206254,0.03501934054375762,0.07351399056872984,0.015269254929775494,-0.14376414153648617,-0.1294159542882268,0.2366334948297228,0.0669690963558066,-0.12828534661627133
-0.13738179212525672,-0.05858968611199733,0.1669253579609739,0.13127459519067808,-0.16943699583524277,-0.04150309480054697,0.010329251172972741,-0.1991531247378999,0.1941233291720114,-0.11011757603609977,-0.04025971728316441,-0.1084402485043022,0.15073064932567212,0.03427541945736992,0.13586041806998572,-0.2117250453721415,0.17785102523915508,0.07697113833361269,-0.1020463842627474,0.07749882478238343,0.03324662345078569,0.06460684633249922,-0.14757712519058602,0.12752606627299812,0.03452480027123256,0.1641754391983563,0.05625402688979696,0.021095701028447118,0.11874065435797256,-0.08800152595194616,0.06037219859973097,-0.058193129878536975,0.033016405103255535,-0.14323357093780603,0.0050732076395455464,-0.14002308436680677,0.08677924160822578,0.19609720346677584,0.03698077162536507,0.020132382626775795,-0.20443717447101495,-0.05823333949132186,0.14599128940223674,-0.15415402471866488,-0.14351091131069335,-0.007203231768994477,0.20184622245516246,-0.20117663518976936,0.22049241216908189,0.1445758135921426,0.22010541313466186,0.027475958892358526,-0.08217010031964093,-0.008630288853046852,-0.21616506808333794,-0.09697153500865781,-0.13079387016325716,0.04060471099339895,0.027982699041560356,-0.11779020813232144,-0.09403211606272664,-0.06900290230853316,0.04298579979135344,0.11192325524114889,-0.07467961766954043
-0.14519864264152021,-0.0712314866409415,0.07531704080527546,0.02069912757815637,-0.13508428119334348,-0.17295002360204498,-0.02877782591000099,-0.061956668716434404,0.11870780716132698,-0.20672303904068398,0.005610480070295024,-0.11635659680458875,0.04598734823100561,0.12389402203371933,0.17246372063738571,-0.07009262451962449,0.09517850495211101,0.2083358611809295,-0.030581371700258545,0.20045617293722606,0.11549010073231138,-0.011386146948415816,-0.17387921178335378,0.08468738707320396,-0.06044466704171176,0.2016095018823739,0.13223928906702836,-0.09895723023683518,0.10733579140759487,-0.14962670451038448,0.05799953006102392,0.005114567607208836,0.03332314662183004,-0.14084753641589245,0.08202377853536401,-0.11446708575973345,0.0719563465693411,0.1735078217945134,0.08055479373994182,-0.13626536601259473,-0.04719561632941415,-0.026074226202679265,0.1965601576383751,-0.17371898498667598,-0.0356389376480287,-0.10890993200378841,0.17505111897443806,-0.17331944465739382,0.05315072253679014,0.20970207911752625,0.19028412394714525,0.059065558442028696,-0.20287415820566035,0.06338579592821794,-0.21728538116215443,0.003964525075278832,-0.08936610792838129,-0.010075660384348805,0.14136964160259505,-0.05411653455159907,-0.14917848630027794,-0.06682372693175534,0.17849510487185613,0.10874096056789677,-0.03455445841096816
-0.13777312286369192,-0.03877351363331808,0.2122354076109465,0.13769181865903796,-0.0793826054529485,-0.21488039198734102,-0.08756455719980114,-0.09068071215291407,0.2032782264874009,-0.21672017427504034,-0.00936312825674283,-0.13821503445647476,0.06067807090221244,0.09360915556219174,0.10937012768392702,-0.12630383597635203,0.09846047473096708,0.17314973164694974,-0.09554484084327197,0.20040130017715505,0.18887889715670989,-0.017374136240887492,-0.13862278491752705,0.15080881625019074,-0.015188614262535401,0.06495255721464427,0.04054208566996691,0.0318550852819892,0.04960115001554479,-0.19827173334231557,0.1551748605201064,-0.013081247393476913,0.09231767754077459,-0.08476073378069812,-0.009179172087480359,-0.19719185381008328,0.09590764010785059,0.18521617346796512,0.05716742409580683,-0.12416834737452749,-0.04257858053190734,-0.18547819237082808,0.18452994629530522,-0.17052760492974717,-0.21779459451829444,0.0066767321142349794,0.04794952624856513,-0.17832196643826015,0.04850566004233459,0.21063822617554753,0.027171384074222406,-0.03006294228570226,-0.1384130241148905,-0.026804599830626136,-0.02711141861320326,-0.10494027704655733,-0.03621642494546485,0.0018210882808294866,0.07951281657508558,-0.051897022402722794,-0.013973211268897032,-0.12435876482150787,0.08452547338708705,0.22162976163232487,-0.04394129113146154
-0.13543410316368953,-0.06679084224636474,0.060481948484379995,-0.011206611392822292,-0.02754823974605307,-0.0510737153312306,-0.0019016814701136868,-0.07441149852440414,0.22222121700094938,-0.05952105788286532,-0.04002794507793892,0.004439009181373307,0.20475618225792325,0.10284273012508013,0.17117773818589524,-0.10581535360399545,0.031797070491290685,0.09539481100407442,-0.054254083723034176,0.2110266061124948,0.13228643216651712,0.04452932503590801,-0.13884338402345442,0.1898071852094121,-0.021426271532179426,0.0826156566962472,0.15043755908318585,0.05195746407322704,0.20921707912634643,-0.12299354415417971,0.18152580710297478,0.0029357192803087847,0.07592476680327712,-0.1862189517122348,-0.013253023796007176,-0.15652310624042268,0.11106220592508867,0.03952250900813322,0.13109122746296584,-0.0389708591772485,-0.1593262308591608,-0.09737412945570831,0.15947444248666068,-0.1148545969643095,-0.12275630825116426,-0.14095802626302548,0.05662413091256384,-0.19990565124673607,0.1787328847315545,0.04903252660071651,0.09953147943722437,-0.0758069567094883,-0.15758798328464416,-0.028330365075247926,-0.20821373945783858,-0.10742694782971351,-0.18005382037735304,0.07587388063370692,0.20837480256684346,-0.0604913086351805,-0.1454884953113198,-0.04369785494694285,0.2123116649826215,0.09951156903568599,-0.07652009793755943
-0.16766171530919455,-0.0976930224911367,0.1101438731902663,0.0358697780960876,-0.04330929969713005,-0.17706633926177476,-0.009926250168904876,-0.16114884864126444,0.06780879925941631,-0.10331339275366973,-0.008851198505659569,-0.10460515374979579,0.22431729687977972,0.11306120190492705,0.24527642807483194,-0.1133465603404787,0.2149605736607563,0.045884213177823756,-0.05666950723546583,0.09209694859628759,0.1265804183590503,0.08855161080454794,-0.047360401680702484,0.21990690320960438,-0.10382692260596743,0.18672634955644227,0.2345662477721007,-0.07675782521395608,0.2148332769886645,-0.1957313141369924,0.20037039976134233,-0.01251771071461161,0.14061889178352474,-0.16307765438605754,0.04552682152006584,-0.16819279767504433,0.12446867293601711,0.07502835253225487,0.18548733072780477,-0.01640254544366054,-0.0578086549129331,-0.16868403824918338,0.061677422583662544,-0.1193262252533919,-0.08266211399819792,-0.13878489894716042,0.06415993776174765,-0.08040046451901374,0.160537644720472,0.0749103358137854,0.07046095845233906,0.05914812502658771,-0.08543143899019866,0.05220868892638822,-0.20013786666230202,-0.03861211258166527,-0.06500710437907631,0.046224418978058505,0.06833203377020641,0.01995932117159627,-0.10042391890102974,-0.0800695952296806,0.08832640929973716,0.08391613478826081,-0.011592233274289702
-0.14516911901532337,-0.05503517974317157,0.03864253867337702,0.03429855522149103,-0.21178763236093173,-0.07374261518929513,0.018753811998719568,-0.10632749242271275,0.1965763764869798,-0.07525151759697989,0.06282521609527425,-0.11393494273033923,0.20267447237875896,0.2125384509167469,0.10860776666085499,-0.03319653334815187,0.08255722831673747,0.10697897200154709,-0.0021593136135620358,0.20444674169344024,0.23397012572131867,0.015940411264278205,-0.02412726456207872,0.09107649102568127,-0.015630367826505252,0.20765934779222697,0.2101047147261032,0.0024935963343005016,0.18572802830094584,-0.15796504099687467,0.13815418688984532,0.03645976127057645,0.033371879363047106,-0.11760156419368777,0.060392476251275765,-0.04597757758243933,0.027972819438855746,0.11905884801814855,0.14181039981777518,-0.07918643001023982,-0.16829016759543491,-0.06294500811419027,0.1557295130708547,-0.05291333745276317,-0.12453654889575654,-0.1290375694045072,0.036225797785172,-0.21246424050624954,0.18000057638811007,0.1480104115051615,0.12094261305490812,0.05569212232290511,-0.07784965440549829,0.0723033771023322,-0.16284289790625547,-0.10946923723027144,-0.21001474147480909,0.047208686601768184,0.10784689659625389,-0.04086401361789601,-0.047258973893196145,-0.0342360686448724,0.21671333204972046,0.041157653738294595,-0.029235011420410822
-0.1455508061081223,-0.1747132452520334,0.07407144758460926,0.019923670190206966,-0.13843009295836545,-0.14710340906416441,-0.040539233239524276,-0.21662612998289954,0.13987893376459642,-0.1116374533333347,-0.07587880270203429,-0.08599101460603524,0.16585847969883535,0.07625077939400364,0.15496121432686066,-0.05371003462912906,0.08835914353533583,0.11737293987126757,-0.08311358288853615,0.030861535235023968,0.16502611516108112,0.026758382456751287,-0.02906833204716517,0.20497644413627114,-0.04276215723483355,0.10410808587021951,0.18959158579716523,-0.043641996735290824,0.18186943157591942,-0.19081983680675768,0.08788628407638638,-0.043751558561953376,0.195457239659523,-0.013997679176679772,0.06763149667391762,-0.05519348864022748,0.07378511787042451,0.12315432614297533,0.015378201680102833,-0.06844443044714797,-0.1975954504920768,-0.09043424005924187,0.06257599036543908,-0.18831427891740826,-0.061912428632780535,-0.05937278479042318,0.03979835858936584,-0.2078431234795815,0.19671930890384706,0.07627077962786025,0.15659374084851102,-0.028738928039256147,-0.0631867178767917,0.1378940322190883,-0.081626306782341,-0.06290070534897853,-0.10560568133756225,-0.016580820398417365,0.12323151963685888,-0.05377021630416148,-0.08154900833500703,-0.1210791931929483,0.15746332090714632,0.1886083317243739,0.02293405251012206
-0.1537944840108004,-0.2140319693084774,0.19782627973941525,0.12596286477910498,-0.07889692447909888,-0.15730364249750212,-0.0006856186165729596,-0.1803941927896739,0.09582709462627796,-0.17698430311851465,-0.01820376092912268,-0.1467224740279546,0.16442950860011002,0.14402264493244185,0.054920104339507385,-0.16246216304341426,0.06656706220906393,0.0601592111653857,-0.14892271805719937,0.19430084985452747,0.07161932079937326,-8.514207032004645e-05,-0.10330673158437406,0.0789420179149587,0.003668190536211405,0.20279485704856942,0.21571168116436332,-0.0461024616077475,0.1909857829386269,-0.06058407996539637,0.19816725500052615,0.05096351521174399,0.08276433774140342,-0.034991667337045715,0.04737892310449967,-0.13239221913797886,0.1445222633843209,0.18076344784536294,0.10457969322226048,-0.0038105966662966124,-0.10728697954108385,-0.2253164210514106,0.05041848645322097,-0.09051835087744468,-0.03507392046183484,-0.000644115467935235,0.051696916921179656,-0.11426740035629371,0.13944898192381225,0.11688239744627363,0.051440854750799604,-0.05448129945895784,-0.14931737099055317,0.06878686283791462,-0.10726489984262373,0.039433675315681115,-0.09823878411809307,0.011857004531040374,0.1956188352137894,-0.09119800005125672,-0.035419191543906735,-0.07991027039424163,0.13866258799898648,0.06208272465253588,-0.07624695925259183
-0.14775396232950375,-0.19194878100285906,0.12689277089586548,0.11082260721238556,-0.07441376730291871,-0.1385996250396113,-0.010128048184066006,-0.2249471795651774,0.0629299530676381,-0.03802701969794805,0.04185023553111322,-0.0012809684623174352,0.17980356481586926,0.21794809319924419,0.17403539426528922,-0.042805008498729605,0.14407859064281026,0.1357976738383318,-0.12594835144642552,0.19875371120314977,0.1806731874918449,0.06864770092976183,-0.05290996248876379,0.13622500864590456,-0.024861616742306445,0.1403134029388262,0.06788380168626311,-0.09168383559296081,0.053861213516249604,-0.05068386322224546,0.1764288495559673,-0.0043670982624611394,0.026149099709708995,-0.09604615821056779,-0.05070559016347175,-0.16332879895701782,0.10540112085209256,0.15838809921012578,-0.0048025372627622746,-0.04629180145221789,-0.20933488187563012,-0.025922328758782844,0.18241053921689337,-0.048883966532363744,-0.14777792052629452,0.013733210365532064,0.12038911797951508,-0.08378950374872876,0.16372633652105464,0.08759690565452996,0.05850984340728596,-0.04080589787091885,-0.12328008672855752,0.14620404552982055,-0.03383616630228508,-0.11208387534084227,-0.13423137608711666,0.07939747078033896,0.16302732514617196,-0.13486536755625458,-0.007036164252545312,-0.1674708323075318,0.1483989792022084,0.19434093612844883,-0.06286974288640687
-0.13689374067353227,-0.1239428947931716,0.0280018640853014,0.05336445551146408,-0.2173695678687542,-0.1520811666575555,-0.02139975435825426,-0.15328930563422116,0.14333173088077739,-0.12047260438214433,0.08809524496593281,-0.17413026743168022,0.11673346124049291,0.20656888987855948,0.15222456595013587,-0.04983518595343356,0.04251996035274487,0.16496061035664686,-0.0009515830804586619,0.2130031490191411,0.11025427598029881,0.1091149279912825,-0.15480327249427997,0.17402273548197272,-0.09170433193181003,0.11050228312006108,0.09193698457060562,-0.0013112731582654675,0.034237343068572776,-0.03606792466543077,0.08574869009574557,0.09137738922846712,0.020240647248950173,-0.022599890112153263,0.11460076295448221,-0.07782150693949154,0.16145632548155145,0.21687568490093517,0.07006457081177299,-0.09763680420828215,-0.09502653348074008,-0.15865155829006647,0.07757467929127304,-0.057421637283514196,-0.18197268665263616,-0.022785249897861685,0.16374953564366573,-0.21784251123105844,0.07846483901161282,0.09057110477717771,0.14581105153771648,0.014803467655035794,-0.22516591720585324,0.03277879683208029,-0.19801962166111356,-0.08412918128917372,-0.1633774147601147,-0.0023080919766924504,0.13761822695257464,-0.08864174282956767,-0.13988514418528122,-0.02959760905709404,0.13863406882690707,0.14602866258682154,-0.1471043023643161
-0.14791215114913933,-0.12773093205572988,0.050274863392849374,0.035787369388772555,-0.16507994889881752,-0.10159241389908631,0.046931074771792335,-0.08587315905065404,0.19601708242517077,-0.17681516482558707,0.07188675383543863,-0.1040863935605012,0.21373987091912952,0.14280067615316838,0.1796156908908547,-0.03679471835941847,0.08438474567422852,0.21705810493598685,-0.08444874937311853,0.14765176950901088,0.15048224641683788,-0.005404437259011671,-0.0769089727303766,0.06550041654394168,-0.08334801923034482,0.04635517809220182,0.15822794662981304,-0.02500432252229073,0.18035962953183038,-0.15601891520871974,0.12489173206252871,-0.010951416364873678,0.1878997436448754,-0.16304370026818715,0.111141890872151,-0.06359710231615369,0.08598509877201073,0.08247945789684291,0.14275272312407278,0.005607112139824528,-0.1510053826491058,-0.1395502494164823,0.18426192394025329,-0.04754861361031264,-0.06782759772445598,-0.007551680271469995,0.2274457246564417,-0.19189289943817922,0.038095911256388434,0.15212871776603398,0.03704096913002885,-0.05879932591096431,-0.08117997299412004,0.11187042480742855,-0.09010788423896773,-0.09493580973063213,-0.10064987009222465,0.059795422948626956,0.15540584084674605,-0.12148331884949125,-0.14913280773614365,-0.22408994840586896,0.08503143466442427,0.22123263016401004,-0.07357184967292711
-0.11617816427212085,-0.0746513081510262,0.10665286064621605,-0.03960056340362717,-0.19391161621504516,-0.09651521107413842,0.05356289672498518,-0.006004801748829587,0.17374426468567292,-0.04192378490321542,-0.03360505155763984,-0.10340089886996286,0.13666678303792246,0.13091538269042877,0.15996712214524017,-0.15263358395203472,0.11676080696828388,0.17160669920306693,-0.08387483609277373,0.15025116855378226,0.12470257854120345,0.017728872703818312,-0.11225145824602303,0.07159149993121991,-0.03050233532252067,0.12173773192803636,0.16495008642527562,-0.038771321710063936,0.09069004567531819,-0.19977211042704732,0.1882758392467891,-0.035682441064990085,0.06310095199168936,-0.09586142385173259,-0.05296220807260513,-0.171558107390759,0.16203492498399225,0.1585860729015869,0.1364648583412742,-0.12428041256161765,-0.1755608208907421,-0.13924460616018716,0.19685503746760408,-0.1664462968761882,-0.11981348394840953,-0.09066805667928529,0.193301781926542,-0.1638358155649878,0.084152860959362,0.19467562411205483,0.11408693469777977,0.05759214063535959,-0.12961901123804562,0.13117004052059447,-0.04362741379564942,-0.010349675852231557,-0.1362131596481689,-0.010183174192856661,0.012812538823873244,0.02733213508108171,-0.10403080507902072,-0.030537467630377877,0.10110129022295093,0.12838074342556305,-0.10189229852387487
-0.1435095297435087,-0.1625733974028878,0.18545448352192181,0.12164491607374904,-0.06576062293161174,-0.07073234962101872,0.03220782588258914,-0.07790162274830684,0.13457551062874148,-0.06562475180986911,-0.053398258373035246,-0.07175284790779314,0.1745411814999605,0.11652979403129538,0.11616691316189412,-0.08131485266777105,0.22062782203359071,0.12006144090658871,-0.1466808593996301,0.13095292457248267,0.07647052195257102,0.03540402236312972,-0.0745541838436434,0.12938054498957174,0.026451647550039287,0.21161776821597608,0.06419066930609185,-0.04137615613849761,0.08055813567603581,-0.08298899349538356,0.1363679217005315,-0.01322001067075527,0.10480448319007753,-0.023150305859349723,-0.011866464464564247,-0.20703337676187003,0.05217591992636169,0.06883215843547819,0.14916964471698943,-0.016246617981437107,-0.21682220506585356,-0.0875768898402308,0.21043498763821492,-0.19895855299567303,-0.19055006127296625,-0.018995948774047,0.1112190337015185,-0.08219853917232536,0.20812059985418743,0.1268529232189006,0.16427691301711364,-0.04111026489444728,-0.09188919503622064,0.09700754526118835,-0.05826542603602102,-0.02315170814800323,-0.194261971442537,0.07465247647269421,0.04780951499347183,-0.08112341912688233,-0.012897458323666499,-0.08845568720968618,0.15010415992329443,0.18668403664692776,-0.1032485726109569
-0.13366410593129138,-0.175510701549779,0.06102680693351339,0.040783535078774975,-0.08717876099849146,-0.09797839715250571,-0.03675120368608265,-0.15170188822779138,0.21977178364239972,-0.15045714836345517,0.021263289427074988,-0.027734648662236294,0.07432011102988435,0.038749547302864014,0.21848354485954868,-0.16683464060070424,0.030065947161060015,0.03923724834558452,-0.06373904152366194,0.17394172281493114,0.19365666759697336,0.09295378089676853,-0.10176354332558615,0.07912338776541435,-0.009499788435011097,0.039495372919047214,0.10459312379761317,0.050735612734608825,0.12319579995973416,-0.09726919641290188,0.1355876542398707,0.010006171004895821,0.030471055533159475,-0.18166781269488214,0.02376358797178341,-0.20795630948368338,0.1391860464963222,0.15851537106653382,0.10994410026362432,0.02012382407468141,-0.18794490189805943,-0.05931152247972454,0.06283443501119942,-0.19156538798849368,-0.1215828557065107,-0.08690437179449904,0.11747614038440438,-0.1083038222182481,0.1984353597395462,0.03201051263779373,0.1015482956864895,0.04119636938235637,-0.18763929614985708,0.12484340119664754,-0.16629225145943244,0.019253225705476655,-0.1300843521654646,-0.03390075037301922,0.06154939279930206,-0.09696682315482254,-0.12304031902635731,-0.14963929817277608,0.16367089963875367,0.2104227982002325,0.032721636036680955
-0.1440199855955338,-0.12088952998506725,0.1517629627778159,-0.009747087136072767,-0.04075711359165044,-0.17500664574116293,-0.11880141726528828,-0.11418023570371402,0.22571611132561653,-0.1401285171099491,0.01489887533475941,-0.01870997918671091,0.1294233381540647,0.03618936852086824,0.2250130822714421,-0.16659234279136426,0.14310563588782182,0.03424602998407864,0.03366771128569765,0.07401668948442637,0.22033707652006926,0.07740149888239861,-0.10152518885556111,0.058925076183153534,0.0039588261367856075,0.20447632365758284,0.15119390211913752,-0.012756283705843467,0.1358107936440024,-0.0676039771413682,0.1634567619294617,0.002552720120425083,0.10323896616089921,-0.18649064818149305,0.0340651848468209,-0.2247215834239688,0.21525408610910965,0.15848525466721602,0.11770080119407202,-0.05553939050262269,-0.17414979054028681,-0.05338872132484557,0.07037411996561019,-0.04348894961304317,-0.21304227839517595,-0.021653608413051396,0.12867708379011428,-0.10736562459192263,0.19966691739821157,0.0640210460885115,0.08945646270441932,-0.04449688264493749,-0.1458616984574829,0.07065728916593078,-0.04772649810921542,0.00857368168528791,-0.11920400416891218,0.0972898529332942,0.03214724848171612,-0.11311091099890329,-0.11370956875151332,-0.19653537981797323,0.06914371009171619,0.04535398206957138,-0.07965513046163791
-0.14167085509172653,-0.2244331370014161,0.03672096795974893,-0.03229113757761418,-0.09621304600285563,-0.16313076589738662,-0.07057354217893899,-0.18906979630141563,0.0902392834104575,-0.03660103360682996,-0.06489287608388176,-0.09108183633163158,0.05427954844262432,0.12838871276666552,0.11644747863960944,-0.06939879331922359,0.12246145662232136,0.12454518775426819,-0.09533427225964854,0.1678198920086839,0.2224948416478165,0.009301449839343723,-0.1495909378022416,0.12698653067242174,-0.0672783846471362,0.20779107885168413,0.0487356007112186,-0.02984832486780317,0.053928669332305695,-0.1896736693707741,0.1296858745539694,-0.021170173222370012,0.07411814720833364,-0.019002430043378465,0.1066625756883428,-0.10308301665372611,0.17182249214913448,0.1349393480720899,0.007111639601834729,-0.15015973660775872,-0.030772784481301392,-0.12318958636675534,0.05382410085748166,-0.1695079628486818,-0.2034997017556505,-0.15324060932042607,0.19619966467004188,-0.2019285221008658,0.10370062342313169,0.0363608608548868,0.197143482815642,0.05146512581123372,-0.12191439751327131,0.09978609358612442,-0.05272812642767884,0.005776823637620208,-0.15309804808079372,0.007500090865383754,0.18291875421266415,-0.11909630094880534,0.006819363067200235,-0.10783511889443499,0.1541194936895875,0.10843083808762828,0.00044732560735634267
-0.15146756357144422,-0.11897691383560248,0.21893108218106894,0.11763002121499541,-0.19987206446685982,-0.09444752559234994,-0.006862487520172326,-0.1515888868551951,0.10473084455517677,-0.12320777343272268,0.045221078959122175,-0.13867781171220284,0.09448045033066338,0.13128944143762106,0.05854441774777567,-0.1915932555686056,0.15668226778921768,0.11598671917656203,0.013039153747153963,0.06081658231862148,0.16124070488670753,-0.026957312023329436,-0.15452901328004054,0.1642242598271677,-0.09118341492243877,0.0496673446719022,0.07520299449294696,-0.08995458224871183,0.1084940552981974,-0.1873459956551758,0.1276435255488363,0.004505445362824932,0.037703359738279825,-0.12768128531905107,0.044916305586107146,-0.23460132623216123,0.12141021041871158,0.15984644538786072,0.09795294918130507,-0.043465336519205484,-0.08665699534770185,-0.22867147467426183,0.06060487587963933,-0.2056367151752739,-0.13519043975086248,-0.05994232432013123,0.05172545496216896,-0.16609279263398524,0.12508829529281396,0.20847939737433616,0.06065813218245728,0.03289394228906325,-0.1897295381709108,0.05760585592226516,-0.04028284530090867,-0.08954556822059158,-0.04284596878056126,0.009993337362854383,0.1457999603934791,-0.01479359882877733,-0.09807142942782304,-0.14144803459325403,0.11146827944535387,0.04396531300386303,-0.08357503011888762
-0.1356546145062885,-0.07749349529977927,0.19632586531874824,-0.012280660887825652,-0.024628967893088563,-0.21289404044643243,-0.034602587617925486,-0.21271550543182063,0.1980407441359496,-0.09006249338116867,-0.021288529332616234,-0.11120418859936963,0.21637468237398289,0.12967760554553626,0.15674364654190906,-0.03873676206862371,0.05731710473947125,0.07387496666779707,-0.02704028872525661,0.11560894519403196,0.09025950087155189,0.009600989061211353,-0.16303688939260325,0.20928169385642528,-0.07283717667239684,0.1632729309993339,0.15419751998121276,0.04933422469811415,0.17509595258719912,-0.19959842236907824,0.10080242720440288,0.011546756410050756,0.14932980993820807,-0.11464484101971781,-0.033906533403192655,-0.08160333179087656,0.13741457057217996,0.16347867577650269,0.15877488712029905,-0.01417836285022625,-0.08217929239876424,-0.1651520422912837,0.21361623488028053,-0.07267460712559588,-0.08420761247172559,-0.14883579564234856,0.15870671724349256,-0.21365601592213807,0.1270409093582606,0.023043765355114543,0.07233522493565633,-0.03876176759327413,-0.1353985499239819,0.02354024499503014,-0.17817845800279233,-0.029574505197453464,-0.025486090462313038,-0.027135407775130363,0.05786549922629456,0.04638624331208678,-0.12786182364049417,-0.09345893007189687,0.08981698384125403,0.12022242776744682,-0.11472783322239792
-0.156403243228505,-0.13450805645321287,0.04126834317937816,0.1022252255247811,-0.14522524427298164,-0.14025247175712754,0.01819044812562168,-0.23355700454409697,0.10292134493156688,-0.22827622791816765,-0.05441057406919942,-0.15759456867927052,0.06206587036671357,0.11828403880276252,0.18236292005069843,-0.03757884944209723,0.08538369720159818,0.16955256086048875,-0.1092664073151196,0.15125150801337311,0.09964100428887596,0.12413294254000272,-0.042461914331699935,0.2337051664674837,-0.08079743755340464,0.15956098873520416,0.09333894198014397,-0.008915464767809906,0.19512587361463565,-0.10634999667445422,0.14866546605129577,0.027506618646269052,0.08384968963672187,-0.0834077792871936,0.04948142261494003,-0.22992320964032176,0.10332607393117363,0.10215142619791404,0.055418884606050996,-0.03374923914899319,-0.14674867639673578,-0.1802508539529985,0.0830837913442782,-0.10140597900027361,-0.1343919770655275,-0.1554611869138829,0.04219713305045425,-0.11714027967087347,0.10783750698647297,0.04700860894387787,0.09541532861892899,0.0011249557331251528,-0.10556023098046033,0.14541487745899734,-0.12914439086777665,0.017253335613580986,-0.1776327164571047,0.08295796900531717,0.13636715065249255,-0.04334760825422194,-0.03296557292768784,-0.14892944372924197,0.08969401042548662,0.06885189203762092,-0.12475843464899197
-0.1416066519689857,-0.05673691409084752,0.088568797604344,0.005993343842836339,-0.06116383398988772,-0.19885041241877496,0.009987169020625545,-0.09643135522379015,0.17211004581740255,-0.16651794470734954,-0.016845054426291965,-0.0765650505965245,0.14704189997956504,0.19503698397356495,0.06750599793052009,-0.10052455886922952,0.18337166728782495,0.04399249670293231,-0.007822999276368188,0.1903552276869232,0.09332302591856115,0.009686647321725639,-0.10759406254464399,0.0813686155150477,-0.05204800942850305,0.22083669547211962,0.03184902202454173,0.02477194688760288,0.1378720913519467,-0.15171105218370484,0.10905147132926928,0.040616035603846606,0.10425704132982418,-0.058699891670688176,0.11577694805703943,-0.046588539745758106,0.14609613799276852,0.1081018056366537,-0.007785238930845685,-0.07011972396882286,-0.1046439180529166,-0.0613404911660717,0.19133650941259225,-0.16735474719656554,-0.08250168867513624,-0.08304082646277172,0.2090152601247893,-0.09239925967360797,0.19071307995448689,0.1148803523472754,0.05951175713235274,0.051819411265333896,-0.12433242380109705,0.13040442476838335,-0.12708878787088101,-0.03566931389168244,-0.20047472520496853,-0.04523214735919725,0.10142956023410675,0.04083424140683089,-0.09893250894804541,-0.21940309026814994,0.16240539271546195,0.12217575136999023,-0.047063008754240916
-0.14085927403632928,-0.0281205666701531,0.08445736240100879,0.01916887212580125,-0.08016336193887781,-0.07221399788776021,0.025702147181877615,-0.15950246598938003,0.18974027539933455,-0.17611836541080833,0.06355340231043174,-0.0008933258871369408,0.15096834652524746,0.04624772133981057,0.0461934837406015,-0.02970500926031111,0.1996919705719648,0.11877436505954096,-0.0723096168625177,0.17508936478520085,0.1746133667629286,-0.0020523294550687144,-0.10188291677262687,0.10462545029134225,-0.0506869860183664,0.07310681112045209,0.20679902183987095,-0.09912433360350562,0.08797217206007381,-0.20285873076729619,0.05445091170944763,-0.027645633176209366,0.07383071833860677,-0.14235076317114465,-0.005594690261170468,-0.1966407815825465,0.15170032655330415,0.14681738349978662,0.07619007473640946,-0.10159870559626445,-0.07480805743612315,-0.17417074542978547,0.17283837025608909,-0.20322362654469894,-0.061589623118860314,0.014271952791328707,0.14650711555798662,-0.11309511549275163,0.04278714673445994,0.06217356856671866,0.09652737404314879,0.04746861835328032,-0.13846511223274843,-0.01734654671721988,-0.1364284772839587,0.012552299317156316,-0.14037134085663602,0.06274491273920625,0.21430040467287234,0.02551145318484947,-0.16168535505399037,-0.17677280340410687,0.18914717470262266,0.11397733640630203,0.027146831700224854
-0.14489695184689838,-0.08171895384976172,0.11227659537130899,0.06130717845794727,-0.03843899152521252,-0.15210212922763497,-0.03415801677102116,-0.1941334977782593,0.1921588039118381,-0.1870708951190938,0.09450484474510351,0.002277146474327227,0.12391668259253144,0.18962347567193932,0.2000717230644757,-0.026222423687224827,0.17483922697057125,0.08755027444459837,-0.014200034780259125,0.16357019434860645,0.05575428191067956,0.13260553551726537,-0.09743768414854188,0.08754701678754555,0.00026496036124461783,0.08139385839813199,0.11534852024407637,0.06355075968737181,0.08438787698803452,-0.03931237488806638,0.038760619733470864,0.045888011621910856,0.17103961604444876,-0.1371274408779801,0.09070007907449726,-0.14730749764431514,0.07561242361412007,0.039252493116617784,0.16718138497574767,-0.08457630773443849,-0.18820463545028807,-0.18587034902867783,0.044625630311962934,-0.09382334108437182,-0.15498548660639072,0.021529115319482574,0.09886639873631169,-0.1679826309455488,0.2081925861830154,0.200055172474751,0.1382441430359106,0.027284624096813058,-0.21828988913378858,-0.02831369258384797,-0.19600481747830462,-0.08045589752337447,-0.10741228852127871,0.02239552244034423,0.14194796865000914,-0.08720081017618715,-0.15863736860993677,-0.07512209738843585,0.12724173253745827,0.21606843847021412,-0.14709439927845808
-0.14570827945266118,-0.06332735290854101,0.20179052125663863,0.0753930674635585,-0.10665080630867665,-0.07049217304068633,0.04401941419523578,-0.03613672677420628,0.16525736225528626,-0.11591498089156717,-0.03126018104850252,-0.11826514416608742,0.03630654534870222,0.176270216662011,0.12253220205198087,-0.04096802335926086,0.1636030012799772,0.03221172846373169,0.030745214189812,0.22252529280927802,0.05445244052649933,0.08619323341624287,-0.018625687904042322,0.14812208579350988,0.03373823039194682,0.21882710770838232,0.05061444882611061,-0.020107804933917065,0.09278261295733087,-0.05011694114174025,0.17292290355918213,-0.039588166008227246,0.135707407251514,-0.10518594558094983,0.10679382406758242,-0.06916942837441784,0.137180487088116,0.20504732056525315,0.1653545737561098,-0.02048749752406985,-0.21572638914346604,-0.21734755322114663,0.1044923948962422,-0.19175643968009515,-0.10722516480585674,-0.040598070941849286,0.13584891699506982,-0.11746878915650816,0.211708120583354,0.143317584595827,0.1404888915706976,0.03805273632613061,-0.10856162631861675,0.10392558594356073,-0.12362593924790147,-0.059989713403312044,-0.06232355572932766,0.09987998491563792,0.07128361396226959,-0.1413093618020457,-0.08661061307163206,-0.06615036502632603,0.22469818020304025,0.21286773267671147,-0.06885503441895602
-0.14277229164812671,-0.1057724434900423,0.10215903870678936,0.03100651667923045,-0.14923278287280073,-0.11968789563861128,-0.021997521277695685,-0.13107337869915894,0.21583445314895058,-0.051232693219513216,0.026733218620063393,-0.17671042532329959,0.04008933991346633,0.20654750227595972,0.1662892948138859,-0.17603219660971572,0.19022516254216826,0.16687982187607336,-0.030607409882247437,0.17281995299401273,0.09998806333714702,-0.024387523391294012,-0.028533233022779745,0.038682794669572376,0.024820642374466684,0.1306858723444233,0.20085968239838434,0.05109888216101546,0.07930041590531925,-0.14034584354477106,0.16336620082386732,-0.014682267338530204,0.03056456984060554,-0.012874436478578933,0.09342267794436224,-0.1353859048609411,0.12770785369937032,0.1788160353737402,0.08854995715550577,-0.010884634811984557,-0.2172826880089011,-0.155027912275025,0.19505381546604228,-0.05055997086360162,-0.05465810010938145,-0.1460994227112248,0.041658348379789496,-0.09763895373305378,0.1665778662086437,0.06228539486278909,0.13196474807718492,0.007805085832139298,-0.06986020406412506,0.01736895998227016,-0.045699600728587655,-0.042989051157508534,-0.14784242885649257,-0.03985764074724463,0.1101505020785647,0.03352393009997862,-0.03265881116611927,-0.09073148469981028,0.18606512211163367,0.14582543085024463,0.019899857518446168
-0.1487563853965075,-0.17398215383275928,0.09185324056131222,0.028435474007603507,-0.17619965885061392,-0.09770119849149582,-0.01986758184657145,-0.18434128375395398,0.19423557254550458,-0.0986691442115014,0.022747793745049028,-0.0713101133125598,0.21116214237953518,0.11021201744587747,0.10113486387266359,-0.05273615409190934,0.1998202339720801,0.05854508402110296,-0.11283109692559357,0.15284153817802495,0.11148381257108049,0.018546738668497386,-0.13538420622995337,0.05561017660806065,0.04788647638277895,0.04085756867766982,0.05260266134163518,-0.05985445018688267,0.14733073363891422,-0.21088000998793943,0.12119754091818681,0.003461209180019467,0.2003226253896094,-0.06930880419448113,0.07425429348170523,-0.13482386470392677,0.17143024909043306,0.20698341681226196,0.17373058366486682,-0.07409910214692303,-0.09825339161679136,-0.1778874313782281,0.15229856319752413,-0.17716361046450563,-0.07336187296552786,-0.14799639160672318,0.15290320127182216,-0.05745373768524378,0.2287786400909816,0.058716186395308484,0.1168303229251908,0.03700851344729449,-0.19996897383959283,0.006257853468787379,-0.03510724801480822,-0.09483018888793442,-0.14469234086850252,0.07578254938533455,0.09789278929496974,-0.048709807862720444,-0.0358749157543762,-0.13615285641582822,0.0440437268047266,0.046602071288659556,-0.0977462335447469
-0.14466127140748533,-0.12447317477785792,0.20399537709934043,-0.0017468244249262748,-0.1384541410346693,-0.1754201269993076,-0.042769144942794074,-0.11656583765183806,0.1314533067715502,-0.060569118434623426,-0.05403462948854775,-0.14368294629684547,0.04563727310250125,0.039363960324154804,0.10215730618433945,-0.09976902962863753,0.10074350119903047,0.07416792289964026,-0.10762271510170518,0.030543450650059846,0.2115548396057822,-0.018801172997053597,-0.07177077888782436,0.20327113852119635,-0.03730187016578893,0.19243006764857415,0.18544256927147,-0.028029176111563615,0.19885058604986575,-0.21817778332778326,0.16263930356972098,0.12730178488213723,0.12650330361024079,-0.11976451157885275,-0.008658420718548995,-0.12239398293474563,0.03685781741042682,0.09887999024645763,0.04758224514694142,-0.10566201796231495,-0.1571460973820211,-0.20941261047063248,0.1600070224972865,-0.09181535062680002,-0.15646310621341206,-0.04477849959134027,0.10486281983568352,-0.17517365592617234,0.10936856286713222,0.16556920597671096,0.06936709172527915,0.07668846083619513,-0.17471765724710042,0.03852617579805752,-0.082174456278899,-0.055543898896264016,-0.14644277663003155,0.09986590649426458,0.03973758204354489,-0.03937005067421039,-0.033075567326006,-0.08327214585304002,0.1629971931734131,0.04435373559546774,0.019885209712485443
-0.14819250098064674,-0.14035758872213747,0.209028467630901,-0.00013135366073818377,-0.17371789348019293,-0.08075886212761724,0.034487989307002184,-0.20972659634116247,0.06607444048764696,-0.14438948766041126,-0.013952334727835802,-0.018855052167785498,0.22467815599929,0.1123332149950961,0.1520999845214058,-0.12099876021603614,0.18356017972606994,0.07819234631573742,-0.019510796856063356,0.038343960680339385,0.040092698315249316,0.08675904074800721,-0.15980419005444574,0.06674499610013385,0.040358443721239624,0.13815379494312763,0.20483803407542722,-0.08018205791570335,0.059618566424383505,-0.12867595325441375,0.04405503334597738,0.03182166706884567,0.014474190220998051,-0.17323874363135644,0.04076167328138265,-0.20667167091943198,0.11211217444373654,0.1390340717774341,0.014438306811565289,-0.06372393403083362,-0.0368623417621728,-0.1632288084109111,0.20272595182105851,-0.10395401688199378,-0.04695327090627331,-0.05392806182890276,0.07603077871280547,-0.19092512605463144,0.18318212980567386,0.17849453215364583,0.04467202137385946,-0.026359601200417682,-0.12181459529013218,0.13083280953185944,-0.1530656987331803,-0.08294817130205667,-0.06753818506782505,0.022075714412099993,0.10432965095417977,0.002461267434770039,-0.05346784788223601,-0.18735043197872756,0.12551627053724607,0.20783950305541243,-0.10742508134777397
-0.14379862816227335,-0.12110439503943081,0.1989844332775082,-0.04107404768745306,-0.16919832719895533,-0.04426251990426794,-0.08465081234111277,-0.08319645615924906,0.18889426764273431,-0.14248891785207377,0.05122000323549119,-0.16830918927191887,0.08670473026955493,0.20431156408652792,0.11867612934197262,-0.1835891924956749,0.05891244402043714,0.0822099684502206,0.014607812728422065,0.08424528219380108,0.17537675475023587,0.05842091464711774,-0.08373044488301,0.08301414176181096,-0.029005753789451093,0.17970385416318155,0.09087823736002808,-0.09554968302282561,0.1218757205700778,-0.14833962564387507,0.1483073016807744,-0.025170699959331185,0.027973117811756956,-0.01759763897980984,0.07586351779187184,-0.17057931968076098,0.19587620043367476,0.0680230433578439,0.14887213887685677,0.03435125133728616,-0.13814019801868774,-0.22096926265042952,0.08442825199897772,-0.22683289740496537,-0.0653056297357606,-0.16546965721586054,0.17042024177472323,-0.057182617024368686,0.2192036992184987,0.08600442230192372,0.15648872964132582,-0.015461975052366262,-0.06102223033712294,0.12379273180278261,-0.15290327869418383,-0.01622036641298488,-0.09224916121626832,-0.010288021201430063,0.10878201373538081,0.03768437732021495,-0.012370807291390113,-0.05536431901513342,0.09647649839076723,0.10727355082848652,-0.05973826235526129
-0.14126312213937495,-0.11253771092351544,0.07781735134118294,0.08224698100447309,-0.18573596210279175,-0.07598559165475578,0.029041265182640445,-0.15658055816982522,0.20056446451312163,-0.13145122186128572,0.04549115788863173,-0.1295397321915762,0.10645856337905356,0.20917650823662762,0.07387341354134061,-0.06042323392252255,0.15021229111915027,0.16424470883422396,-0.010033236327604557,0.18599889866646457,0.23076497914594912,0.09822670869634023,-0.1830887945196537,0.19580764033196382,0.017746159033715594,0.15052716008230435,0.08229983674078863,-0.03856734077667464,0.17513601263637985,-0.1030655735783977,0.061881372238452095,0.02135326474634632,0.1482431263539837,-0.049722942444204166,0.03777515236344021,-0.047222707243063024,0.024509057534288222,0.14945377581173605,0.05541387725147666,0.011227930011409735,-0.09320030864263001,-0.08671203597295775,0.13360439935761512,-0.13197387051932066,-0.0858274308367402,-0.15117743988110505,0.22066457058575928,-0.22552093258650127,0.076453164891276,0.11774170968968099,0.10652384105025026,-0.06851061210783264,-0.23206938598084637,0.07961004987042557,-0.05798493533949898,-0.12038385671157624,-0.03799573963015422,0.08808391262974367,0.040270195121392675,-0.030543117502020066,0.024199658686267115,-0.21814856788942166,0.09775429661098547,0.1461807027279985,0.021083888383420634
-0.16341600769452377,-0.15542429265482602,0.13760484004788795,0.004277070725948011,-0.05109630264467269,-0.11903083764414142,-0.10475687473030126,-0.230222240119555,0.07167487385864454,-0.24836855413467496,0.09158876702767864,-0.12780959515479204,0.2037739079269665,0.04379258855398463,0.1438193026166746,-0.17086231643929167,0.1503461260856053,0.08018287000033636,-0.09062656551068775,0.04223201643445083,0.2330769070439003,0.10572639363844012,-0.16882752480137442,0.12298821238011945,-0.030170586940140003,0.13214503907701655,0.16169409476826957,-0.10931799109136982,0.1925672837895551,-0.10309053240275545,0.06961232906581336,0.022043319856694703,0.0958649505684499,-0.03163315218084754,-0.021458354271529236,-0.1760314613031203,0.10630071577427387,0.11223351416958176,0.04314780264698956,0.0005808398973214184,-0.06622537777300398,-0.09954197586841422,0.07836600791231005,-0.1805844771029822,-0.2003277067617155,-0.047963832392133296,0.05079713422315213,-0.10194463563910279,0.07067372071317363,0.21493525641441982,0.0562929192094351,0.06851621648535659,-0.05547512182988076,0.08670774049624287,-0.13308509787712222,-0.06972618376088145,-0.16359053385003128,-0.006317747873133715,0.11854541472222906,-0.0907896115603137,-0.14130401491715913,-0.07647665746682866,0.11569731827622876,0.19828568663243187,0.017223526683472795
-0.1579675080031932,-0.055467444329248064,0.0741622486476757,0.06724467287804288,-0.2151260500375146,-0.08182471678873043,-0.04001812273466826,-0.07654252818681531,0.12555152974541617,-0.12278455877293652,0.06055069066740998,-0.0712421509669093,0.13053593407657074,0.11789782429346969,0.16800129037566705,-0.12249973777399552,0.09016897921052917,0.05372542112796477,-0.03476167721699743,0.20227694858648276,0.23258844463881778,-0.03652393051656539,-0.1321406301034874,0.23611175549669816,-0.0697927565244843,0.03954958707527327,0.21502175575994759,-0.013377552340558025,0.12951673436600014,-0.0744548596785395,0.06291735485285935,0.02722861429800519,0.04617464084855376,-0.15171099838973418,0.045105602885190194,-0.15221239512472942,0.05793274116460689,0.0962028381917796,0.10531868345658625,-0.09992406421607085,-0.0993757721487912,-0.10739402813424938,0.06993495636983782,-0.21428715254367084,-0.13824566918645828,-0.08917377928745152,0.16234258888833752,-0.21301536095673648,0.1734796009788154,0.05424681871079748,0.09422532059060967,0.0194950253502565,-0.11734312257705115,0.04528177543473875,-0.11713372637208667,-0.10624169292240711,-0.15075462288130365,0.0030343491383465326,0.15222179058679716,-0.1324822049004703,-0.09426337645996063,-0.14613884580716893,0.08416384399217063,0.1567242034288969,-0.027353529575194227
-0.14290077557949168,-0.14135659274360035,0.1381603606120114,-0.02320543944604476,-0.023803244838692613,-0.20892957236726872,-0.06972044056641284,-0.14417066969334735,0.20496702903695857,-0.0653774137529251,-0.045048123324707444,-0.09714840488316391,0.08959638301092201,0.2108808433240671,0.14418818950378223,-0.07693179804517856,0.058707739117511586,0.14129264497181318,-0.03284170183182162,0.16073152379109235,0.056699962599805684,0.06943819956243848,-0.12642852017098852,0.05775931306697847,-0.08359164088693034,0.11814180437862316,0.17765276032411653,-0.04879404521006548,0.1783272580011606,-0.047987318635893755,0.09384728788272047,-0.0034122166896928302,0.20238129059137797,-0.01053831084193531,0.018444850147735278,-0.13540745943439295,0.03976542524841582,0.11695488554912772,0.044361247475597484,-0.10198612690194067,-0.18129020774101312,-0.2193813462673685,0.10401750457135017,-0.19717948335155405,-0.10340395593187647,-0.13746231871186126,0.22511960774818796,-0.1884481985318789,0.18593284138553295,0.19411670939690495,0.03252635029623082,0.07159888412102382,-0.1692173564687271,0.10427919766657893,-0.14797912684236242,-0.12826392834794662,-0.20707339891407803,0.027917183866326755,0.05608608224608716,-0.058718587516607884,0.005420417130283676,-0.07097186706288694,0.02801460358989205,0.062083795278828166,-0.09499400445541178
-0.14078777135858778,-0.13248738832439025,0.10400014925462517,0.10953274474770919,-0.0418130199537158,-0.05670449043793291,-0.07925389517094723,-0.15266738459342372,0.1377470256519505,-0.16668783527521255,0.012776641556423475,-0.1014987887445209,0.15805067534211184,0.024027543410064543,0.09582280559343381,-0.21880188568986533,0.19884909941660972,0.08204531569676944,0.03267176428945632,0.19380299284440003,0.2113789670402007,0.04668617257691012,-0.023344864594443356,0.17100626986821105,0.001800351838422488,0.14283517180766073,0.07283399250777722,0.032662915778766316,0.12388479537408952,-0.10076591456303914,0.06587098079349717,-0.006424670122813712,0.09631031491515699,-0.0963603505219395,0.057582134206012665,-0.11218006891307372,0.17508504685625215,0.172949414917802,0.057735676666351474,-0.11909712586870985,-0.16129884234294567,-0.1362403785914125,0.03143839789322769,-0.18588441516314574,-0.07427720982999693,-0.09259346205882343,0.22195585357390277,-0.12751839099702716,0.025142550669542366,0.052773051595981675,0.07065799192280045,0.05481427845567089,-0.21822919735865778,-0.0054978018082277105,-0.21116972354188487,-0.029688631274063026,-0.17947258412325742,0.06388410501935056,0.06767378250764236,-0.007534354220565298,-0.009663110635842399,-0.17440269805090708,0.07313755794856962,0.06472724059578458,-0.000823727539116052
-0.1354513833438046,-0.09780841231434313,0.047442967212193654,-0.024668804927182056,-0.20376994422604247,-0.1177522955530812,0.02853521699935277,-0.056287033012769556,0.21895280158124678,-0.22315283513994955,-0.0478913643855027,-0.04065377917360189,0.053515547907812544,0.0608548129418284,0.19735460567046342,-0.02199889747497654,0.057784410387922674,0.13919938824329456,-0.13806898650588953,0.17665324505454613,0.1649587608747463,-0.03271567696110145,-0.06535636599760322,0.14303455221096661,0.038084725044174046,0.12350929862659142,0.032887362679890134,0.05535811764093928,0.058073710462112696,-0.03998735875292144,0.11169352144035245,0.12426400039636201,0.16432388896810704,-0.04475523829440347,0.017190990521094213,-0.033176286251343695,0.04110347139943126,0.04372605048241769,0.05267880667713295,0.01746723978574853,-0.1832717720351526,-0.18559406251376237,0.16802590858811706,-0.161409671525603,-0.15080090643060431,-0.15113174768483656,0.14724497370724324,-0.09361726788954539,0.10249805569086506,0.06300633284245759,0.19461666506055883,0.008339793137218889,-0.08517184107796487,0.049232406191787,-0.18630756801007445,-0.043901151139498155,-0.19008709263120047,0.09241949401837012,0.19210695734323496,-0.027831524719866947,-0.04619162910395579,-0.21328761735517782,0.21277101198528822,0.19667530271803962,-0.04008299558823318
-0.14112024373518237,-0.06812185085447255,0.1853546154583388,-0.045208270739389496,-0.13066825010163544,-0.11411879752090495,-0.05447977243411165,-0.16354542600070332,0.14747544646045777,-0.08918262276749715,-0.06905659888734234,-0.074729834406637,0.09335999912151324,0.14554848994755495,0.19739705889398593,-0.09592421780915342,0.20844635648899876,0.20799455919644474,-0.10197546559943287,0.025047346864061543,0.11347752045697314,0.027726153232889815,-0.002295518050200915,0.10989705194403669,0.03628533908451727,0.15459520912661479,0.10889229923293747,-0.07506332892225256,0.11708468515973416,-0.08284606547257349,0.16575904166820166,0.0204668099436544,0.1662986696461453,-0.03290473292279997,0.05638840525969687,-0.13460146260499067,0.14739103334912926,0.07976442746020503,0.07043762491747502,-0.006115376329983559,-0.12170626219398542,-0.1293932185216712,0.17981799565864984,-0.05032603475236615,-0.14224677077433,-0.10951896424523162,0.06944075900135023,-0.16719289144872881,0.08570964145184727,0.02541102597172746,0.0736189193223098,-0.08887059059236686,-0.09689122891204155,0.096216132144019,-0.20847079781358,-0.04385970478400948,-0.2029788506383453,0.0475427234787016,0.12818396137671884,0.014261008182340688,-0.15347086554721118,-0.20267758591519838,0.09176019244983685,0.12042015806951614,-0.05244700782806848
-0.16297837539476165,-0.08970477730766978,0.05722074256781765,0.006244689545859735,-0.1527413250336404,-0.10732743406015462,-0.10662103814533758,-0.06911822616646969,0.19267300649057525,-0.08096735464321717,0.0022062970978896663,-0.17309219320287403,0.05445243621785648,0.15576602401354517,0.05651095157001181,-0.10989804909908953,0.09547472576947949,0.07855983711449856,0.0036964523247864406,0.08078479466781241,0.10621908686349106,0.06955454790104479,-0.029387537578593418,0.06969151119295224,-0.03149357836412546,0.05772027648867612,0.13437238600490545,0.05211853428692311,0.07300373190958866,-0.22721761864822823,0.12539003289783077,0.06583061814846573,0.049778447054801764,-0.16846659060721542,0.021266374455914814,-0.09162415356462114,0.12515986019961114,0.17584918787873274,0.156192704029686,-0.12482372413826405,-0.049127397514062206,-0.126746186608201,0.10246909345148703,-0.16906563753798803,-0.15586650315878794,-0.054684776918125705,0.16323210393960572,-0.22187972496422825,0.1889406225017983,0.13925896825301132,0.10111925262952783,0.010096547070794144,-0.21448172399159193,0.004666808978055115,-0.23768171272953856,-0.038710441470174904,-0.16066131882800863,-0.0024969085402402817,0.15248664825812855,-0.005967933215997367,-0.09019946850721282,-0.2301437637775908,0.11354740379913006,0.11255135271162586,-0.13836201653918492
-0.14658802139000227,-0.19196980271539996,0.1717105544063105,0.0808158344313516,-0.21159676034277974,-0.12965410288031295,0.02343081737432575,-0.17320971884110253,0.17160698222758694,-0.04596472543433249,0.1003147181680175,-0.0973889934890125,0.20563513822357307,0.06676743491063176,0.07945415505400706,-0.15220827059191214,0.1242601919502237,0.16824298004616767,-0.07241172229245582,0.21053638349968487,0.056045631457690814,0.020283923307729632,-0.1669289268486269,0.19111719616561043,-0.04360464751768587,0.10851037774202003,0.1459590233875946,0.0634313443915617,0.2098859561929703,-0.13168233974490948,0.1597250246256692,0.10155562607303872,0.055383907249852427,-0.17715970670550807,0.1024461700331422,-0.11635325362679065,0.13509689839950753,0.19301275329214448,-0.01601222344734581,-0.07047113022730124,-0.09407977975818853,-0.09141401653008882,0.13319585185270322,-0.06012002388660997,-0.08623260712088048,-0.12277096848612787,0.031350361207763904,-0.06338069382177658,0.06158014486827255,0.08044424045470015,0.12276748570503214,-0.021097303304149648,-0.0419928758774217,0.07556364426977669,-0.1895066575601595,0.026502017734656907,-0.08061993810183533,0.023389287116054182,0.19406960740551116,-0.004640931956195061,-0.051543704878606954,-0.18432178507476724,0.05796247905180234,0.08044521822547063,-0.11243107789389549
-0.13187607973681614,-0.047462882213608275,0.13236784760214457,0.11705444279344115,-0.16235919575459612,-0.08032737812174215,-0.014091390101956676,-0.16235995629905678,0.06718176202911913,-0.13511748837409718,-0.04157530930644139,-0.1038264223644787,0.05913419372155306,0.07402658097998303,0.06673533499517859,-0.20888522189979156,0.05865184936034733,0.025743250767034192,-0.10811881884275254,0.16408822317924404,0.21993083691727736,-0.03178675849980102,-0.13146895903355682,0.025925583471457955,-0.000564472477651422,0.12726019339818492,0.16622654358119754,0.012536105579227763,0.0846821066503817,-0.11910475356117027,0.04597850588941004,-0.04167008730195363,0.19389199440278945,-0.18139090440838143,0.03663256873316717,-0.20930504850621473,0.19476872021192138,0.1640531095058165,-0.025625315395022313,-0.11799747346671179,-0.1335697226163979,-0.15666157759905558,0.17906769199363096,-0.05698393762285387,-0.18428242189500613,-0.1337651746949724,0.16966016632177514,-0.1350770422058485,0.1949392587024465,0.14528874159478705,0.16535307631628407,0.08288783976453047,-0.18449824606658796,0.10531335175176687,-0.1558660774712302,0.02614229533874622,-0.17088864328924522,0.0801918246697422,0.07853506749214023,-0.057907600167747354,-0.05508826197167116,-0.13441006715187515,0.036580961050259445,0.087667329053583,-0.07514674595097727
-0.15340158624367062,-0.11267078162774233,0.14138188688015704,0.0471542859732709,-0.0383255037201711,-0.2306662358290184,-0.08907860948752655,-0.134397594508679,0.07012916484510526,-0.06775265204292065,0.057182659698391584,-0.14132299715041186,0.07446433127581661,0.18299097540238435,0.23395362566114103,-0.2069121172072582,0.1338617907210952,0.2229286813564771,-0.13827067309520605,0.20373140785544994,0.13515974912662068,0.05993781008499026,-0.16907752765152292,0.13919269296535244,-0.0473433105653567,0.11969234795202807,0.17453558948216227,0.02053437175966424,0.04670722241394206,-0.16279026028639976,0.1833707479225757,-0.016251374932672036,0.15889492158408816,-0.13759911402253003,0.048646165073077396,-0.05930366569561695,0.06127268420735956,0.1397396482207855,0.08311710118080044,0.007391814274833087,-0.04445216953266069,-0.05859068893461736,0.16345496190952702,-0.07099538207959483,-0.09445790032477049,-0.07542585642694649,0.12993470834066076,-0.07087627879166379,0.12498912367036731,0.201027268870483,0.15682065016503127,-0.032578286067951365,-0.08581177633464006,0.002731125020696006,-0.043489152443789335,-0.13388281594328488,-0.1333153523855802,-0.00437109819987609,0.08593426542241774,-0.04888572682263001,-0.03478723061967319,-0.20183102147936824,0.11189481616745667,0.139291992843035,-0.09946314490633842
-0.12538949367038676,-0.061042051107348186,0.17156305924213722,0.014015631117436516,-0.15142773274538315,-0.21344781888097966,0.062213311501526376,-0.05686323209363589,0.06259429261166492,-0.07495383923449501,0.056207386009818935,-0.05307115841065855,0.02001067861697629,0.021710981324097923,0.20936636325088057,-0.01913785988779044,0.20831178280717222,0.19104407294826112,0.030656351834720572,0.06018267830182351,0.09424380677363405,0.12324686720500021,-0.01486543808490749,0.13576748334475136,-0.011051789097494245,0.04835982860180017,0.026539795522833975,-0.08546076495280196,0.08925488974195153,-0.11398810040097014,0.211660159310558,0.008290457175827924,0.06685766668851242,-0.17364131079212966,0.09745495366964471,-0.16133785774073345,0.20177422030458694,0.1887784501469975,0.06737542021251404,-0.024999701596341715,-0.14141981808756798,-0.18547844279697798,0.05443926039867379,-0.1086730145157748,-0.13736586661101458,-0.14903428051757941,0.1757842624641362,-0.1909268770946222,0.19293219175358428,0.036547575063556,0.052003773351736615,0.010283124781770469,-0.07900108088917021,0.1210080145850588,-0.16096132555808346,-0.09770124127564853,-0.2040080093489764,0.06579389293246068,0.09879642830235132,-0.07518457499094738,-0.038717642229701366,-0.18647355721664644,0.2008500968400559,0.17531822369435038,-0.050247301936910814
-0.1495160954422427,-0.15028393876347837,0.15417739820620513,0.1251724936549182,-0.09813301739949082,-0.2320298643784497,-0.01286933601045491,-0.1889550195729456,0.07041628308196828,-0.16251367914042844,-0.010716544489611164,-0.18287276700470276,0.046221414939803356,0.09621581589778505,0.0668569083906962,-0.2017125987154961,0.1716418160791454,0.1456921308327451,-0.10005677948365528,0.14162425931393482,0.09597675613061116,0.0008884782983266154,-0.0728854916307568,0.20210878504698804,-0.022263519564727864,0.12985239409856308,0.22828515222025278,-0.05835484495186617,0.1442854524741967,-0.19610698876061966,0.10647387388040566,0.09080473195810579,0.04261672482078122,-0.10886872454803855,-0.0617482058521624,-0.1270988955918506,0.14585619760849527,0.12330214805516977,0.1270341757786115,0.022291685778764777,-0.03206308163590841,-0.04906737869474808,0.08102508498386142,-0.039693788539098905,-0.035586302067311566,-0.04636565205931226,0.11688163306684872,-0.11454868257400613,0.08379442852137121,0.034708025315317866,0.14964788224107609,0.013779973857128694,-0.09513149886432287,0.14061625028647698,-0.22649367026092118,-0.014401281819242861,-0.14605573486132725,-0.031142767840547227,0.10122104083339174,-0.08966431655767255,-0.13558154565242161,-0.059100150419492854,0.14899056207342135,0.23188880234841505,-0.05733535711637315
-0.13742203261981362,-0.20690425230247103,0.18308299509290107,0.052576311033157075,-0.14877862649125892,-0.08582913536398352,-0.05832822171779,-0.11031866157607181,0.18490174127491452,-0.09440998026648813,-0.05245302796206578,-0.015018533746264984,0.2058600123474886,0.03791463434404011,0.06898972177910509,-0.0498751786007903,0.17825803840336404,0.16845481324640502,-0.003991274839880206,0.16851355677142715,0.1543287523498391,0.08411016799206257,-0.15525271923438508,0.09677828100264049,-0.08138262161811907,0.04580428588766579,0.169426812105168,0.029580869422525743,0.18403645102730556,-0.028840280014422383,0.05647356785455125,-0.054488760356396375,0.03279345827247103,-0.0845893480696966,-0.0645453931399775,-0.04765715083563744,0.14951607990225374,0.04563433863211413,-0.01649574496460371,0.007077142092358207,-0.19073398310669556,-0.1927250754656484,0.11804546363419256,-0.0993590816510085,-0.1484394774618296,-0.09018415029804207,0.07789684392397904,-0.20033331724809295,0.1749820649588546,0.06710948359671193,0.07658805033299135,-0.04116463903593257,-0.13766852671208274,0.10476933523969433,-0.0803736684200858,0.017550674183452096,-0.07695396852011524,-0.014692821502811508,0.21296120845923677,-0.005168744813903657,-0.10719184970042643,-0.20050737815622977,0.15373841839005048,0.10203331776083284,-0.13555333079930384
-0.1448530256143354,-0.22955364570685266,0.09457699799334658,0.08714718873809077,-0.1641904430653317,-0.08727143886901421,-0.06068316269684034,-0.19553986303498802,0.07773045046015144,-0.11255037460822613,-0.02396373553424161,-0.02474327331909764,0.1224538142011109,0.09752245159966884,0.09006255940834446,-0.22039828377438417,0.04625905465710253,0.07492299269187987,-0.11513830519991945,0.2256670038195291,0.0885429602232217,0.07568877145230743,-0.06882977936059413,0.12491072429300973,-0.08116021359579806,0.19308422515438536,0.04794150666708616,-0.06021037257119701,0.20716993242964543,-0.13428126740779464,0.03275438970079927,0.11255162908308504,0.1608508594943081,-0.17199610825883788,0.05871064926246533,-0.08622204646158907,0.11264554004781775,0.11489616480708889,0.07726591533713535,-0.042029830831021554,-0.06116569473054805,-0.16941275481028356,0.1027707905584147,-0.06067649591493351,-0.14747376570312798,-0.11205355272957122,0.04352950899087741,-0.14833908866270495,0.16468544673172159,0.09893410507600289,0.20806289433538086,0.04516476459792444,-0.12680619155796463,0.10701938843442009,-0.10970078349685247,-0.06940256015120623,-0.17737973274955834,-0.05159068105286105,0.11864453446270799,0.005381174399262196,-0.1522955795436538,-0.21223368441344806,0.04483117575727764,0.19381880844571722,-0.09265128802485449
-0.13724076307365934,-0.20443675403118913,0.026913946683944038,-0.04188003537466737,-0.1342995751698305,-0.14139793726259525,0.03739354665896341,-0.1214737961498773,0.09816446156868111,-0.22473032424950679,-0.014673994429839719,-0.13138236235089382,0.10488420756421125,0.030295383479718257,0.0751422505765962,-0.1455860997668246,0.15124634617162502,0.09208004148906815,-0.10693523890195276,0.19319661708679278,0.14338584552089315,-0.017279875460835457,-0.05670306589956516,0.058323770106590136,0.04262026043233688,0.04599186121732496,0.18338915484575663,0.06419101856424832,0.10413105096970393,-0.14149892476969583,0.17688538347706598,-0.04186197826916923,0.05455401923832879,-0.124368407354957,0.08739457534932932,-0.22374614193048886,0.15269601504200234,0.16165008161458327,0.031064473807057527,1.4551317558452785e-05,-0.1850830768495474,-0.11061170994977981,0.15036465845436836,-0.1304830933620876,-0.10666418577600557,-0.05860911865975204,0.060506424121144695,-0.02467911898602984,0.13411343795589534,0.06848540475055177,0.18143523741364048,-0.08530797148197768,-0.1493859573960047,0.039334164360525815,-0.1715500258949917,-0.11886672903984967,-0.11858269657140878,-0.02069902665361271,0.04948052193649461,-0.05949483753934785,-0.06635220152233277,-0.07048377016074467,0.20722150325490354,0.17067843694603685,-0.1548313343102184
-0.14396506071489362,-0.14106357045462609,0.11566827390772791,0.05946503993700658,-0.06884373500821796,-0.17609457161315256,-0.0609140831522026,-0.07572491433933919,0.2219752005797531,-0.21055498879731235,0.0402258143227617,-0.02328783099620647,0.05741956822957045,0.1296458091986653,0.0339090798541445,-0.13704570643927738,0.033603983651475246,0.1646121871219361,0.013203364214667264,0.1129875782373751,0.13211136346906918,0.09284421097496377,-0.10805819668147312,0.18777244652704053,0.042513852732422114,0.20187676794669435,0.13931010902412427,-0.056812777398028876,0.1644166656747759,-0.05826525165550425,0.06107665133410493,0.0398424954357799,0.15067455387031026,-0.11916621273228087,0.016442965956718472,-0.1576675150109002,0.11793839222139471,0.1681932320836408,-0.010928562208559232,-0.08320628955357531,-0.07705739398926496,-0.06453202058851765,0.12111336674914007,-0.09672031392226259,-0.13948036596316737,-0.16497411884904067,0.09159961279570869,-0.1342043039398544,0.16313282597066445,0.05764694792993498,0.10880409043532926,-0.01584239032025099,-0.22163316482818,0.042704566233200486,-0.12005209658305155,-0.014820208258991708,-0.05626453492563524,-0.022905728601060042,0.19839384753185865,-0.07591905941539592,0.020124218948110888,-0.22171916210376516,0.1640202154322048,0.05546139077727902,-0.15628793900184626
-0.14677376406416212,-0.050722342296970244,0.08558649571599951,0.08955968046081159,-0.031493299120608116,-0.23165730375064683,-0.04468924672724126,-0.17344632023824774,0.11938867933837323,-0.07080516469704737,0.04390233796817707,-0.1783291458305088,0.1302570369372335,0.14678121164913124,0.10989621243749555,-0.03596046908991506,0.15397902799733126,0.034006874503090416,-0.11686198198908916,0.048714565338151314,0.10562549962429,-0.012545167230663117,-0.05289486857239893,0.09631861823795787,0.03394836248779568,0.22001850383446295,0.11085371510481858,0.03888822954912248,0.11735145852405539,-0.13014386501718994,0.15976941694773283,0.12366124942267104,0.1073858197746681,-0.08932355253772459,0.02155114229909484,-0.15199830539561676,0.07287391904615106,0.11155907541356073,0.09373760713061573,-0.05198042536797744,-0.14470801114877782,-0.19357600026141347,0.2162953861952851,-0.16002089394362126,-0.17374241707142293,-0.020520123927112822,0.11768315507119538,-0.16067757749063935,0.12246750526836125,0.20010260847366865,0.2044679755605264,0.03368237588142301,-0.09119901746019365,0.07345441558845638,-0.16617456745510878,-0.032338331003935225,-0.1687424540804994,-0.004774821877588634,0.03921979894650941,-0.07065653360429375,-0.0532886160535164,-0.09863543987336516,0.22518208619803684,0.05174112894447937,-0.07393249205169886
-0.1305829914897574,-0.06336751237488256,0.043830352249969076,0.0628286646287415,-0.18063356491229413,-0.0841097177418443,-0.07299406187760377,-0.08713182484339686,0.14499626138705143,-0.04941139147278448,0.09366862424718987,0.00559816958932105,0.0709361687104676,0.03689063729874876,0.19951212501740884,-0.11506477869317179,0.10143036812394694,0.040834345086437095,-0.048781951262967846,0.1645506864352127,0.19449166121086517,-0.024311615557027107,-0.12236112187882245,0.027148845100504755,0.011518790194298141,0.12567227482857307,0.20843957666136737,-0.09639678379306589,0.12211103170379885,-0.20388752109353214,0.07007177504277337,-0.053555385395780204,0.026349899085126905,-0.14703663742814457,-0.033410973670293366,-0.1453657335589646,0.07325420010079976,0.21495979301034626,0.1525394340195411,0.0008514002429662323,-0.1854337437987729,-0.18324854415044722,0.0781807503200727,-0.022955962932324228,-0.14643128946388892,-0.026471616311376366,0.1947523938159807,-0.09103008443961383,0.18545659876954398,0.147915945641028,0.16376815118106058,-0.08542609458621421,-0.16448961303140913,0.08065277530069259,-0.16363644441595887,-0.00041150638868261963,-0.11915234721104855,-0.06475353544238038,0.17648671309372657,-0.02813258470016929,0.01711906936315948,-0.21355519855511124,0.09607440923715385,0.17401113007318608,-0.015642582408335798
-0.13792888515985696,-0.17424255069759073,0.07189201461614271,0.05549446319364811,-0.13253638999848644,-0.10730360684457219,-0.1136289410171627,-0.02929705511033483,0.07806897170283378,-0.02706910423917093,0.05079872178681713,0.007596748504074792,0.19200174032962364,0.029294204487445897,0.1836705777503369,-0.09900433336561242,0.14394219295659771,0.17658207418565766,-0.12192424684154403,0.2004068885633562,0.2275164091027902,0.003644075614605213,-0.16898052732620486,0.20257670403797046,0.028039147673351233,0.07651363765385272,0.031240473323822054,0.003757954738457931,0.17050451846537953,-0.2049306486813296,0.05435919599702699,0.03732800449357717,0.06890424655645472,-0.13201340647378781,0.06773111058946785,-0.10974226753504177,0.17855707255892017,0.052180295367024336,0.12895993580302847,0.038726177309345584,-0.059283253083616226,-0.12217091802744466,0.20425756441034013,-0.19674595398353958,-0.13697673794876183,-0.1433299526630403,0.1633206182075514,-0.19334502795083305,0.16724722125933977,0.11227018333274082,0.11789958963031513,0.018557910075098806,-0.2290986300110187,0.018558272370933868,-0.09183213682016521,-0.07705384342480512,-0.05085604352059949,-0.026793138125590622,0.10086928353993801,0.025655043806538713,-0.024479239749713683,-0.04480118188641443,0.10971920881917069,0.17910679915069916,-0.03002883397862285
-0.14939979447429289,-0.08597387265257263,0.1863952781765091,0.025965736558020647,-0.17065878631303177,-0.13726086162839007,-0.010406492340177188,-0.2022266732782577,0.10250686109806599,-0.2255519530498706,-0.03224001994031683,-0.0865548233258646,0.096690776279201,0.0863566074458825,0.10151823667030496,-0.08100467728197862,0.14795140484572494,0.0537669680684891,-0.0159610234954195,0.09340747238826877,0.20508818511203414,0.0848843889584174,0.00019547475087279358,0.18419523752227707,-0.08754416463898916,0.052914946864610915,0.1762363002499923,0.02382876999061957,0.030386241489282605,-0.040171282571165916,0.207425975123615,-0.01427299791961081,0.13010294004880674,-0.07815870723910393,-0.011615971620209515,-0.15913462785954763,0.13491712540458026,0.04945072066131094,0.14367582639785426,-0.10847902981880088,-0.16828940156171932,-0.18116244766445008,0.05921327535392674,-0.04591155345944485,-0.15533910142165677,-0.006660726188494116,0.21891117581857228,-0.21850936688776668,0.15362829987682716,0.18017833108353418,0.16848133269087895,0.018098441816244273,-0.07607708074333235,0.09497934648552618,-0.05534597708893723,-0.013669764761158292,-0.16089173005470211,0.07035615392539686,0.10053424369860214,-0.1185213114051743,-0.1577595981697768,-0.03632153987161363,0.09764041851452555,0.1459103616384053,-0.09100137847577981
-0.1446521260772066,-0.07603582484628468,0.17715094210654772,-0.025128975426815553,-0.2096837997183532,-0.21432507550968682,-0.00664737077136562,-0.22673948120343976,0.12112907164814746,-0.2170469807155213,-0.06633877021034006,-0.0790062110555172,0.2104215957811269,0.20977727922031936,0.181252912761469,-0.05352054933120301,0.03522815280636577,0.02884157510256847,0.007137796801418105,0.13306946015119298,0.1605083685860863,0.00030672870744372934,-0.09127721602165806,0.16154165426698905,-0.10791726406567383,0.14072950627809666,0.15984396347638863,-0.02959479817296131,0.1393080976772212,-0.06705989203680009,0.13388981111774467,-0.053767843175744935,0.10227657628892106,-0.007023126173648513,-0.01568463225374256,-0.07257391979996572,0.051674542087326004,0.16653759375723418,0.021071907422135487,-0.12825182015903538,-0.2167460859447531,-0.08715315002829331,0.08942079529669378,-0.06070817752521038,-0.043781118635827655,0.012326310181866109,0.15218291865461522,-0.0811667628225692,0.09468507003479766,0.19679065978353033,0.11014187421622176,0.044313124160362184,-0.21722577642291135,0.0398714371752514,-0.08053047773184634,0.03239369143010559,-0.05324507994757012,0.05206550708583218,0.11173592529053283,-0.10945927686125899,-0.15014747612524162,-0.05197409445526067,0.1794321436313179,0.07802709744276291,-0.13156417956581076
-0.13023562914494521,-0.19039955481753654,0.06195171930331222,-0.0438932326806699,-0.2015764749754063,-0.15735192754583427,-0.03794849057536213,-0.029639408105571002,0.12929154373120127,-0.18641051646847195,0.045423434871604274,-0.09408070057414014,0.10576703552565533,0.12146310723292222,0.19294258891111016,-0.20848389703986916,0.19205750720817835,0.03425947358393372,-0.051854218140367406,0.15904478244075965,0.12401010801295306,0.010646185701928731,-0.136310182149178,0.11019211174870172,0.017457000928097682,0.09465817027103118,0.08410283039757523,0.052900206898289816,0.1399341418732528,-0.03064686645521594,0.09513138152353505,0.009707766158667704,0.17124796816964163,-0.11644228611953916,-0.033452160041220695,-0.19760710786093122,0.06052084760054468,0.16833948373603438,0.035975920648555045,0.012188101134767681,-0.04235524206090035,-0.1011050640061194,0.12414940664766479,-0.1381191434049715,-0.17476551573103133,-0.15857740473306578,0.10816521838613236,-0.20714701027683025,0.2123552772398206,0.1788506311555122,0.11664199891467843,0.030513862009245784,-0.09865029427873932,0.042951222073845614,-0.12430449372013559,-0.08157050673613235,-0.05108876243452941,-0.029251021607264012,0.03264627593703592,-0.06936699040972515,0.03150391628573747,-0.18050958887779434,0.1856787353897517,0.059729316302189805,-0.02930615379712531
-0.15365924543084164,-0.08779439682606324,0.07378160487526882,-0.0029976095862170094,-0.04907293140145668,-0.06102589256840693,-0.02307830101986357,-0.1742612775854214,0.1416616578636485,-0.23252811984010396,0.04753842301052208,-0.01736278426901618,0.21359351107957256,0.0699685506853538,0.16534910941120853,-0.06184081539391447,0.16926112465797274,0.1494569353600279,-0.08644940159102016,0.20567240516296445,0.07868772199025222,0.13190739869804433,-0.03646184558150313,0.14072956302331843,0.002598087468300693,0.1546395043328499,0.1871723808128679,-0.10727525376378824,0.09086679365401754,-0.07929372680572726,0.12642283464647341,-0.031596505216910827,0.16652902531770758,-0.05644433240667599,0.038215499780294974,-0.1508117494077054,0.18188490006225655,0.2254723633937433,0.1518084896239888,0.0296674326514745,-0.12398073946148068,-0.08967299627560912,0.22575148977233328,-0.03799309711086035,-0.08568605701570953,-0.07185017835973233,0.05803705251066269,-0.10078442993451588,0.18374450645108537,0.09808514776463292,0.20528732362043758,-0.03638715902139866,-0.12426446948293683,0.15537737227240456,-0.1198277909879185,0.00791162075239765,-0.07179129287378773,0.0645531683852364,0.07549247399407492,0.017639612271752817,-0.04548509055597536,-0.09985564370415609,0.16376180548878905,0.06847758885571023,0.017762629330239303
-0.1440355074570187,-0.2177499673304409,0.08292013961825505,0.04820354023723118,-0.025311499102724705,-0.12551931961577134,0.0189338924199143,-0.052562985170023335,0.12628726498040665,-0.16017398123493656,0.05543375990265616,-0.06134898047094428,0.15567136098895848,0.06803344676095972,0.18996594417895357,-0.04757754561734468,0.10097613755607462,0.1575564737049449,-0.03091635905405088,0.1876687920339089,0.14354739580231596,0.02321702550226994,-0.18209108045365302,0.1383469610520332,0.03052334605960288,0.11247563036103865,0.12169299245886542,-0.04930641090363618,0.13201653622282697,-0.07643131391543208,0.21326940266560254,0.03887579742642404,0.07375694992641221,-0.12172582327075468,0.03287668222129016,-0.06308723676670101,0.1611951047583532,0.22810136531623704,0.04703006814952518,-0.11403059647634244,-0.14465453732587974,-0.17272515571575306,0.13457299255431704,-0.08650356481079206,-0.19884073723749415,-0.09387073559846086,0.20767626181501728,-0.18958546660398137,0.1657062640222767,0.042963921218905306,0.1916903967094817,-0.04207582035307879,-0.16819206088733127,0.08266234963446586,-0.032265374923009335,-0.0521790507766139,-0.06608929506506615,-0.007831321133815149,0.12828086496085672,0.041755610481557244,-0.13290280790999892,-0.06671002393112663,0.091575337689337,0.041702539844266195,-0.15338816911765862
-0.1361787140090731,-0.06933965870617888,0.06449343293753787,-0.03890849099899892,-0.08958839344790426,-0.16530835209645295,-0.12168593263759474,-0.16549602708794747,0.1803334492042451,-0.20136214341591946,-0.042837749839688126,-0.1346018104919503,0.07584060696296624,0.1668145956607653,0.07125921952767486,-0.19876220687006235,0.036033902551561005,0.174652352597866,-0.009755646761607326,0.1621639038561108,0.1571224075417407,0.0631214035815085,-0.13138998553902936,0.12062238969630379,-0.004932703522331028,0.03708192982259915,0.19483181399692096,-0.09602942081877727,0.1503913756576481,-0.18929115508480757,0.10504647207594685,0.04475178445291405,0.16894869611260677,-0.087751972616748,-0.04332971473968009,-0.08336774124877938,0.10393477420974394,0.15921666944220694,0.09497549612366818,-0.04648781935402359,-0.18967661085467896,-0.10682384761855694,0.029893885339151872,-0.05970585082261446,-0.18306276239985192,-0.09347614015377309,0.14171885380326005,-0.055396793643048725,0.023358520780738322,0.05689856887351259,0.15477490336992533,0.01809745962832687,-0.2119505660343548,0.11912291167874953,-0.12729034712330392,-0.06629494040063616,-0.10491549256888451,0.05413468482582904,0.2155340850375287,-0.10889133623726834,0.024466226736402516,-0.1518107449790456,0.17238542201466697,0.05346646117070269,-0.13701193478560095
-0.14148428533615295,-0.17729351520623612,0.17425523159665451,0.107126697147627,-0.19430284025334224,-0.03380646293175391,-0.06866675798265805,-0.11261720345014431,0.16580023097709504,-0.18119656225759012,-0.07726429813681636,-0.036948934469754405,0.054965761736010484,0.19155562522773084,0.14785145465660704,-0.14496707156939018,0.10865759993606484,0.21364025345639068,-0.07191474726325417,0.1472268058245008,0.16553108782617723,0.11839711047667073,-0.048093201480206224,0.1218096547201254,-0.007827638349796245,0.11327821853936952,0.13534738726812856,-0.029880586147166113,0.11697699023547391,-0.03606988909497579,0.14648471533229632,0.0857215148921152,0.18763495364366922,-0.09788346832634016,-0.030556444151944608,-0.04028535094719997,0.17066141250223182,0.04218943296877644,0.07280824937419232,-0.11968994508747983,-0.12340894176727052,-0.1989091147698327,0.031033044777895997,-0.15937816670383215,-0.031161543548467834,-0.08545836420505466,0.1872431536907452,-0.06971652925108876,0.1256819954537801,0.150341112526592,0.06619783513249719,0.0630699132003839,-0.060884955525462865,-0.004532325658087479,-0.15803776160621885,-0.11658329941058151,-0.2125642082430516,-0.06966624732157242,0.13373311465336743,-0.04850716107541683,-0.03384718961816953,-0.21051103421462886,0.08877330762434579,0.08769491356644878,-0.14220814792916955
-0.12824581432289214,-0.20401152205368006,0.1649058938468922,0.04330647708285133,-0.14945480362862543,-0.1513289808011402,0.05057033196004666,-0.17160207784689394,0.14493238683493817,-0.08895034376265215,0.005481427524405572,-0.010571131732006337,0.18826364677142624,0.047769810363801526,0.21582213185190985,-0.18094116173136024,0.10477705315309696,0.1965564674243172,-0.058608507325764406,0.019041463748251528,0.1846030368176891,0.1135314290421435,-0.050473611858714136,0.03638651438730573,0.044556597421466046,0.12583090517875486,0.021020651988097386,-0.039038292936538224,0.13806817243734018,-0.10344276125889466,0.06914608261158726,0.07381499298241523,0.07927873257379213,-0.13444573428023207,0.1093377677099249,-0.20570985372103123,0.13800621292659102,0.017313309290654753,0.15540742286239315,-0.030955239895576827,-0.20504702445763887,-0.06343048587097622,0.10856363598572814,-0.038490484491867795,-0.12915953149474718,-0.014074905068449545,0.16817574566237045,-0.08836647322546613,0.12434453939493689,0.017174619266748077,0.18095253593136046,0.02638409098604815,-0.10646950321291836,0.01895157815130285,-0.08667292403246829,-0.062022143042456714,-0.1932296841290154,0.09453393020900511,0.2055292649024261,-0.10344557929470138,0.026045969273273486,-0.20151995446990886,0.12144182066597112,0.1192032340760455,-0.08613559846738952
-0.12638822071334532,-0.13566972031010688,0.052882213656201965,0.03172374982562565,-0.14915031758703903,-0.11796385880227268,-0.11113884133675693,-0.1213218589724698,0.11190788315401988,-0.11073726849655398,-0.06397854007763376,-0.06519068505429244,0.10454537944872519,0.03602975013335794,0.10485389720232188,-0.10010650298423851,0.10620250011674462,0.07979508915889624,-0.10805490550066738,0.20038785322137279,0.1660007130438564,0.02601535565176672,-0.0973742242386451,0.01997007536142685,-0.04203073441870522,0.17957825467514266,0.07510300031551563,-0.028108107328865952,0.19534302613036847,-0.17292670386682882,0.20106251342574832,-0.05435135665506571,0.05825325973928468,-0.059384432319563245,0.07670140129852784,-0.20112657351657767,0.05609679444464555,0.15763767609544385,0.07052052318983155,-0.021953337034137068,-0.17195759340951422,-0.20716241228498392,0.1267113640673856,-0.14160146824229866,-0.14239471910882434,-0.021821125714524343,0.20038099181856595,-0.21157583354422543,0.04617260723425637,0.10971712974605229,0.07272683747641082,0.05732807983182754,-0.025674710877692183,0.1317589770209661,-0.08975796128082517,-0.08714933595277931,-0.17058615121856852,0.055007608314440654,0.17715435512537567,-0.004541641153290372,-0.1085569066695199,-0.12307164613358293,0.16053317472744422,0.10936078818748414,-0.014173742627561185
-0.1538775504435221,-0.06062009558769021,0.10769200055200906,0.06007007927892739,-0.16222330828598658,-0.07438721245216402,-0.0033585622067246333,-0.10160735356036003,0.20975613930284065,-0.07426731099833446,0.058362335355951436,-0.09051549399101007,0.18400164308218012,0.1775607962995558,0.10443331087363977,-0.15129198198322152,0.0534619195860632,0.12485078042515675,-0.015390078626318353,0.18011800216150775,0.20911927113149825,0.10441462748458612,-0.16110859016300547,0.07469615598699167,-0.055116332975601263,0.09684996972887731,0.0876659462651551,-0.04150585070760909,0.049451011952828756,-0.16175977406944037,0.2396693822404389,0.0818495883574186,0.12136348913255526,-0.17516325144006759,-0.05439159962334589,-0.04919646697508087,0.13203012922200713,0.11637867781781022,0.018843903576858795,-0.03428556243933566,-0.10607602390669142,-0.09040262471698518,0.07817105668431093,-0.15932707106859015,-0.1133902037853053,0.005519761615721285,0.08107313043479077,-0.2247877005447258,0.1822635140255181,0.1854525922432615,0.14609067412509302,0.04958391490059786,-0.23555081717836024,-0.016084618374711424,-0.17344548295167897,-0.11023708560122829,-0.09712287642407093,-0.05808681450191845,0.04780522813409542,-0.08936068528137653,-0.14008820470779307,-0.04118096932785719,0.09440193279036807,0.18830373143234203,0.013388940753497416
-0.13920180899141593,-0.21257292617912144,0.15172356557902736,-0.005540883042196568,-0.14529705444887805,-0.17583084725258527,0.051182319204351054,-0.029493013936653656,0.14589918207881042,-0.1225481370948987,-0.03833549897285279,-0.1289991253190839,0.2096162146055406,0.1836309150216562,0.19214012399746663,-0.20209715237089945,0.10383337536368632,0.11964615348909678,-0.136845584664448,0.09984267995561417,0.044699160522723096,-0.03919966072921052,-0.0008878665361158999,0.19444681836329306,0.016144037827958087,0.12939551271163588,0.1472507829254755,0.021687915901505064,0.1658448805983574,-0.045938266582089465,0.13480975874864448,0.12662319232334826,0.040523965022468245,-0.06801602957061148,0.060201557515158495,-0.1793114497289392,0.11040129049546307,0.10922198041842977,0.12279596616025278,-0.0023501620929399936,-0.11158224405228478,-0.10627448876232228,0.09887442757526392,-0.07575802986393862,-0.19842274559833914,0.0012768090090826802,0.15560012984224317,-0.07962348429312034,0.14473633531822166,0.08104255919628221,0.03337380384320795,0.07365250613956272,-0.08204249534547035,-0.031884630835931495,-0.10054798873015589,-0.03463688556130506,-0.1235528323363244,-0.0678673711027371,0.1403864014952562,-0.08508747158367894,-0.13927914982006012,-0.09846113511531208,0.11230905487361026,0.1835685918172162,-0.07789823761710486
-0.1342371639023231,-0.10751370665100796,0.16871487621941333,0.12373408145639091,-0.15769596254283214,-0.15654679917760342,0.026524680061655554,-0.03370251816756552,0.22492715039857394,-0.1576096290942394,-0.03650216120905676,-0.03878134622390762,0.18967530585954007,0.20317504513197868,0.05316578858919917,-0.1249510182081116,0.15100795383261523,0.04297783988243902,-0.010356655268380857,0.07594828444816859,0.16536163480196078,0.08127576250642665,-0.13357145511909618,0.16940230504680295,-0.010762804556581409,0.11479770746686355,0.13922217988113245,-0.07014202842924604,0.18311600723292312,-0.03503640478299683,0.12839623005121106,-0.05554940493672155,0.10991704097966083,-0.10791465831297822,0.10652787913460689,-0.15257190896023143,0.1144664071084635,0.027845831873478166,0.05789590688433983,-0.06716701743027421,-0.06837668118689247,-0.1463668922723136,0.17118208806752092,-0.17413025723023992,-0.13720353977826122,-0.09421920970083075,0.18010443071570564,-0.19914303819936593,0.07471871429312583,0.019081373170087144,0.11357632411984236,-0.0793057942272501,-0.21621508702952189,0.14448725925037842,-0.12477254280252295,0.04081204963384845,-0.1364911825287801,-0.023802023406546097,0.10330475888348312,-0.12447536120767803,-0.07390344746633819,-0.03871755026291894,0.11717009437294153,0.10310810087849444,-0.03278156490307825
-0.1460440268606268,-0.13930941419975246,0.11406554353539071,-0.04824258899491965,-0.21576752438992525,-0.12384083620906736,-0.09242439929312529,-0.18837462831593896,0.10172197483041437,-0.08633293462119541,-0.02985322132169659,-0.1444459531495743,0.06923434613782554,0.15006778519697617,0.0890262545380408,-0.04265261690363895,0.19518309605700798,0.21706801333324147,0.009411120630288025,0.07655534068344441,0.08993570795402263,0.06897740002950858,-0.15345082065224916,0.14898752243441493,-0.09184107357501597,0.07354713253274688,0.12931514064862093,0.018375512020650797,0.1101477903749941,-0.15840023076132845,0.21269888643709978,-0.056376899811154936,0.14605871580038166,-0.17145541710038653,-0.02571370096537603,-0.03439311295442816,0.21748502749107965,0.13083400299903597,-0.0028441937099229872,-0.05330357364598935,-0.21452543152809142,-0.13857980528317992,0.04385797745634993,-0.03341981909158131,-0.1430580450011854,-0.13164657522077,0.12140574519502263,-0.05273271753127795,0.09446903467179102,0.03861743037616864,0.2052578006059548,0.02090580539301673,-0.09710488570517646,0.019038056103337076,-0.1922684165073495,-0.046007278355160615,-0.05026145177172515,0.03195059121734616,0.12930956078331102,0.007732129353167218,-0.021542642867755642,-0.11081483070544415,0.21981855046090368,0.12678191234209293,-0.12392532096461219
-0.12615304656769175,-0.05003841299113274,0.1877113591412972,-0.050499524955579585,-0.1412237895521533,-0.07253405832065771,-0.024967500369876026,-0.12591834288712378,0.09004625540029271,-0.21358099930768537,0.05671551116241199,-0.09967709238073949,0.17576570636386293,0.08393697546109183,0.036485620933798125,-0.19887091485433625,0.06937319065082323,0.11757019674940003,-0.0064916406764841585,0.1621219712843016,0.18123151137031612,-0.028140343041831942,-0.04016389176240152,0.18307640782171106,-0.04728356840542386,0.11589073240558928,0.18457365583916283,-0.11065944206912826,0.1171585930129289,-0.07629856796023789,0.14115919692143444,0.12489684150143587,0.029739337543086903,-0.1632471768119178,0.032683249142591,-0.04137169033949579,0.04171830136677151,0.08948229955580572,0.04015731056007907,-0.13032882885867436,-0.19435991709269035,-0.20669498910460132,0.16355879551474237,-0.18422686587360854,-0.16574301083599943,-0.03608698641983269,0.20597237237786262,-0.06878113434962507,0.1529255261119462,0.16492452929449627,0.06893018543489311,-0.039357803530783275,-0.13219962699963994,0.107566738331948,-0.13265594897426694,-0.006341303874559237,-0.08788074796347639,-0.03367033882140769,0.11496673264495583,0.028150444159150714,-0.07584502675451817,-0.13207137215862486,0.14545311107658004,0.013737905897606394,-0.13342989102776662
-0.13536350510580059,-0.04160930579496076,0.15399522343147182,0.11118364321979739,-0.06637021446686987,-0.07962237945761336,0.00018939343254102407,-0.033094511929800445,0.11072992493176392,-0.09361180936667683,0.0983628753169698,-0.06847316745045932,0.13365296235443944,0.16488098789242178,0.19820158558664855,-0.03107874331234274,0.19359626230853322,0.14849646748246312,-0.05219655020996073,0.13511575583943297,0.12856135047714956,-0.014760459097623815,-0.0048829775226688086,0.19375048198905506,-0.08383704999650135,0.03988669449655668,0.19124267992493288,-0.0021648375573879958,0.13613966164450378,-0.11905946328337415,0.21390179666264944,0.1034353114648081,0.012363925556137545,-0.12163343278177251,0.02853831313810895,-0.06754498408527271,0.028292900089640607,0.09499284794005221,-0.008876280321853168,0.0011165882334682646,-0.07385645451280752,-0.15290109908284402,0.16575135374814354,-0.2160032516196516,-0.07512032861072991,-0.10690448398583682,0.12656586750852514,-0.034339451547222344,0.16891801397852077,0.16581100878743424,0.15305205790041393,-0.03068670913549298,-0.05303383185563102,-0.007276972570770594,-0.21107103213958234,-0.02807847576010133,-0.1828404887421491,0.01023122800072747,0.0252779172178586,-0.0741388393031249,-0.004567267276581173,-0.2093741198349744,0.21674100970637392,0.19343903613145869,-0.09739395967304011
-0.14987832347023133,-0.19398724317980925,0.16365253873737473,0.09199323317598009,-0.04302376432763677,-0.1561009460569095,-0.07038845328673811,-0.045240876281129834,0.17053022190912767,-0.13818462049617938,0.034047510686929114,-0.17034734281895544,0.06501126193056544,0.11749537335634865,0.07395619216763265,-0.14844069545218658,0.0977249317160223,0.044994684528134675,-0.03466023125938658,0.11128750214351528,0.16232883389853012,0.12798403018962398,-0.17886086857626343,0.13984083685733747,0.029712297690029935,0.06940768801256966,0.216732472359322,0.047269789894780284,0.03239774153044041,-0.22415382994864813,0.0943249916681811,0.017328052137933574,0.03179176876423725,-0.08809202890188969,0.03950025940671087,-0.1030327150139299,0.14953029678408888,0.20910173767914456,0.046540709860007835,-0.15055355132420456,-0.1239050415566817,-0.06419949881446908,0.038878826490547046,-0.14439488935392172,-0.04776428247575469,-0.04140988778483377,0.16428746216868576,-0.17335925077595565,0.10856115906778918,0.12850115346632546,0.19377434349083103,0.008199203084281875,-0.09478760891426555,0.15064387277864535,-0.15098417835428568,-0.0775691161379863,-0.12822024594579504,0.07080152541294416,0.045390117487479544,0.04867527683866996,-0.06055012154911133,-0.2247880133739965,0.1483200907792478,0.14162067333096054,-0.039165413795377794
-0.1429504946245288,-0.03823910053051792,0.07184294346086482,0.07023683386602518,-0.08924835916507505,-0.10877378446510541,-0.0043663075573060275,-0.11325825788027691,0.1555008416737156,-0.12224256911664652,-0.010559312482037498,-0.13811774388866177,0.030844018714448657,0.2201038180209833,0.13728208550331322,-0.17671877678889994,0.21539041375576995,0.026457998786957048,-0.1006584503827412,0.07448410603157413,0.06665129414372478,0.03813998678408425,-0.040805638705207786,0.1513550403707795,-0.147130238002602,0.14846452979900795,0.05666335628033018,-0.08709136922124842,0.1945386171271305,-0.037987779088350215,0.17802696298087628,-0.02724347316259972,0.011402797491870268,-0.2017274249188104,-0.06604782420573387,-0.11927417940725019,0.11746825441314267,0.2187521314061878,0.13212514227567065,-0.08852751269420955,-0.06343507766472993,-0.14912903091092589,0.22605768660186262,-0.15693526636082514,-0.0436293017145742,-0.09252073652002309,0.16869388799040644,-0.12106209350371205,0.04888271246013924,0.03101817902056688,0.055562649092845785,-0.0763353445454199,-0.14966774990330234,-0.007393709866565792,-0.17904252199153123,-0.10089282818883556,-0.17118495296304612,-0.05083127812667845,0.09001336572202974,-0.04517561158905833,-0.03918191633998946,-0.1298284241279827,0.15613048540525004,0.17532513657420806,-0.11289115265409501
-0.13733077275030908,-0.048749882138846394,0.10040861427247084,0.028645627927956465,-0.1716704719617469,-0.1007336402484028,0.031648835963165596,-0.10039689576452736,0.04146562394237471,-0.18861012488444956,-0.00758120203293629,-0.03521986439125151,0.14132923062413646,0.021551510082735977,0.18729107647470375,-0.08959246561761952,0.17356177397324943,0.1267799112464252,0.01238190509927531,0.08499128349751292,0.11718695026979126,-0.008969478305960945,-0.020800526872454178,0.19717148258399136,-0.10651923122652603,0.03109649118269564,0.09356016199862668,-0.05179118876700782,0.08544279457919733,-0.203915726319615,0.12794310712250243,0.031051849839543556,0.17002050956354214,-0.0778418515622123,0.02615791689589598,-0.04399170320649992,0.024910002748026433,0.11828802353077444,0.14377350770337596,-0.008701242401624957,-0.12877189187593646,-0.13215976234472793,0.1824415946200342,-0.18404870630019354,-0.07740838426014986,-0.07124556897115047,0.027967910838012963,-0.0897765801615062,0.16409460346789864,0.2022577372101492,0.14357138202313915,-0.06253660108928702,-0.1888773300832751,0.13765584567103678,-0.20473693584897046,-0.02105189059921102,-0.038667566749719065,0.02701935313862545,0.09460731153834342,0.007528674682910801,-0.04012251208785867,-0.2158494922481593,0.0671803721936368,0.08414608096586562,-0.11458345271028712
-0.11625127639832983,-0.13406531173076883,0.19563976589535328,0.024987242108378056,-0.11752637586366764,-0.16274042189753327,-0.05794509997580072,-0.11323639519676333,0.01845229120237869,-0.14795079460489252,0.05667960840993166,-0.09066134809108178,0.184357864632847,0.11232360886588488,0.15335781401689533,-0.18762928899147638,0.16988247552905839,0.08010912980360857,-0.08689919456584469,0.0763102928637564,0.20205287528390148,0.007683450269044128,-0.06811955670636086,0.10378658256157605,-0.13785731532885756,0.18184424351258321,0.06128052739736627,0.04089672013761496,0.15717806965967673,-0.1891729523695502,0.05439107018737741,0.014103862462739147,0.1296771697354077,-0.09296711326465193,-0.029782731751812265,-0.12991484881380352,0.08812731621751173,0.0846815221339247,0.019872876545775218,-0.028593099926754687,-0.054091251286856,-0.029941948825644427,0.017376593677737657,-0.05064102587431715,-0.09073300263476682,-0.1275729698654527,0.07776890339913493,-0.16019183333182324,0.10472937848436548,0.20302639665194688,0.07412819788962481,-0.0010807360472181113,-0.02564154664443209,0.0798002631306668,-0.031069125284981538,-0.07830764335811713,-0.16663823089378135,-0.03272048840909668,0.08881199545268799,0.05497524651820872,-0.12674292135265905,-0.050433854906769264,0.16060269639406655,0.14807616670960233,-0.1125990878020183
-0.1240590046403786,-0.04677465212123505,0.033745859075282554,0.049097296877933336,-0.028221474479592248,-0.15937689001788233,0.0379378190472079,-0.0812122953263321,0.17078439710582927,-0.05950046810538669,0.0344168811924948,0.010843162386435814,0.15721136314392178,0.07456262026136581,0.18794965096355198,-0.16500004870083207,0.011887199831080624,0.06793008112959784,0.0041470671021788625,0.15562294746378535,0.20796276215043408,0.06444681829316375,-0.13383664985922672,0.11808758928709734,-0.14902188164266028,0.1482340487500636,0.20177336199098217,0.08983875879733376,0.08854853963863504,-0.018340916248862346,0.03979766219540141,0.05551705144557263,0.1086694014937112,-0.12019165004575938,-0.06443825224076134,-0.20835846823423726,0.11520632856261588,0.20626218550609263,0.11704764847686705,0.0057246584550858974,-0.06172416875316599,-0.16637719007498558,0.11832095565040551,-0.04104072562425422,-0.13919703848809228,-0.03151375393083692,0.11457803430927928,-0.058769995999171924,0.1841645460638946,0.11714394976261075,0.20607950964129818,-0.015056583265169173,-0.027714214159352445,0.11365364287253324,-0.06824627600530324,-0.060395933664515275,-0.05203431238524708,-0.08718341048220592,0.025846409513618593,0.025421656454973532,-0.042706184720033666,-0.04404731140661285,0.015960679149052637,0.10240360444276839,-0.07436392875512567
-0.11895918144023065,-0.018653848551574287,0.11663229432901374,0.10468619835820266,-0.1475150213222025,-0.11820562010692297,0.09721130908099754,-0.090416951089571,0.0973203946405259,-0.11473383326189647,-0.005455485112111659,-0.10339886787534922,0.10509666082830088,0.01850253469217827,0.049452942704321975,-0.04915705682177103,0.19842173564805163,0.13234245567372097,-0.007938286849849126,0.15922809156201034,0.13304448781296865,-0.020881835018451,-0.08436766376910526,0.13647183712182578,-0.04487227907993046,0.028205696502074412,0.19136106190249605,0.08973510641316566,0.11760232105849037,-0.14409215944606293,0.16974225186543698,0.16322199599023968,0.12328034150585933,-0.1711842608850694,-0.03246533213386393,-0.0585578330833052,0.0011095699230063121,0.029330387576358637,0.10905901269602171,-0.0014414980735774673,-0.10711020628847089,-0.12229552172391608,0.12516358781625703,-0.16660962557050157,-0.0996022377014703,-0.04691393767447722,0.06658690269214032,-0.03253282208381039,0.14398557981213958,0.19109207718474636,0.06387874432993156,0.044795681847164835,-0.08925463381852103,0.050735568270384515,-0.08550109627268972,0.04784446737934624,-0.05086462518912258,-0.013377216787429726,0.06593636802655077,-0.06694444455797774,-0.13837774468534017,-0.1331051474658749,0.1494461973829862,0.02312808633420996,-0.1848639780614677
-0.1048096924923165,0.006071372288989533,0.0736490627128925,-0.0014843457755905265,-0.052058160410142315,-0.18878341942508542,0.23221624120962334,-0.07681679152892316,0.07694577285613398,-0.050126438226252325,0.04850257272278092,-0.0960423158929568,0.0040646209010469754,0.09178090220134728,0.1214200399232507,-0.1480472952644672,0.08082677312330766,-0.01246419574473359,-0.03330270939907134,0.08584029336824843,0.0022869454740085025,-0.004736396505247157,-0.115609844798451,0.09301677373394016,-0.12300812185222926,0.029740582349840682,0.001746540707136277,0.2355651743260399,0.036628897589643085,-0.1553674743539881,0.1398980531795666,0.21558419025588632,0.06818021025449046,-0.13542310161462795,-0.14528863368067985,-0.16515667651601953,0.08567863469322977,0.06873043072180719,0.04255952752234694,-0.026649310380602267,-0.1541878928059513,-0.1132211097449012,0.16787431618780138,-0.15103043387488813,-0.10038843344035928,0.11470853710531966,0.14829643102518986,-0.17471568537638751,0.10841160507251116,0.0656459639043044,0.06613584869427451,0.036168885047362244,-0.17450599638203496,0.0030632492244802583,-0.06026858921225902,0.2034500684718835,-0.012322141582495533,-0.08757689069385141,-0.010084265377823793,-0.22242890896192927,-0.12756070318611407,-0.08993277654301803,0.05281406381398623,0.16822508016417373,-0.2402970686619668
-0.10413445494634567,-0.017468856760234564,0.1377602524469994,-0.09152614340898156,-0.18184705308203536,-0.006538697713566425,0.3081015004882636,-0.14600532842324007,0.10045390081546471,-0.1285627531547702,0.14760801831901196,-0.03801277560981159,-0.0027574867129421185,0.041502588531924636,0.11686282958680656,-0.05847053033478843,0.04665905401002699,0.08302072442533599,-0.014784962077322479,0.16627912112646745,0.07511380552271467,-0.12008360173235527,-0.11186326155474838,0.05942061716911295,-0.3009393148115777,0.15117137969373207,0.04413468778449648,0.24840129577727713,0.1571897777970308,-0.0572954809305063,0.16675310601269916,0.21199594394157714,0.21976794448318243,-0.07306762037386424,-0.2603365539314165,-0.1566605818563569,0.09701287069475638,0.06790379316258245,-0.05507156665673976,0.04946516761700374,-0.04800774133797819,-0.04104894411573126,0.0608255302528245,-0.16025357113320648,-0.006223564496014459,0.12079329933453996,0.022516247483932297,-0.05976909420901497,0.06733990040121539,0.13698553949468417,0.14443296940026273,0.1242426526732996,-0.1879283772464627,-0.05077934097766101,-0.07595637865532286,0.2610635894898883,-0.16424353589646631,-0.18992193627654566,0.12027401385838467,-0.1992868740809327,-0.03752563377173136,-0.10119218207586782,0.09613007529646982,0.06328878318560402,-0.3058099194862436
-0.10741191672419424,-0.10322274118670972,0.007634722137145519,-0.07586296483871739,-0.12498347869414858,-0.11009777243096175,0.06939818786697856,-0.06814095989005538,0.02029277456508212,-0.14470588290270037,0.10541098530384753,-0.061394834305223654,0.16125538763778297,0.1833429194387176,0.03180276719448837,-0.17893594534544086,0.18534065046187706,0.0031980166282003153,0.006818193428458535,0.024871420269132784,0.16925806049825096,-0.05019494763806995,-0.0715748812138897,0.0862636405658311,-0.17475428089626133,0.14404556456229556,0.039247133955011976,0.060506827814942925,0.03021788277351135,-0.0442165103886564,0.14678118035319207,0.14877008886498597,0.023069312498539513,-0.16259565800048814,-0.1322357647966268,-0.15852554204060354,0.1720253334898116,0.14996441440007913,-0.0038822780760868554,-0.03648872175066633,-0.08907798801860894,-0.1089362755667029,0.026069082014184727,-0.13753770529942724,-0.14334500368750216,0.04464079754655248,0.06166024961168583,-0.03946133821386652,0.1744983397433514,0.08003111084864685,0.06678102856392844,0.026900788552719955,-0.045903639943870304,0.11495457532656028,-0.07292460186701057,0.15336152921774845,-0.07226622450470023,-0.030259378684459385,0.1207903836138537,-0.053120273703700975,-0.015053937698493012,-0.11827905336161809,0.00444166503271434,0.05330689959665289,-0.0824254107325601
-0.14129086695730309,-0.09306366466040272,0.06918254170339808,0.08183115808770279,-0.2114365444591122,-0.1241570587111729,-0.0009577332043252413,-0.09528973933282542,0.1547232675181245,-0.21466270320508823,-0.07746078618018526,-0.049101759941119615,0.06496236449093291,0.16101142374124314,0.1038810544131099,-0.10723469019747811,0.03564919915387676,0.08256414528906363,-0.09035813248092105,0.08548943579406851,0.16997641768503097,-0.0018610748812714528,-0.07367463524689362,0.10304662025088933,-0.03718457189603912,0.0543734673456178,0.023961217971344182,-0.0075427589632899705,0.0570779515550935,-0.18186676883565966,0.09202281990278922,0.034069160555720894,0.12040066746885492,-0.03463261035633427,0.006124760915068884,-0.1497671663239161,0.06053553812098557,0.10408886357724555,0.09042005003489977,-0.06872912181354142,-0.037853202353344335,-0.11213137835834933,0.21057846016810228,-0.10519766847358282,-0.09226661768671142,0.025869560236387194,0.07931824267194568,-0.054059050358660383,0.13669009906686358,0.13290281142834873,0.03029054703309729,-0.02328972209320014,-0.05674616104480934,-0.012558292645360108,-0.13738932573150786,0.04651457710205188,-0.09379210546885959,-0.012741892810159146,0.1417867420087163,-0.013982398121511497,-0.1545330910358705,-0.12844881336950187,0.12410164338368745,0.20104077433956447,-0.12005191544411514
