-0.15383145572501866,-0.19957092548530192,-0.043863795943961253,0.08525254844086426,0.12138188274609496,-0.02472018153270291,0.04838240115329153,-0.14455309056792828,-0.09775198770159092,0.034764082143368416,-0.18086846734633028,-0.21061121001205702,-0.1550487460733603,-0.06341659300883826,0.012944106310393392,-0.09029244751638793,0.01649037015361268,0.1579465878625305,-0.1371534887766676,-0.11261201491610436,0.15533659285330956,0.06761366491327804,0.003098199834610633,0.20605145231880784,0.23146817805591244,-0.05484281862309883,-0.21792500787133592,0.231839616505188,-0.20840475272511744,0.12034485790805134,0.04047356256884139,0.0868735741236639,-0.08759484373649751,0.006286509476633224,0.2024092229074629,-0.0519773589145435,0.07651123592387837,0.1756641678967069,-0.20030068906245593,-0.16808122141736567,-0.07357527982587136,-0.05850082197144601,0.21617178337280032,0.08757926544764523,0.003534476031533847,0.15437525639936386,-0.060307693641573436,-0.16930535590704457,-0.1847749128906492,-0.13937322236282387,0.1379218758344601,-0.19618047733393443,0.0796567198151707,-0.08756896239363497,0.06979956780601777,-0.20808545829641725,-0.1221050625485601,-0.1301830788164306,-0.06298861666035135,0.04993934068155209,-0.21129221860232242,-0.11293207941470661,-0.13909656965201045,-0.03345564219194626,-0.08106378024570966
-0.1451337001480151,-0.06296928758910263,-0.229197924379594,0.11253725705138742,0.04274287638560567,0.0477209790258942,0.09764701949534527,-0.10675246579571852,-0.16302681691590437,0.00879978738910475,-0.19364493404924582,-0.13891130207864918,-0.09398837580633952,-0.02275264079377111,0.0025584262366056703,-0.03745116151496966,-0.030755895065003723,0.09648412898630766,-0.03612699767938246,-0.11939825549359011,0.21067816835673456,0.220033655156313,-0.02373153734532209,0.05739095723828987,0.1550646085365968,-0.16394715179995004,-0.10137003454348265,0.1299832197115315,-0.1400731948189248,0.03718949648759622,0.1266076855459259,0.14041542839752058,-0.1225300699102959,0.10351620988367242,0.08154728580882782,-0.08605332711196244,0.03851411786138178,0.09799878135349854,-0.15224216672567664,-0.20272555828174343,-0.19769535342898376,-0.23703228724056286,0.10352181119803334,0.11305695110795388,-0.03440330362510868,0.15080831040987727,-0.10997265362573869,-0.20337787514029848,-0.1588358701320866,-0.018481017249735613,0.1420080872843628,-0.22270797717732696,0.1612594818063809,-0.2009850466494154,0.2051984838540851,-0.21071917616156186,-0.20829468827019137,-0.09609761067660823,-0.1333443510439262,0.011587709449417604,-0.20423677626735007,-0.09894531013146408,-0.13558792603382014,-0.020197040073187685,-0.10425336644199283
-0.1570461769241144,-0.1331213902999534,-0.2049972804287736,0.04089282895297202,0.04177033391791671,-0.03180269197751108,0.11389597996108103,-0.16195973293258073,-0.10725677979647676,-0.07606604696146918,-0.20077601557996483,-0.11247414247361331,-0.10635472486755898,-0.016671731246970523,-0.06954995462175248,-0.18053144874939886,-0.012331997072829805,0.14919139878108606,-0.008092021396371142,-0.23352806372652832,0.10946992326616276,0.113570023307545,-0.03001377838629077,0.1782723253876618,0.14902129883819143,-0.03439306396134551,-0.12163467500763325,0.04622771034077175,-0.13363185117722592,0.07767068535379486,0.05343473474268818,0.16255717182199314,-0.2430661118669934,0.02663804104587239,0.13333836998900808,-0.11102608555517664,0.13146504125507882,0.14535280844892318,-0.16211666995798119,-0.0475272379065887,-0.08293763672656553,-0.20048870796384163,0.19762611000405356,0.057205839781704494,0.04504591711876137,0.19454578125192604,-0.14441998009931037,-0.2119994820870795,-0.12361453616295327,-0.16972270102009746,0.20756872756245295,-0.20675133387709782,0.09364963877362865,-0.08340602288590661,0.10056213815443617,-0.15757035092867133,-0.22881062567249774,-0.11185980174427282,-0.11118213188841011,-0.040516933477639856,-0.12671514530413738,-0.15944216061222252,-0.12710421333747632,-0.1670162091329137,-0.09478518902295215
-0.14906995969241216,-0.1443123729415441,-0.1409031753476134,0.08413708057938667,0.18390125473277807,0.11509847151741101,0.03737237934968012,-0.1884649260379924,-0.08504094961434401,0.057607757502158456,-0.05844959967419779,-0.23173728989648884,-0.053182085873235335,-0.00489532001955972,0.0022939390440169733,-0.21099124895704446,0.023280871974440762,0.08216168459423784,-0.13814779573443617,-0.14779286305653327,0.21703186693126045,0.18905204229747377,-0.13440784071188447,0.047077062154401,0.22960204073255658,-0.10958442461999313,-0.07855386977101232,0.16130180285805845,-0.0891492295043696,0.08226692902471429,0.027625280802303833,0.1801899734705353,-0.03925497903698939,-0.01419573760234211,0.07937467259529583,-0.07015287346371063,0.004887429235642823,0.1842223585901621,-0.1508250259621314,-0.23523865602682484,-0.09015194036038317,-0.1568822788975001,0.221818510991949,-0.009665259264337733,-0.1079400575380222,0.1421756727246032,-0.19440592871860918,-0.13530995028499274,-0.06364587214703882,-0.028344563413731975,0.08808578389462461,-0.08462028686824269,0.21989041334428,-0.16335467211610102,0.2007909349445064,-0.049692916763730895,-0.23986718546334426,-0.174477066625416,-0.15614898388396706,0.07522155754237304,-0.11090428897333171,-0.1410252974429255,-0.013404036813952136,-0.06190291008813138,-0.07212053122454869
-0.165872197887022,-0.10227567198946558,-0.10119871575712736,0.15869889107479512,0.07708059241314372,0.07674116626658714,0.050589303495105126,-0.20818776154239343,-0.20234064638324797,0.0069349872212056815,-0.18259241646689275,-0.07993900478628492,-0.2008728907328492,-0.12524984866008196,-0.06822378519731534,-0.197319348611709,-0.14265398106942506,0.22772153536310022,-0.074585622929892,-0.10710725861378594,0.1540879057358143,0.13565392675721735,-0.071462562315857,0.16950916346541242,0.0742271983261599,-0.08223662807357665,-0.05748025145335029,0.12056165079283669,-0.17772572149059093,0.07867981757331766,0.10588652032503527,0.1376157106061693,-0.18192220251880425,-0.03418600298253874,0.057960106525379716,-0.22366058696422608,-0.017172103906591844,0.10158949296041457,-0.056428906499180836,-0.11795338691425694,-0.18994624750294825,-0.0819984302092096,0.204741695028617,-0.03239513197224211,-0.0512883110739308,0.16917038175372745,-0.242717482037424,-0.16265350471235432,-0.1756783408813323,-0.046817958893988064,0.2188434462535429,-0.1164230114550597,0.17714174405610175,-0.15612335325931417,0.136503847923839,-0.16912282448300936,-0.25852226792071287,-0.007983505981953035,-0.06034331412640568,-0.03794513242373807,-0.1742230601756798,-0.03913331536001474,-0.0587966726853435,-0.04971421515372265,-0.10733414129193954
-0.17539458651868833,-0.23739331926142906,-0.12727511809604986,0.14691384465683704,0.08106805995600382,-0.03391814817802671,0.06793242013626832,-0.07997313678371062,-0.17165720386445774,0.015538504394395705,-0.17801312345733253,-0.21058452376910702,-0.23683903001783174,-0.06699612136434836,-0.029423617911807698,-0.10557596816667297,-0.03230193427484127,0.24990670294281997,-0.02785281750525084,-0.0862759691214536,0.0775553020643525,0.08895855819577227,-0.11941090482772226,0.15903510867409695,0.10907097054887102,-0.0169019024796578,-0.2411327025167882,0.22110253528815574,-0.07815387125589031,0.09492554145002709,0.11296537693419846,0.1433580565823325,-0.08870459305142044,0.0762850504780402,0.13057419931541228,-0.1695648975355703,0.13264917503678336,0.09399818905901859,-0.10693772780637958,-0.15255568869359082,-0.15062899252577774,-0.1218123159200772,0.06753415590408039,0.11512337627921211,-0.05015427430063335,0.08715146640498643,-0.07883863736592868,-0.23765733377169357,-0.07975703028204253,-0.08849892850737688,0.13442107090487027,-0.10254659463697156,0.22949763871665346,-0.14447170853437724,0.1865734572023366,-0.15112755793805105,-0.21521235067622285,-0.14844479388936907,-0.2505547146804988,-0.035114595596469574,-0.0733235725372562,-0.22073741957653578,-0.04436628439926287,-0.06385438411225162,-0.1865755949959537
-0.14407505532744572,-0.060139635494093686,-0.15521687427451594,0.14307305996573216,0.1788969502723575,-0.029347854414160494,0.0968832535819625,-0.11837169012206245,-0.1760655753146029,-0.05794544315395793,-0.1398504444586886,-0.17305106528783964,-0.22608555160587088,0.025101007641162486,-0.05149917358991066,-0.16658768169928037,-0.06250666093147385,0.11400454047708929,-0.05605007730196842,-0.20822631853090853,0.18916511335183764,0.1680621363496168,-0.018472959827750383,0.1412734862785712,0.07210905140274218,-0.12685182671784834,-0.08833407070443744,0.1340747907932381,-0.03209367077044046,0.22651490463700694,0.13244892833930802,0.22753356440410716,-0.22477716423967894,-0.05107239392685697,0.20018485297306338,-0.03604607408095549,0.056228718932934706,0.1355030362640494,-0.1373886940101496,-0.03675366368172662,-0.13306843903720544,-0.168595184448131,0.16878762226319238,0.05187569581397069,0.02895800732406267,0.18073958534345103,-0.047607715020973544,-0.1900826776139951,-0.1767789851374742,-0.02308884205981963,0.07270412196639356,-0.13585442444741289,0.17089296466258144,-0.0345250291396132,0.10660195565705846,-0.17608117124416156,-0.2361487386098027,-0.11171531744490314,-0.042852311393315794,-0.02647736302059616,-0.08956940106239648,-0.18640615290133436,-0.030841163924197158,-0.14989394837621303,-0.13932470166191438
-0.15471967093158714,-0.21577627641585592,-0.08199732688667373,0.18416211261776036,0.13860402393544097,0.08581796928655766,0.024494449373879783,-0.23293537665494224,-0.18249907534572432,-0.06268819992161938,-0.20342085454001724,-0.05572732213434742,-0.08888854076769823,-0.0738024550315999,-0.10418472368857419,-0.22905539267038047,-0.06370606805620892,0.15013034978299986,0.022909208583839442,-0.19351237726131615,0.1070736633054089,0.14602480226302322,-0.001316080157509407,0.14957777014263648,0.18831614711335581,-0.16985156596120823,-0.1287575684006293,0.04238457481632731,-0.20151084503773484,0.09643247678649192,-0.026817800447293365,0.20744064976053317,-0.1474498908122458,-0.009270114568372305,0.07217541252041221,-0.1696696572308589,-0.02196006102916622,0.06782517455984612,-0.09760727800499437,-0.11091130835386022,-0.1896725823016802,-0.19555631249534697,0.04233856636822439,0.06090096643683475,-0.010547144891079144,0.21689422327119537,-0.13103161152114,-0.10033300497045312,-0.13560026349769763,-0.1356377330644323,0.18214501487581747,-0.1930508515715596,0.2110936915718259,-0.072164764865367,0.13633486395835862,-0.16430339597578622,-0.05063819237223632,-0.1527960129253009,-0.16660161515621727,0.025695006150523315,-0.1578371221574795,-0.12701138914443458,-0.1151361908675298,-0.007260798712817428,-0.23354306042147585
-0.14705078396135093,-0.09053832541674738,-0.14469137623138567,0.1838878903769539,0.031047901371968726,0.06303261073473511,0.03221601068141508,-0.09495376951914353,-0.18082132149880012,-0.06629758416100154,-0.215823900538565,-0.14124759740747259,-0.059528105407820005,-0.07907389958188846,-0.09459089529073895,-0.14331739038610944,-0.08108713787145447,0.2156325481930172,0.02654802944157101,-0.07930698806875154,0.15966810265642437,0.16187416582254183,-0.049212128561013854,0.015630508884126672,0.08141457175995767,-0.09617005766745453,-0.23646704544449867,0.16200956909679437,-0.1338980958413293,0.19655189386513747,0.004006930294335347,0.042515865722328385,-0.1913103238659732,0.04126478739217738,0.1854266603926462,-0.09027431518041037,0.06416029888571194,0.10197059434645686,-0.20367286041479007,-0.10359865054908061,-0.18528490167097145,-0.17822258971311616,0.05252148844363222,0.00023274901073892408,-0.06430001561363172,0.11675532272404496,-0.12367700643746078,-0.06959951992329608,-0.16425520599781976,-0.19865725790394959,0.14135314553167933,-0.15717000038610815,0.2224637468982208,-0.17446802040706733,0.08040334291721506,-0.22697422240705328,-0.234647842170989,-0.04075511865062058,-0.09067919343197059,-0.05979161516040641,-0.20716118617809304,-0.05499262502478589,0.024833280413616023,-0.009668946723603144,-0.1986813309821877
-0.1330815212734379,-0.19485622649618908,-0.06425862715384688,0.1773191338484153,0.2008649532167131,-0.0252208315384187,-0.0425573046345747,-0.1385168596775079,-0.16435139225539877,-0.05181677743355802,-0.11012011457215184,-0.21695192059053303,-0.12053086706014714,-0.023318884782365764,-0.10832997699316876,-0.05842013879393989,-0.03514242081891564,0.19531462029608251,-0.043912029088985456,-0.17902952972920264,0.11630499212155698,0.14043512351898,0.004405300670334662,0.17912147318578706,0.14388820666780575,-0.14212268317041765,-0.2008807808694941,0.0868949516016652,-0.20782814072276296,0.0657254730236744,0.07567099686770043,0.1315538649449168,-0.034203594009632944,0.092264962085143,0.10530920300267853,-0.1087807507475733,0.03489302254023439,0.04632050050081501,-0.2211422624888352,-0.22322749103328202,-0.13819975301805848,-0.1590175122814984,0.06895162451071629,0.09864338377854304,0.03260228745300817,0.1776552863073689,-0.17819891256323434,-0.11942467715712958,-0.1801920579523868,-0.05483702467601263,0.17687658747080742,-0.15762754446561303,0.14292410062257804,-0.11924643415217102,0.18334383643712795,-0.1972128285235679,-0.18926191174684176,-0.15298500275516805,-0.044343551480690885,0.07223802459209681,-0.2056987473193704,-0.1745779368508641,-0.0534548327608711,-0.0400723254870605,-0.09926875142422831
-0.1618368288619459,-0.10141610463446368,-0.1994263957657042,0.014932588513075228,0.2304556464426155,0.037412406221250735,0.09185404701751519,-0.08046915480875219,-0.12841567525450467,-0.0695298333653078,-0.1364187099581367,-0.1955521644886681,-0.15864808331712438,-0.1018605102488178,0.01820572372769836,-0.21524729503318651,-0.043641484785548225,0.18999971860697934,-0.007788091834606144,-0.21023852833920906,0.20647555862902336,0.19554635782129362,-0.0018683957713467295,0.19096670064765606,0.1802816744031661,-0.16148263127699294,-0.20000743542649813,0.11373672793949431,-0.054169509233509314,0.2012772898928745,0.04964254982676624,0.05601740775810021,-0.10492229851632832,-0.02317631256972004,0.17469745273543735,-0.08473282800916183,0.12813072383783,0.04089115690804508,-0.201124819383184,-0.13935035571034904,-0.04460589495149743,-0.1037748587733522,0.04512461936629668,0.10499042797205294,0.042195931030381585,0.07696412785340064,-0.1674359670314386,-0.06278625486469931,-0.11031810466125297,-0.07768042567860098,0.2282048226604365,-0.07155126814128465,0.14074896260725334,-0.10697259384339754,0.12967150963419707,-0.20938129218534526,-0.20546947289438228,-0.005591992445497189,-0.06244136537242091,-0.015659711819699905,-0.22031097934432523,-0.07104022596598483,-0.12591982305895263,-0.045423234574319,-0.04921855571528383
-0.14037326094498503,-0.22546882121037054,-0.033647597855615566,0.04783511217373745,0.20294145277086026,0.08049861100832048,0.12627519122024833,-0.22272353328250272,-0.17650001444672306,-0.0096211133827184,-0.17468350391297233,-0.0650881992112131,-0.1873932213701028,0.018771617455727904,-0.06086417946091875,-0.028794826561546447,-0.044128283219686856,0.08602341934687022,0.03760589082757174,-0.2042708320883564,0.08525767100090449,0.12675796369429007,0.011264050159833103,0.057720220310600326,0.13994777419547275,-0.10847228376003551,-0.09209454106240729,0.11872932411953369,-0.19416226700318825,0.1739150640688372,0.13407893943943217,0.15651173239741584,-0.1439088305515131,0.10598343285377977,0.11195703758437253,-0.05976010893004105,0.10383186448980691,0.1669237273052327,-0.13030130368199952,-0.20408709049931284,-0.18714772527108547,-0.2056465320225484,0.05097071724051915,0.008961078126170717,0.029574818771736972,0.17691261309596518,-0.1702798867176962,-0.1486592097145354,-0.09911690514560227,-0.08521352555230927,0.17295673323943137,-0.16460785671221412,0.17135449251960086,-0.06975830466554904,0.2142240337077506,-0.1756601581547133,-0.1734519264997512,-0.09574072652517504,-0.06519026527333774,0.035086367278241076,-0.1770838630060842,-0.059817510243039024,-0.06904735047854907,-0.09989258881756424,-0.12624257223361574
-0.16366360384531517,-0.1154578303679118,-0.10635500202255192,0.09930336537322537,0.12746418691741493,0.04939109681560266,0.07704333012231661,-0.14458260989634944,-0.07789900054214446,0.022135740089400925,-0.16361989334665328,-0.14915280944579215,-0.06677088293587491,-0.13964974407495948,-0.07535389518999468,-0.10986592435713666,-0.06841597858363534,0.06142268385919898,0.019503960950731883,-0.15219308860426828,0.11820125039721371,0.20657062429158365,-0.09414521238193188,0.14753295763345267,0.20377993709719483,-0.13312942591089996,-0.1291820034071055,0.05369090303344376,-0.11439737669729307,0.11929397421191669,0.064582595927577,0.06326768392821684,-0.1648468272867911,0.052147195394908086,0.10404880446023697,-0.15144761885573926,0.05296737950981925,0.21414167393961284,-0.179420834602359,-0.21245477890658054,-0.02815792615407251,-0.09682051386641483,0.11342080594484241,0.07130913484876492,-0.001524856482074012,0.14897789124469696,-0.22184259639249274,-0.23844585288137646,-0.21338447539605185,-0.20790572740527052,0.23408202473809514,-0.07113895694450652,0.16559460635792803,-0.06163145438061672,0.15840460897657868,-0.07794462060249638,-0.20446445582406964,-0.04339944409488172,-0.21048622956021146,0.008631069303824299,-0.1853859904244539,-0.12878013398615323,-0.04752565427479927,-0.053473048570068876,-0.14689522111397246
-0.15817313955397153,-0.06752521943519871,-0.06694267398993302,0.1814371723869402,0.23452492135492628,0.12327276673920816,0.07687639933849373,-0.14661054113329575,-0.04385864438379724,-0.03358676148179563,-0.10023929383058824,-0.20827573981583425,-0.11837433899262863,-0.0761344495440432,0.021745074753202635,-0.09213013326497758,-0.07917267361364813,0.24517345196142915,-0.0933024194427266,-0.05652096747393616,0.14779428017231322,0.2212587350244922,-0.06867144343643368,0.09578209393647343,0.09225788838214179,-0.08587405649027958,-0.18736405464706118,0.07248002368382832,-0.050782904415518915,0.12332870034721437,0.05161129961235331,0.08323236088201288,-0.14939391694420068,-0.008676986586640966,0.18667136074637203,-0.14797002331138098,-0.033007491136233,0.1054180037921709,-0.13020146594876192,-0.0708537564724411,-0.03461439154106141,-0.16197652301817922,0.20970710947789184,-0.03649324350098455,0.0480441772977345,0.2205462453941634,-0.16181082452109086,-0.1741819074343045,-0.19571766882650662,-0.17887258170529285,0.04252371939677275,-0.17599270046552531,0.24256710310565074,-0.24162831738452728,0.15028565457458032,-0.06403823154933701,-0.1884375427749679,-0.008771924363227268,-0.09433952634101526,0.0641647761418943,-0.1676123578038047,-0.15067969986400284,-0.11005115903068939,-0.1732786179792759,-0.16976309691175817
-0.15862884105449915,-0.12459022581430143,-0.15212112904206954,0.01143383266975766,0.214970965530773,0.06920803815396126,-0.011329554409780616,-0.13180284701427594,-0.10190307356162573,-0.052658579926170845,-0.21135165004480339,-0.23936010894811546,-0.09493030181954998,-0.10422123775895817,-0.08081258284449015,-0.15428689072311655,-0.033758375456697895,0.15662734694265457,-0.0853600771205672,-0.1490122841344765,0.08950634832858048,0.09555486840395035,-0.10793457715348787,0.04112336556845039,0.13535066925769842,-0.025883173161820483,-0.22085463436825328,0.051459709355897144,-0.16924421225421626,0.13232905558516303,0.1301643401289652,0.17385338917238158,-0.06381542066771785,0.10470888189948425,0.08715601101251498,-0.1885895277091526,0.03823278034011383,0.0943997348059869,-0.15759857678146677,-0.0955386251883461,-0.1669479210058662,-0.21426840592397187,0.2285689910988799,0.08560155878670213,-0.016675966129352737,0.20758186619276983,-0.0804633265157034,-0.17209518981886116,-0.22119195117597965,-0.16688760869670557,0.07474178551815211,-0.10902018715415093,0.18798122206931095,-0.05282831949866025,0.14173522936245636,-0.20145875222306767,-0.07335022053044869,-0.0011356628809111205,-0.19274774610421502,0.020064886029392045,-0.14359815460666864,-0.08642262930263747,-0.004411637927198539,-0.1253412945630568,-0.22747637151367708
-0.15097661237255883,-0.21095088282679733,-0.18637183868156024,0.03747745706722242,0.18182850485320048,0.041012581559993294,0.08858158495600853,-0.1474036269743279,-0.15302989577063864,0.041728522189279166,-0.06174213485844039,-0.23231670150599326,-0.15702437344735418,-0.013931013489978423,-0.14081379249261836,-0.09172124284860195,-0.12066716437277944,0.0934403949981668,0.0173174296345213,-0.17530915172369657,0.07642955366343991,0.20315729360073936,-0.0944036385539128,0.13820121815009595,0.18427283296642108,0.0030988315004795105,-0.21744782749183275,0.1865245513420058,-0.09055572139400521,0.06423414779360842,0.13396020728997132,0.18531863295578335,-0.13595889797723082,0.05925016639830637,0.08487944306655838,-0.12207090257899819,-0.04161133817079656,0.05433058219311872,-0.21198246730069728,-0.09274611587913413,-0.17619232068575788,-0.17053144793061645,0.17650796991125292,0.08738221795751261,0.030932980024680243,0.16240077426447222,-0.04639043790621159,-0.08670309131642767,-0.08378768876660084,-0.11450070370834407,0.09161123661035253,-0.1266533743778999,0.11868834317298409,-0.1289394135470224,0.23300767687599172,-0.20437689553284186,-0.1589710148469295,-0.06108187741897598,-0.20848782800320567,0.07203413006271232,-0.17053737197551547,-0.06788281441170185,-0.00484692757483268,-0.09232936014198712,-0.0554380559012582
-0.17589981685474157,-0.09769009998682514,-0.2090027994752289,0.09702920389178489,0.10030545021088437,0.13012968974161032,0.1298158977403551,-0.2356462150130354,-0.1685957673948558,-0.009790016217056989,-0.14396585526937092,-0.10539628145285798,-0.10766859769081973,0.0036929624737492253,-0.08962852683329796,-0.15139694800317963,-0.006751575758044348,0.06269521764199856,-0.03393588367403053,-0.13495236386229195,0.15348989561747964,0.1047870288962603,-0.043749342303604805,0.11708647782895922,0.24559565631476254,-0.06046335136691591,-0.0725596404558763,0.17983108302609904,-0.07506371959949674,0.1683479866787983,0.0926167416734516,0.141547369579589,-0.1424076573450718,0.05033518103622636,0.15172181234628773,-0.1914203818291308,-0.01892569823520537,0.15743442515819825,-0.1026392760836776,-0.08816261426341601,-0.10916127555883248,-0.24978323924647586,0.057702522755149616,0.08333962399884312,-0.011634496431977642,0.24518952069807548,-0.12449559222343799,-0.19849248624703897,-0.20239471955090088,-0.06865995592476727,0.25500353093211964,-0.07563180666408524,0.22122974703923343,-0.12057467685942022,0.08087236141722788,-0.10614515729779007,-0.16607808794271095,-0.04398583155570543,-0.09363997815956449,0.032459878296884404,-0.14891216691449724,-0.15307352519465958,-0.1190304384719168,-0.20161067301143834,-0.055658267436489224
-0.15698671664691688,-0.1608523201428239,-0.18624187548576723,0.12107657987101733,0.1479714906093484,0.09194291094339045,0.03393749204898733,-0.24672425606179907,-0.18317605354783167,0.024307702112131714,-0.10330399794462544,-0.11604875325954006,-0.0601254022196791,-0.03605291077041278,-0.10689529266019512,-0.05734212805535031,-0.06932666010773961,0.1711264041460763,-0.0008441017456848613,-0.15535812592028533,0.07515963558490615,0.14179725366257545,-0.010726502639159452,0.15945648741182045,0.19545900673685884,-0.006654413396479703,-0.09547764355062456,0.07266242427451224,-0.2326442270852416,0.15450837935737016,0.06295548289577167,0.21929388443431955,-0.0882235560907514,-0.02902830522703716,0.23805055073715264,-0.12201952920105294,0.04477529370651147,0.19053904056401508,-0.1542908204729871,-0.1380015102114208,-0.14646643071905147,-0.04917536908557924,0.12226475243920851,-0.033893948996619815,-0.02660666782591979,0.11620171066660785,-0.07891468297190722,-0.18801784883090844,-0.19934410404022973,-0.18421235411947495,0.12171746269046407,-0.11803638660867909,0.05640070428608893,-0.21299930499993802,0.23014769601580826,-0.12513827248270915,-0.12413444181462091,0.0013365115375654046,-0.12235484547789087,-0.05833558508376636,-0.06674073003693083,-0.06527959760233344,-0.11797929359800043,-0.12112604552179632,-0.18525693315776023
-0.14608652952808876,-0.11238201549189301,-0.11776505820770042,0.12315606436093504,0.22965179215585535,0.10322499110859815,0.07720446836279223,-0.2005858714019187,-0.19733283107154506,0.05179254937938105,-0.2156532510922146,-0.11331345988126389,-0.19451192939491338,-0.08780157001284494,-0.13494213311164738,-0.12560880914832595,-0.08541561207152593,0.14734561641951444,-0.04637806079452838,-0.07741770283218276,0.1874305768946946,0.19968803336163346,-0.013511279661219172,0.05211668514884618,0.11303638903028136,-0.09948691962896186,-0.20504040978139784,0.20472584564514718,-0.18917493024678772,0.12956471104476772,0.06258598476721358,0.23456639842503085,-0.15014202166433038,0.0031822631426509447,0.08023140286653938,-0.18430366791994668,0.07454924365462688,0.06608597623124915,-0.08950172076047029,-0.1948802634913789,-0.18250737146850413,-0.12663832248467902,0.0931320770288632,0.09880787845552691,-0.03603784338272162,0.12401010376808416,-0.12669410485190327,-0.18306969826594427,-0.12616160718669772,-0.08366813912612363,0.19237874087837695,-0.05289811981155064,0.08983735543638484,-0.12384627747113204,0.21325851450674582,-0.179011876252286,-0.1550228131272094,-0.04556412462161295,-0.07546736748729478,-0.0639578503724728,-0.04146863837763506,-0.13990941720892477,-0.08926204235424853,-0.16670959574799107,-0.13547492239207837
-0.15900068101586867,-0.09010267438956157,-0.10964101832467585,0.11051330381039838,0.21178690935666275,-0.00017793214963494525,0.08270051554857048,-0.1499030820558016,-0.17219962777561942,0.07022134114948232,-0.20945382335154414,-0.15885135596951847,-0.17928197939937085,-0.005933368595926299,-0.06715066929889098,-0.24124209258399387,-0.14428448160242752,0.10767210367130142,-0.0784681720528097,-0.19970752853592472,0.11150158031568372,0.14008698815806453,-0.10592297383365731,0.09021243166400882,0.22323066338200673,-0.03478866770087595,-0.24011147810703534,0.09099940894271476,-0.0833088543140553,0.08343853430161227,0.08008092755202773,0.1750682573832621,-0.23043630570668266,0.10377417043433444,0.16686252327775752,-0.12218916719128897,0.03390020335712572,0.07409459034167948,-0.12993951296574907,-0.23084517414765798,-0.1592319151318499,-0.2288159969311238,0.09182083868509269,-0.005987239505760357,-0.052833433763980066,0.07942518049465433,-0.23066690843223864,-0.10850251321513439,-0.18956407948902454,-0.06417177737522996,0.11876450400620142,-0.08915010992858459,0.1599324250017834,-0.06965070049670698,0.1984969671355518,-0.20970549496317872,-0.056782141502263295,-0.1645017324593307,-0.05300005051148779,-0.061478866025199724,-0.05169375599457872,-0.06546580729756485,-0.049913756021724924,-0.18747530786741176,-0.06501945299457805
-0.1582605836448739,-0.08378517867309736,-0.05502237169789979,0.16345179766496679,0.14496605394983844,0.08630070397831835,0.062359536853660046,-0.10486804835072706,-0.10905612280742626,-0.062344700359859194,-0.21471887663619077,-0.11120891251330464,-0.14897166226587888,0.0047306357018024724,-0.12858801757419344,-0.1745151090849106,-0.024687148002967074,0.11672759695312944,0.03241017215287002,-0.1677611076142936,0.1982517439483169,0.10282109810383745,-0.09519261532788864,0.03513286171457505,0.24257318019400306,-0.029938363718926036,-0.1736016658562121,0.12152284833026107,-0.1275410518482408,0.042865328504744886,0.09011077364601225,0.14857044933911479,-0.11956603686328553,0.01332696281883105,0.06575297724021295,-0.17355683755575504,0.10952713895552378,0.12727818203437366,-0.23798759463997088,-0.17637107013713593,-0.15958350245599562,-0.1813817514587699,0.16385833917455045,0.12165240192542041,0.007458532806977254,0.08693158867429795,-0.09783662907865805,-0.14997856871170898,-0.07710588252707863,-0.0525659751368251,0.22526663055247034,-0.239628456955336,0.11442430219533703,-0.16871219649439861,0.07698394348668036,-0.24039780628038449,-0.2360772947839612,-0.16903555042132842,-0.0784419410918877,0.07822379300957219,-0.12266859918313412,-0.17752514198704675,-0.049913804736335964,-0.05045717439931999,-0.23862284443375248
-0.16968147752648483,-0.18703479480254698,-0.07757346263454222,0.0981735439729253,0.23723869196176725,0.011666652801377827,0.13878390455903958,-0.08735673591057663,-0.1604580123186611,-0.026887993569398277,-0.10005372327246428,-0.11516025471240815,-0.15296777420964122,-0.11135150263506587,-0.0715275374530017,-0.14354583781050995,-0.021169219045525545,0.16710741717192973,-0.14861238776452598,-0.08950875730542206,0.07635759356262141,0.1421323838989441,-0.01907421217070178,0.1276472891823762,0.157064410945203,-0.010007949296775514,-0.15771361835841768,0.048316692511861006,-0.19227043627561907,0.14308274788182884,0.07524935835102779,0.1177898591593117,-0.1798678942201918,0.1151797212552777,0.17365412966132304,-0.06495147363072094,0.02529494830165278,0.11148170486119734,-0.12434584581092718,-0.21723388248768918,-0.06745799156617358,-0.2209269630774968,0.1459943199938749,0.11504680893316116,0.013542004331413362,0.06494677383503199,-0.11867542446587687,-0.22342938787748345,-0.061326063542131125,-0.13776741588068986,0.23246886525828472,-0.16812858964976782,0.20811800546388257,-0.19644563587716615,0.10567829466242827,-0.19202621293181052,-0.15877749271427996,-0.08579672295318183,-0.11941168874644997,-0.00553081233631942,-0.07675793692870586,-0.19802266136084926,-0.11138600639276468,-0.1641812729867601,-0.053708087249305876
-0.15960697289525902,-0.07267088153366985,-0.21026574206273146,0.05608934103376697,0.051886883750700816,0.09294913512712727,-0.03025668300192043,-0.23903663092645583,-0.21104153073149406,0.08629449979113464,-0.16343723793428983,-0.10783350489524715,-0.046610075284526674,-0.13991747592958928,-0.05546671263962875,-0.2352283628676372,-0.07144263440583622,0.23433406328669393,-0.011006548038570192,-0.2089668322599716,0.1175544519896142,0.14062001041715072,-0.050286765743076715,0.03872245819716461,0.1869701758150999,-0.060363539640274085,-0.05475811016507535,0.20275062881097616,-0.08981234773895785,0.07551301473389561,0.10577866594510321,0.07711047490770966,-0.11658569334926093,0.11434144674188221,0.06263292377724579,-0.09838800021104709,-0.035936872740017146,0.03963859205545886,-0.19793780671067676,-0.11325777726388765,-0.08998276223763882,-0.18678749804031927,0.08757490493004619,0.013274953158505274,-0.05456957898608526,0.15371265813559676,-0.10108042407824858,-0.17336271430252467,-0.13456585204495683,-0.05674074967823369,0.23334024579370033,-0.15327100568973812,0.18498527711180696,-0.21447848155099908,0.22004469710343919,-0.05354874347650656,-0.20951168371521375,-0.15053832637071854,-0.10618022516695276,0.04310911803082402,-0.21150370162045457,-0.05979877666793996,-0.08340380405010288,-0.12695192370942107,-0.08453754507034507
-0.18256901652474739,-0.09273183373494898,-0.1027236796456645,0.1870966660442359,0.15244574819884948,0.05667515535924949,0.12378632210860913,-0.0754398128580913,-0.11313095987554256,0.07718030774920057,-0.12940930956952348,-0.11486137548440364,-0.08878404344228827,-0.02027062863299701,-0.01378234827192928,-0.1236523048263132,-0.06933726668782142,0.16251963688133067,0.008439240815039698,-0.239321750414409,0.11934240066847437,0.07215262281466811,-0.08692051967251872,0.12190021459104808,0.17250189965756296,-0.16987734127350707,-0.07138165648239105,0.13740416668462566,-0.12421927967117581,0.12514574246303342,0.05230399213220134,0.19997617030810116,-0.10623396113813016,0.0818213528830634,0.08632738607681611,-0.06277256120656315,0.12582237924157982,0.12510564332279675,-0.11338207051703342,-0.21880776217940834,-0.05630495267097592,-0.20237349354731068,0.08509722693562005,0.023865579810557383,-0.030658813622936706,0.15850097681571734,-0.23366745083255008,-0.17518462808731936,-0.23977804072362793,-0.06675371874279375,0.165004363930534,-0.08199717998927489,0.0714633729174997,-0.2536038526469027,0.12272269069126349,-0.1320974827746227,-0.21559545283435164,-0.11978131986637516,-0.1950515208575405,0.040501870425246195,-0.12070592435915099,-0.21005527481959005,-0.13485433244796924,-0.059205639987771515,-0.19730404112606262
-0.14908415198661923,-0.0406362286704894,-0.20573454332777721,0.161656060345246,0.05051980012601249,0.01638125898110087,0.11865233429339801,-0.08017226744752845,-0.19978459820356917,-0.021312607628907007,-0.1099126506521583,-0.13889129204295886,-0.09631840437829357,0.0012231385333067084,-0.07518001154690135,-0.05914548540359756,-0.09177606996828194,0.1342012927718448,0.025730754267631484,-0.08342094881732626,0.20101593748331784,0.1319722258850761,0.01906964267238394,0.021388604978881454,0.14094289536375362,-0.06459847043321229,-0.0891256881987063,0.18178215840698783,-0.16193394853252313,0.194189503690646,0.13466325719613326,0.22958944914578847,-0.07749564736899064,-0.01940762923675598,0.1334275572287797,-0.11017419656940813,-0.0016988086669687149,0.13821894284705394,-0.220460715127917,-0.1969352693591382,-0.10173656714116519,-0.21571844369308588,0.07057787699083667,0.01683892185569248,-0.03238013852435942,0.2298834710173208,-0.19531431724270154,-0.12382087387327922,-0.1841015714556618,-0.12853998669206576,0.04261579324391565,-0.16795547260110924,0.22882054589418083,-0.14672375243809108,0.20670307602017698,-0.08248725607598284,-0.05784022812665834,-0.10930849202913917,-0.08156872204503872,-0.05146878541442233,-0.23291697423875207,-0.20861688911636306,-0.04391280834604644,-0.08190443462596897,-0.12287262826689893
-0.15827596962581245,-0.07264321783114923,-0.05910389547791596,0.06168462748380981,0.1939448139908116,0.04177860362765869,0.028827912055101265,-0.2160023013956141,-0.15872272903501455,-0.0120001676898213,-0.1666229880837663,-0.1804566963117946,-0.13956371374684157,-0.0004026815845643906,-0.0399714438313529,-0.18947606759831712,-0.11873269806216485,0.0754645621214358,-0.06988782595981112,-0.24247902122749365,0.10411751627731479,0.1618846202495844,-0.06988455236037189,0.035454738904708474,0.20975076531870038,-0.021742626095053594,-0.0804950202633038,0.21758551330408057,-0.09959059687325332,0.2131735480656118,0.014452159361774759,0.09913718422388319,-0.099942404433711,-0.024017850247856617,0.22462242993340173,-0.1618474532945279,-0.028080160375887245,0.07825551619179617,-0.05188162145577922,-0.05479940157541273,-0.1667847683463503,-0.23710990372038654,0.1362077316927528,0.11075067786076317,0.029255092917725913,0.0879024927049618,-0.051134166413231874,-0.15704634306721874,-0.0877986562956478,-0.10726598850642874,0.09072861418747981,-0.09801215756774113,0.13665931490024033,-0.2331541866881729,0.11228151410621792,-0.18723654105826554,-0.20947485925214815,-0.021073297152859456,-0.2169785408601753,-0.05299172858728008,-0.08521532892150907,-0.08943556796612497,-0.13226928180059092,-0.10271028070756118,-0.21964261342879254
-0.15445298266584923,-0.15171618855634403,-0.17972143346158867,0.02244093687817766,0.04219561892870487,0.019408650419312685,0.12199027418531078,-0.24451886106862622,-0.08639268710226405,-0.029524774753883702,-0.09083015949323982,-0.042635726025617326,-0.1113856096413406,-0.08684551504981187,-0.0676896081581698,-0.16770453732559357,-0.024826695173784847,0.16769818705147221,-0.03799602262394951,-0.08720305254699828,0.11155077720727125,0.07038605920839368,-0.11715621583074573,0.20616533078554303,0.14314199129373967,-0.01235639875319804,-0.11907825645151772,0.15132153155990888,-0.20559960952321255,0.14229215568478618,0.061970391990440604,0.2154215218382186,-0.11401070276373865,0.03312378572744889,0.11195996148712545,-0.07987781247579019,-0.020011534242996558,0.1293034680040661,-0.23786398827893876,-0.16714646084721207,-0.15516433491039727,-0.15948940407245984,0.1823859478233243,0.09592100307020002,0.04882735581535174,0.0771850324269971,-0.21177878765656868,-0.11928129577789072,-0.1080986420352951,-0.12067079979221247,0.16594845150550316,-0.206533872840827,0.2380107105545746,-0.16867822195830448,0.14737671113792214,-0.17921344876905482,-0.054381843743412484,-0.10306975231656763,-0.11567216996678137,0.06053496871307995,-0.16831977742922233,-0.12156343572782823,-0.035035810569544246,-0.12363109103616066,-0.1062184107198837
-0.1480728521307931,-0.22096840234679516,-0.09991616639690777,0.08603682559070203,0.19868113012208893,0.003768547433723878,0.13741602885186585,-0.18303301951158274,-0.14220802821394754,0.020110380000492766,-0.0804501205369134,-0.20701594739444143,-0.19043609811943077,-0.09106705746521336,-0.10538819985406815,-0.03966634876460659,-0.09847880257106337,0.12807480996653545,-0.0030550532927997674,-0.17930766759671363,0.05473465184603986,0.12224839500366907,-0.11761279352649574,0.0260586623006142,0.1366259297471654,-0.05503198337479122,-0.06650990338573884,0.15077190862217307,-0.08961509371805211,0.20848101157283758,0.0639716100250871,0.2347191102110611,-0.22467558387272943,-0.051115410416435365,0.23031654802608306,-0.20183823340294016,0.06483270777459348,0.15827018069523133,-0.08222463317992838,-0.1781572685757855,-0.09256696865170996,-0.14705979265176417,0.1426274404516293,0.015192625413477451,0.009380017727701813,0.11416805320220842,-0.15664244840766484,-0.11200043387529508,-0.17713744615221058,-0.09053348840758217,0.09748054757730903,-0.18615159419375585,0.1546918912346616,-0.03694098101811399,0.04027466712365667,-0.1866809465240609,-0.17115267190970998,-0.15290331861327203,-0.05897345899919054,-0.02695652995321933,-0.09647071771756327,-0.1590453902542389,0.030532943328097185,-0.03627734458348469,-0.1756075754068636
-0.1824261529574326,-0.11871214549182882,-0.19254432370327246,0.12581846738240857,0.09396404170720409,-0.02049168094941833,0.1400411913589777,-0.2151880935384058,-0.10602995038060285,0.0355584540832894,-0.08781172445334608,-0.14812545216084275,-0.07709137135325553,-0.009745855070509105,-0.015609130579106734,-0.12274053952278753,-0.14692144364986082,0.11958710551245097,-0.15499056566037206,-0.10269704159586428,0.1388874567476237,0.1667859595136261,-0.02404600838011856,0.06900047090532359,0.17795673104247978,-0.08288898936798826,-0.145405397787376,0.05544497776474993,-0.07295878465727292,0.1886890415703225,0.06980190718136696,0.2347994387378258,-0.12642494865371195,0.008495945605928281,0.11833475623358897,-0.17213449468152178,-0.010268812327583436,0.06756868821200844,-0.14187400861409094,-0.1929943180482228,-0.11985403273004307,-0.17011998191719888,0.1622948086785276,0.08616120120509627,-0.09167736003378528,0.0692558695813032,-0.06755921255557153,-0.2181131837284633,-0.17431269540051325,-0.17244849849608276,0.10903011123533889,-0.11083937420184768,0.12919099134669923,-0.15823093875519806,0.1754048832641679,-0.22318663285510268,-0.15449739506441562,-0.08199404742961762,-0.08947660480218951,0.07662728006002861,-0.2348950537588064,-0.22614915981800346,-0.0810344186003453,-0.08009400163360383,-0.19356950518461144
-0.17149544203076192,-0.20455248585611585,-0.13959260533671006,0.18472133955836245,0.20256709074569165,0.09597558721359509,0.12381836394946173,-0.1334301288464114,-0.16120321117521338,0.06257273225097411,-0.18388788270011536,-0.1785738143470413,-0.10095824308313751,-0.02315254304469122,-0.045506968791044974,-0.20774346524831613,-0.15819740349900602,0.20559416617016205,-0.03746002531851329,-0.08353360041665747,0.20048391156626816,0.08231133736498962,-0.056046330625066205,0.14555360632269834,0.0764994187610288,-0.06704886104227158,-0.1542579227626656,0.14383511264970383,-0.16450695199268253,0.09379792241522895,0.025088274477409894,0.10201011132242573,-0.17776876249260493,0.027653716108567643,0.11270801921085123,-0.16497299622893274,0.11579188798700041,0.09042692417362065,-0.19426825892822647,-0.06588330622504388,-0.09064908373051607,-0.11222384426382867,0.19349637163194933,0.08925348287310748,0.010193491501275442,0.19107247330062666,-0.13052962284965475,-0.07188599718328705,-0.24316219654540505,-0.13485107066901006,0.10436999581856544,-0.219279531880061,0.11912280090952652,-0.11728460481180293,0.07588878499082455,-0.09806001666097353,-0.1646585143932293,-0.043648226741656304,-0.12302639408994058,-0.038684803278333846,-0.2104209608837243,-0.03967321560170894,-0.07259117560858405,-0.014955958233835632,-0.1266008082033434
-0.15109217396449856,-0.2324329959011996,-0.17812227680070483,0.04865570997692625,0.11514293019818439,-0.022267239489077027,0.009027131097000393,-0.13202415726230915,-0.04379892336991704,0.06860854685074799,-0.14908108400859996,-0.1582199458358385,-0.06531703138120892,-0.1417705924940605,-0.1107005341812355,-0.21847887431892013,-0.07907547555103142,0.06755296433277218,-0.0393034167200513,-0.10414513472340245,0.1125856922475703,0.1337271459979397,-0.11856839252110016,0.10450497343253343,0.09369997362606593,-0.1345962755607109,-0.22105875159963317,0.12615749724095365,-0.20795947090815647,0.21953862622413353,0.006438257975805513,0.22861380719717123,-0.0952936543350648,0.008861980228016406,0.1901697386252683,-0.08717839890571072,0.08312618832148531,0.13632284312035509,-0.12544988421166559,-0.21221753551891756,-0.11963697498574648,-0.144223152854742,0.18326462304869198,0.06409993414115556,0.00637648738382055,0.062117652744004805,-0.07444457330715093,-0.04356361700413688,-0.09105971064407978,-0.04314179604000091,0.16383261796893342,-0.11237827176832517,0.1770826078884556,-0.1928288955273995,0.19567700165010904,-0.1872955426396804,-0.15800126837143574,-0.14469313237240142,-0.1490959874458281,-0.06879293900570001,-0.15791207560687298,-0.18573770795962938,-0.10072866066889084,-0.15860332381394868,-0.08451191869951913
-0.17552159865913902,-0.11447022217782342,-0.11948810807045336,0.14447639737047557,0.1695689065103199,0.028709644226040595,0.06697284239866791,-0.22889646639364047,-0.12754296628956094,0.007988280126057547,-0.1449860281498917,-0.1533951023192579,-0.24911830832156906,-0.13308381004093667,-0.10871055437022242,-0.19861266194562704,-0.09408898032311579,0.0919648662478119,-0.06725238326932408,-0.08199307252603714,0.23122569100749366,0.06510229136887445,-0.024607993683832305,0.15419631432104125,0.1459382767035292,-0.027223861191142375,-0.1228307428264456,0.1872514357442512,-0.0753766850701192,0.08493540588595097,0.09121747276619112,0.1376969057620857,-0.1110136448079394,0.09702960383856889,0.08413153293493487,-0.08114174156820639,0.03628362429163042,0.06239967562443875,-0.05930671171707883,-0.2553164523344963,-0.09817297458478388,-0.09686923140499969,0.04630142779331197,0.11114723817196145,0.029728453788596138,0.08178856539017688,-0.16883497662274904,-0.17281823893369871,-0.20179364138102318,-0.12492263715995895,0.07777872769564405,-0.1185470736838882,0.10156242555843568,-0.23471999573835456,0.1906794683875945,-0.07676932887713443,-0.23849088330008744,-0.14401481314508174,-0.22479775531495452,0.030198681327738293,-0.15930371750567857,-0.21764334006849712,-0.07254027658976371,-0.07985797615018561,-0.2007746437232078
-0.1548252560200677,-0.04489074120697678,-0.05848863565158781,0.14549623876314147,0.20830663697400476,0.0879635900867818,-0.025245987687584272,-0.14694735888787747,-0.11806326753757977,0.031759523821944406,-0.1745492485229504,-0.2045379191716382,-0.05310518776692783,0.023536178012729413,-0.14065798442028238,-0.12634626259847553,-0.030985995099178352,0.07940161507018494,-0.0667007255589857,-0.19089314311680156,0.062021305812768095,0.18252042237825486,-0.005010836537412532,0.11825222557679425,0.17712972963114032,-0.07424948331764884,-0.20163464681962462,0.23191232088566568,-0.16619320846945362,0.10220921152352487,0.1404466797833217,0.23197527841979523,-0.16278339807879671,-0.03222973291596109,0.13681464608439017,-0.11464999019426272,-0.02981955390609394,0.21297794256750718,-0.09259354922100224,-0.1459172101290164,-0.10181392648562507,-0.07579175693381138,0.13955008085706788,0.04717241131511108,-0.006063949204693584,0.08545513258117532,-0.2144580795998335,-0.1454526156805775,-0.2370258051391249,-0.10713264150558288,0.19380561518208386,-0.21893815258245997,0.05707319812838577,-0.09232665087319743,0.13233779667774664,-0.13316619586373463,-0.21956653001953885,-0.030518092367968652,-0.04543533648704277,0.02346514099023294,-0.05892508260422161,-0.14634412079370354,-0.11593147739501326,-0.05087572379993109,-0.21067807212107112
-0.15250009920862515,-0.07694773376504206,-0.14302926235849261,0.14210983189875512,0.17681363827422816,0.04626095045775741,0.07192116364543183,-0.09575956211862187,-0.09979979834096844,-0.08083300831309605,-0.05389995728297575,-0.2130633988820882,-0.14585297473188236,0.002342213365715785,-0.06369248080872301,-0.1691116519141206,0.00893700173370784,0.10802312370849544,-0.1513564054229981,-0.08627372395074945,0.185171494440376,0.17508117573424237,0.006709117236459609,0.15166171875657247,0.0692030382595516,-0.10487570519452803,-0.1244715859045516,0.06250153869136688,-0.13701525047076907,0.206344765455979,0.04796163527540273,0.18511395535830757,-0.12519198458423705,0.01646491932284099,0.2167362317740626,-0.06242300193189263,-0.0067237722036964116,0.09261239955243747,-0.14256087480762097,-0.1834146834627035,-0.02370311685478637,-0.15560204883201012,0.09971767218771142,0.051986016322338735,0.05262727842118828,0.05975718628826665,-0.08269111840446519,-0.13829443218765702,-0.24257472909391764,-0.0997865504597564,0.16775412902793144,-0.09391244865213991,0.20609727336072914,-0.21322962736125842,0.18584273259582623,-0.1114141974216966,-0.07336250170914398,-0.05369108054476047,-0.20508851749010307,-0.012292091826963966,-0.24062046122069863,-0.09848722973559812,0.0030138329349035024,-0.005617914107132395,-0.14126189431894517
-0.15754738756556824,-0.1391790282280099,-0.09783466988938952,0.16444460198392472,0.2260786376796689,-0.021523024424289047,0.03803391176903714,-0.13527599051557881,-0.06370504706166047,0.07457501677063755,-0.1658537893121733,-0.22549505640060857,-0.05263917089620285,-0.002542041658803673,-0.12279529691924504,-0.12215127300363057,0.031130812089839706,0.18141078588522744,-0.10153273800198347,-0.21376554228614986,0.07753681719067192,0.15953284872493825,-0.1319710539821913,0.11044485434534357,0.16854549218203857,-0.07002316292990471,-0.15300904839664353,0.11352255390226969,-0.22692145805871347,0.17724329312182915,0.12500700161876652,0.05128339028848841,-0.06539197552155923,0.08548393509084506,0.2267418636359113,-0.16570112824951116,0.02885050980847471,0.19522257202171167,-0.21448941445968236,-0.1048046943328905,-0.1303746307109498,-0.05060547099428593,0.22914843239446558,0.0028237065863475352,-0.05211672755411281,0.22332402021430725,-0.21414013974447138,-0.13014931466932803,-0.23280972795402405,-0.18861696337275735,0.0822481709205483,-0.21281951567655907,0.08920612579742136,-0.2195901480644956,0.0750530679862396,-0.087282612619757,-0.060057288268931336,-0.0013568401845579418,-0.14127127264087064,-0.05756348507242882,-0.0864731779929304,-0.04014049442716286,0.01507982286369734,-0.10640203083281048,-0.11730307729440026
-0.14683965060276055,-0.1586545040574483,-0.07716044353400289,0.1497375677060752,0.14191310225747877,-0.04669882016070785,0.0992757438253198,-0.18650110224817038,-0.07132421487884787,-0.05206504426488684,-0.06457533574602602,-0.12414750732533164,-0.0909340647505636,0.02397912885692675,-0.0008277764476136779,-0.19973524979856305,-0.11292218729946438,0.22973149575296814,-0.0019467793097285011,-0.07245203430664075,0.1805872697136795,0.14409833006505796,-0.10936572329898783,0.0522136862081748,0.1351744718155965,-0.06030534018016162,-0.07002709700839481,0.21994383397992054,-0.1812436303490207,0.1277368982299688,0.016197088010526335,0.16786720919833376,-0.15385332336640373,-0.011763514812243319,0.08156080638013019,-0.04056084696050779,0.11704598860854722,0.17926009539894136,-0.20582582939732624,-0.09900802769892349,-0.03218525159178341,-0.2237264288948822,0.20090904012944963,0.07927299857639822,-0.038538493039506724,0.07559682768189609,-0.21854524710005577,-0.10641410764194882,-0.2325781055895726,-0.1141959423190093,0.09436951737985536,-0.09595455704068044,0.16589529188143767,-0.21610334830707373,0.158927123457252,-0.07854574256356366,-0.1410632628339678,-0.10157915704689348,-0.12294163723310636,0.008186196563844726,-0.06803760172212131,-0.1579904972988226,0.0015883409858610188,-0.05582548929583233,-0.13956805603603376
-0.16187295751303193,-0.24667801245294102,-0.06960919720554858,0.09342044916769301,0.14092251796401922,0.009281327725150982,0.0649415547814417,-0.22855583059485873,-0.21540702268109344,-0.019608021185512567,-0.13170866588806057,-0.23682586909551478,-0.09313925907235143,-0.04888705816414834,-0.14518116056081387,-0.18902906000561803,-0.06891687964610814,0.13764872977580586,-0.0013161137318069029,-0.059522252986780363,0.23332047558994154,0.05523645711864038,-0.12082809719842083,0.0850735099218342,0.06369141281033568,-0.021348201263340662,-0.2068562796378045,0.08193580281308815,-0.18907987939663273,0.22339717084102143,0.11267446200680677,0.13097744741276804,-0.19162141639703006,0.06711137547700702,0.11916388564472623,-0.15828764516935315,0.011343931858770964,0.18703292357834364,-0.12408255097424943,-0.07537240001236219,-0.20252200552859773,-0.12393322964211181,0.1635954739859557,0.09804257922131139,-0.04853445143640508,0.16148124776646378,-0.05376010586735544,-0.1496333711851105,-0.13907102178872843,-0.10843788347087277,0.05574893112619027,-0.1758394653228197,0.07617280754421632,-0.05474510915237532,0.07858654577684122,-0.2305136957088886,-0.18993459434603385,-0.1817579171197868,-0.18696648108453834,-0.018586669134315885,-0.07631948539540682,-0.13197404825705622,-0.07295686257254717,-0.039955093219819056,-0.18687329120449228
-0.1559545107007811,-0.2331274738048653,-0.08076124982379915,0.1042240063454855,0.17501041205568416,0.040340320795303,-0.025455371756097894,-0.14061533611862462,-0.2290372722050898,0.04492304615516047,-0.12280653125659814,-0.19982154190179097,-0.20434117089873022,-0.10723462413627004,0.01718888687043274,-0.14537846627029513,-0.04996196270833258,0.2303527574196747,-0.0941560721471219,-0.12119630423038667,0.06516491899552154,0.19295366324324628,-0.14121861665177818,0.09856096627925927,0.09068521250732349,-0.04173202462544574,-0.1694306628320586,0.23104453693063018,-0.18588828718246334,0.22594925805853355,0.05426375290800232,0.09095007156120026,-0.07256083526639595,0.1001795680356321,0.12180859515615525,-0.1982597979703006,0.11543130926122938,0.04089139168534356,-0.08804908775313287,-0.24212324714295258,-0.1991133558746636,-0.21384387585060685,0.11404603723594818,-0.006875114272698868,-0.09174904376679299,0.04768713478406182,-0.10981920540439687,-0.18172219146334848,-0.14392096520560418,-0.08111002334123772,0.09129392874228709,-0.16958692532015798,0.11941389172205356,-0.07999159198021466,0.21801368530136994,-0.16180618201698813,-0.062313309536632534,-0.06775956305585606,-0.13729915516783342,0.008354244397387184,-0.06085163311337865,-0.10970694610781158,-0.13382225003468304,-0.058956106332525834,-0.10340845717575342
-0.16057182295133343,-0.19848017453173358,-0.07103379768907432,0.15968543053794856,0.0402181985574234,-0.00038383645198160067,0.08992758146573403,-0.16682273914177975,-0.22025211460723074,-0.08824671262526808,-0.17592040524864275,-0.21481637019556465,-0.17925956550850872,-0.06199869642369775,-0.1136186927468726,-0.13589167440457758,-0.11450990164768363,0.20580559558606812,-0.09681386281645508,-0.13625321171113053,0.1341090886485801,0.0892587865208891,-0.008782925572653458,0.0829384350233841,0.1954941005593405,-0.13094087678561994,-0.2325836247946297,0.11790925858226897,-0.11358835712555355,0.14609241949465834,0.11835525030504987,0.13691129893480977,-0.14635058403475376,0.08931655355749032,0.10517741040095274,-0.2103965531212648,-0.028902980313369925,0.09757727436690093,-0.12528377337188384,-0.1848845655296775,-0.027882466931419332,-0.11918424672299037,0.09267083475574732,0.10417921484648003,-0.02698024578790641,0.11495360914131161,-0.2123487439435106,-0.2071121894065496,-0.16133256885441943,-0.05459718172486857,0.14171381090813132,-0.06277710533668775,0.15630599529756334,-0.21712212143197734,0.13391444198640376,-0.1575052735156798,-0.08011742206724648,-0.015250397774335808,-0.10421652961419284,-0.031151103232186002,-0.12439019460700972,-0.07006644214918344,-0.052900289298706195,-0.09217347424817558,-0.055556100219880236
-0.14927952249314178,-0.17079934348528406,-0.0695798054252475,0.14464811677643533,0.20865947521394634,0.05368782303620613,0.13643656655010444,-0.17187583541802973,-0.21536444076564326,0.004992450850635945,-0.06283244192787923,-0.22680722789456317,-0.17435011157559566,-0.06765967100639636,-0.01576118355299548,-0.2296493976607688,-0.04661081596118531,0.19487216416103914,-0.002467398213396502,-0.20594414954247792,0.11536489235003172,0.134327489535813,0.023033521329111368,0.07833225091038108,0.05378534794773743,-0.12778491469126949,-0.22292903256912636,0.0891340604649458,-0.21305328545702615,0.1319617952553604,-0.015483518808264428,0.17811916533372288,-0.18321817468561813,0.10600931133670571,0.2103485240610364,-0.1778172459325509,0.09743079103566636,0.107204320354655,-0.0652667990714218,-0.09006726870833799,-0.12160534199566964,-0.16248955835926504,0.15170894343659796,0.03549792981536505,-0.06090302367089387,0.08961831095005399,-0.04610718770876638,-0.2241174945496944,-0.12266687588137731,-0.0678594330152632,0.0856574580689682,-0.10173469563829747,0.12278704815133192,-0.1317738418077078,0.1384665074832005,-0.0856286107339844,-0.14612603954295306,-0.029712424058616453,-0.06965327098488959,-0.042742723664547996,-0.13100884807628743,-0.05132030586217489,-0.030101887531067496,-0.1135605617773323,-0.0650010938208917
-0.17824111118763086,-0.1713404032882903,-0.10639689988632955,0.05084607078008313,0.2233050436172194,0.07736594200736371,0.10842059680179382,-0.24282502621860816,-0.1441720484602246,0.024181597272634244,-0.16410713664251506,-0.1576895312707211,-0.08730651379636091,-0.12684767381587292,-0.10226411871497045,-0.0684150151669348,-0.030436061215376817,0.08250674001327177,-0.07879709658809309,-0.0667191333972506,0.07346720577206417,0.13446236662016492,-0.060771449327463874,0.1352240855960453,0.21100176259405581,-0.036947768201613065,-0.23718632322938432,0.07193932129193066,-0.06230845320953254,0.07240959521513755,-0.008070090994123655,0.0835689407437023,-0.24922348643661293,0.061103442990959586,0.11604426704984455,-0.13626544580587943,-0.016296011080872034,0.0886350982751728,-0.11674381689095903,-0.1782461511069459,-0.1988895478202055,-0.16637473552048457,0.15382857025301913,-0.014236512336295332,0.015402616515654265,0.08036202537744047,-0.20789778557007169,-0.20528120084147877,-0.08327845514078441,-0.14171671017656481,0.08134923711889007,-0.23426167447236482,0.06760028518047956,-0.22860398113284866,0.09440511237274585,-0.12185719486594293,-0.08958689569665837,-0.1411897467887805,-0.2614718935391109,-0.042888956055686565,-0.1885564511131878,-0.2241368410055395,-0.05506722271819825,-0.05935520985002635,-0.11667976542680951
-0.1613214718045789,-0.14661007724077313,-0.20777865202331172,0.029898376435088178,0.09550601236551244,0.09392885284848825,0.050563783688331594,-0.19848518179237518,-0.12950593269599447,-0.07119483881584125,-0.19954772381843405,-0.10329260383211705,-0.15208539361681828,-0.018292202391226947,-0.1413655318089462,-0.049900246331468036,-0.0753090209304764,0.06212542956561966,-0.0670755364848136,-0.18000897833651297,0.172707186554295,0.06735808808626784,-0.10699537699665845,0.1074218979892845,0.15041234276848423,-0.0483154994278897,-0.20222511131157767,0.10120869135260933,-0.17705119826716434,0.1715369055211894,0.06084561084482069,0.11625446704432214,-0.22709251626353263,0.09734674137934987,0.16928309884028808,-0.1337142652590622,0.10330717052955907,0.05152330627283946,-0.18666914795094638,-0.1956677498595239,-0.17677648459168824,-0.23348376380950173,0.0719804975202613,0.01561003965640643,-0.08684053860296582,0.17739962870548232,-0.1528501175444902,-0.07135385684555563,-0.24136424817909233,-0.0595287278345478,0.07621364799252617,-0.2173178185430491,0.07955697937468419,-0.06522301195414036,0.23242342632720156,-0.1628384985613003,-0.12955479374987097,-0.0962525337569018,-0.20406208121730895,0.07713335465899347,-0.06035978402969586,-0.14180276758037083,-0.10329966373157815,-0.13048087162481875,-0.07175701491763034
-0.1429357344858155,-0.035684302397163414,-0.15571320330990213,0.10850301391600763,0.16319786187400465,0.005690801355012928,0.11262824267106787,-0.1952995083869439,-0.05681230621214777,-0.08375648826312285,-0.20065506285067308,-0.18717882019878052,-0.20426352492954533,-0.11207019353473363,-0.052859240748467644,-0.0988063365528932,-0.09311468164749498,0.16353415643706376,-0.12538594705652648,-0.19219885404229645,0.1996471157059654,0.20020602546390223,-0.02250192990352922,0.054046573460149364,0.03284908185386868,-0.17436745092049624,-0.13395572386338117,0.10751686457619898,-0.05895116914521657,0.03787144305545731,0.06342126219414317,0.14613289715634203,-0.09332561977103933,0.06709799255181692,0.15598994018593645,-0.13485700164926437,0.09658263197987581,0.14623406633386804,-0.0579421449431269,-0.21594340692555986,-0.030923400205427512,-0.15768147825717668,0.06900264786969201,0.08303101584540139,-0.05664467602644805,0.23151664377088046,-0.173144440572261,-0.22061086844871053,-0.2309544255333311,-0.04992514432522191,0.1878408345390551,-0.08940351812361294,0.1462375856160478,-0.03993154103060195,0.10725349417885863,-0.19768529828350045,-0.12346599823082456,-0.05986898443554906,-0.15128108004056826,-0.017331501967464625,-0.1369992847170269,-0.10865297585364915,-0.060203693274529055,-0.08539953664499575,-0.21171688751738077
-0.13371979764227518,-0.06075256755114174,-0.14120938030582306,0.18018724792702603,0.10010299380230409,-0.017910629815314032,0.05435361810185086,-0.08469874638611596,-0.0665001833713644,0.07386139743728536,-0.0841988565635766,-0.20312679766278877,-0.2209153537181476,-0.010523391273599534,-0.02520118944551203,-0.21676858141735184,0.0032488653042468244,0.17783556494962893,-0.0415321561446838,-0.21789039934558277,0.20495522692012832,0.06407052846082639,-0.05762990680273364,0.031235521390998222,0.1626428357077648,-0.050430314525244775,-0.19170556912893016,0.12910248903953095,-0.21720212139702685,0.12203888358251383,0.11960871950097521,0.18470485258025665,-0.05350292245111178,0.0626345933705065,0.1835120209545746,-0.16380454909965733,0.084737136300617,0.2065668686612919,-0.14049164464028258,-0.057855153813888616,-0.12994759183427668,-0.1513049891658237,0.1882148369202452,-0.009813401540057286,-0.02386758610961633,0.19356813939020598,-0.20905682160372943,-0.18882054848493018,-0.16873935704651477,-0.0840146229548579,0.06995066042840284,-0.08277277569213176,0.07631143875298334,-0.09553108417224754,0.15248102613125736,-0.19116412320135925,-0.11799348040018592,-0.15611466860379436,-0.023781819379806387,0.0835601910397373,-0.17020396638747998,-0.033522749241783174,-0.1359204432055717,-0.10858533402129418,-0.12946229360796285
-0.17386925087187377,-0.21203112361809479,-0.1971240819589349,0.0517406596989807,0.08256064343428854,0.06604374901452904,0.1064719874964034,-0.07405390862852357,-0.23728845669971593,0.025004314016241726,-0.0742803068095214,-0.1032799946368577,-0.1712648302133,-0.011615893803094867,-0.0033721933330140394,-0.10825069644986306,-0.14415127629905297,0.23114050398647756,-0.07182792467247436,-0.20318901010065082,0.14598002720142714,0.07792051878794255,-0.10138962835568698,0.05875441965178319,0.16551187234947243,-0.16524311260424263,-0.06983558297935005,0.09659214764505177,-0.07842904357082016,0.11688420018983035,-0.012790256863682814,0.14033752654076,-0.20508017000237103,-0.04222974485444354,0.19420804792024268,-0.16031886352281036,0.007207625672941061,0.07478645074083141,-0.1372643297645448,-0.10763188939889631,-0.09870524344967795,-0.07463972417594932,0.12401941986778373,0.006390338045432806,-0.03856386895833676,0.2225215961910403,-0.08911296398885724,-0.22922003393831183,-0.24431020625416755,-0.2028684751473165,0.1231053845055922,-0.06773324559211726,0.14234293167406678,-0.07076270149330277,0.05841843723608766,-0.0702551118743247,-0.15616796502279695,-0.10282185831388702,-0.20371743277664858,0.0300589232112551,-0.1828195375350907,-0.056555365505032644,-0.04039213418735186,-0.1238888194525194,-0.21984446856490586
-0.17156981956203746,-0.20362378637688566,-0.15036547215189072,0.10193167056799386,0.09548123575777101,-0.03243826091000053,0.14044386972518785,-0.09531029732733262,-0.07273533510110324,0.051781314921683724,-0.2144846495569234,-0.19757302027530482,-0.19965712806464253,-0.07796591080505928,0.0023419658983278506,-0.05857276827987565,-0.10641547003934597,0.25089557306138366,-0.0010686366339869467,-0.17429347844212054,0.10506144741974305,0.13360987311246633,-0.03190256929645782,0.15830402652267725,0.13270889730297422,-0.10956592868983443,-0.12328908329680437,0.12709194494484666,-0.1463703698286437,0.05467998636392212,-0.012466459790633539,0.12827248517951403,-0.10536494955772852,0.049678721760550715,0.09029342485892838,-0.12545601124512681,0.029390191068336034,0.21145695471499407,-0.18610150831644096,-0.12231524138267269,-0.11671423578845153,-0.08843713873544898,0.08823179088302545,0.029794660887143037,-0.0030934060109797704,0.20481540825024316,-0.2380360768674664,-0.07619080444018046,-0.1660440437172452,-0.11534296591627465,0.09850222170586675,-0.25731793352111837,0.12327120891264844,-0.17934750005965486,0.08673903063693465,-0.17854590323036185,-0.17829084230681652,-0.15051617898594116,-0.13227642935318176,0.011315580997137576,-0.06779364778720805,-0.14367112182502945,-0.1471301563336935,-0.18925764793890887,-0.15012284262116204
-0.15635928236557847,-0.19858805751525468,-0.12418002671794758,0.06870249172812454,0.21394836211189766,-0.007771903342679921,-0.004002774165047835,-0.24148564795566,-0.059685975153894434,-0.024492887871077187,-0.20378076795784594,-0.15643361957596016,-0.19471906654105095,-0.08472753864271866,-0.015453685490170649,-0.11526626169505623,-0.04532507974543615,0.1526090084686462,-0.003342298655128422,-0.07292219307653132,0.23007422648149323,0.10295034083623145,-0.07327415163993203,0.12983303437436006,0.19567829967436742,-0.10982872925135204,-0.158632094678037,0.08957828438698984,-0.19608032669055758,0.22419775325593766,-0.029356000427464182,0.07517808322013236,-0.06952502477770368,0.0922390344025079,0.08242671105127264,-0.18150091657053294,0.09246654241576559,0.16144443715995666,-0.07665579257726553,-0.15423974158073356,-0.049731199404342105,-0.05764616917218384,0.0349150298864806,0.059594702867804376,-0.09423972251228281,0.11960181539027846,-0.12777038148033215,-0.1806414699635533,-0.14576688277683797,-0.054829135619222404,0.23291698224782206,-0.1991288621330527,0.23279171127082954,-0.06705578739005999,0.2385498497967091,-0.05728072216707374,-0.23927991941056306,-0.14175719756783653,-0.09094067976213915,0.037189579678521226,-0.11042465675805384,-0.13115366011203353,0.02139907995349133,-0.1820055210202936,-0.05567788733776393
-0.1565733943460517,-0.12159371429737821,-0.0798957662035318,0.12347152588775619,0.0829884505034796,0.014387303785787587,0.07359993396375501,-0.16172767764950446,-0.21346453019465317,-0.07107379003886789,-0.1291663744938748,-0.23524596391171976,-0.15980812891880716,-0.0014114631021655746,-0.08548098347487654,-0.060217958974417965,-0.09615369855626091,0.16619374803662074,-0.11220822336176546,-0.14450823733401513,0.10330841747512545,0.06613953909838384,-0.014709806269715705,0.18925693943430477,0.12840857509296105,-0.06791505755591336,-0.0975410583111752,0.07260624035958481,-0.2380177350962624,0.08792053811188072,0.054041396077810555,0.19740512926283005,-0.19822818318147586,-0.026628870823492367,0.07574286573422923,-0.21694185382672457,0.0023982612738222497,0.2353155094120996,-0.14712623635252348,-0.0855329347751478,-0.06804533760516682,-0.07841225821344326,0.2002555254966242,0.0341046561280613,-0.023474013775892182,0.06915761992526218,-0.21374197303789919,-0.09660705395493589,-0.1721105134637141,-0.02887943386542242,0.20155702100653855,-0.24268590823173458,0.12579529256361444,-0.2039625616152882,0.09026177703045805,-0.0780895949893691,-0.16722164252753055,-0.08648184171246819,-0.09931866041431239,0.10553500897624919,-0.20938977538103848,-0.04693976087742077,-0.05792264003168943,-0.13229773464952066,-0.18163246167456534
-0.14809318475295075,-0.15195782963873544,-0.08548422226707839,0.1558716980562781,0.1052935429844003,-0.057312806365446986,0.015629217927569505,-0.2348293434479068,-0.22395548575847324,-0.007724182619906562,-0.18755981044473288,-0.08728800552836515,-0.1700633984954877,-0.13633086898075258,-0.1252640275696603,-0.17503227836607252,-0.0978253027140391,0.08436666847673963,-0.04789521616237305,-0.12658966649359327,0.21007998581053922,0.07808224312909387,-0.08900610581788802,0.095495090076338,0.1156388416369622,-0.05631826943552929,-0.04941482384450632,0.1782635373223752,-0.1977608070648031,0.07822885864591146,0.11852767981086794,0.10900639040123108,-0.1488729777966051,0.039588538366928834,0.13445932889672396,-0.02506362500701978,0.0003851270382127009,0.05361362713069984,-0.09098875196984124,-0.20629123787311932,-0.08465007023023355,-0.2381955044455092,0.16415312370849974,0.0748409557585675,-0.02440461058313554,0.21726693507878717,-0.14497019330579028,-0.23604465213832965,-0.1708641122490629,-0.16710172186308492,0.05522498408548542,-0.05846414961240075,0.2192251526111113,-0.12771318260878187,0.18013624364356565,-0.10315706254670491,-0.19408708249230516,-0.0987399218302761,-0.15998109724758006,0.04919660319880381,-0.1507056678978434,-0.09993695867181442,-0.00526865771929795,-0.07788501143505287,-0.07598331564945597
-0.1474102146785774,-0.20306470575800684,-0.1267376946994767,0.08515647891366473,0.146592893181579,0.054087013973389504,-0.027714024389429028,-0.1984947668874999,-0.1898837865382267,-0.06980352923368666,-0.13766260338496414,-0.1791531308622646,-0.10796266857630199,-0.10239496304836881,-0.11373618823005159,-0.09915121503072818,-0.018247682884750392,0.1693688409748836,0.019810344027291954,-0.04816135597617886,0.2095316482814044,0.19147443179341167,0.003019333061210508,0.11963848383479755,0.10867633269826912,-0.029504779094542945,-0.07744261164992623,0.17553773672809878,-0.20484214243315577,0.17771176120729001,0.0510305975423189,0.15694294224928404,-0.16971620869229126,0.014196763123663532,0.17216683527024626,-0.07448486204826052,0.04060564794913723,0.21527767618005744,-0.21068458042009644,-0.18736304906196127,-0.04024891986492939,-0.192995597287965,0.16603426971228535,0.07428179507554966,0.0035533553803361153,0.14210042446300702,-0.04535789742784281,-0.08900621523196765,-0.04852294245205811,-0.12034242594488807,0.06610000029473485,-0.09413266834752748,0.2179639682645724,-0.21241540061895622,0.1474977496416648,-0.07111440885760678,-0.13593735318483594,-0.11739073967957298,-0.11607211757310645,-0.023156789199789155,-0.04498612154609698,-0.06665546050876552,-0.03982913688191589,-0.0358289789347738,-0.07718365134337117
-0.15209379036478646,-0.23037962082391303,-0.09239745002338101,0.0735373086306972,0.22840195837716057,0.10290352799521452,-0.014674806592256149,-0.19765868503517128,-0.09985143887259541,-0.07764601782119748,-0.04444995664666781,-0.0944551990050761,-0.04838607385966965,-0.08555847928869426,-0.06489911689003508,-0.15379543568596007,-0.08021817103678394,0.10673414494292895,-0.11269242614699172,-0.15195929202332883,0.058917459200810984,0.09927900366972015,-0.08399555629423741,0.18207283975242472,0.16746752766680043,-0.11772730260565459,-0.18288065987400362,0.15027254601689533,-0.20933840462772718,0.16553462632202212,-0.02361353394317696,0.186851007516648,-0.15128429847249758,0.029313981828366344,0.12808095305714948,-0.20184493599838627,-0.001528546042284483,0.06879967095869785,-0.048547729182453314,-0.12923047083737438,-0.054707858308845454,-0.12681264151777305,0.11526722284747482,0.015071562173386746,-0.05217987919628704,0.14841003422592008,-0.20072432774637902,-0.07840478043952048,-0.15066592363511205,-0.18694264244324554,0.19711737922859723,-0.2079897150846681,0.10894168749430534,-0.20573593305069734,0.23684767159379766,-0.09045187553177214,-0.24643049152506813,-0.13299474964691027,-0.05347598867808877,0.043179379510174365,-0.14817870275902942,-0.09814699128826476,0.018231485447155717,-0.16921443307935718,-0.1666025442009825
-0.17339834332688422,-0.06028328900897373,-0.0820741785102304,0.164328814582053,0.1650071018577491,0.01920780987903094,0.10355300435756452,-0.210095791784825,-0.1571851517453035,-0.06235100861717263,-0.13457093730323158,-0.13356650991778665,-0.08303871783731728,-0.11558116331405441,-0.1416727519229226,-0.14846712444409035,-0.046783843744068104,0.16251785333457203,-0.09622074728410711,-0.09109634494858564,0.14211220921204276,0.2524707606470758,-0.07697163248500755,0.03709421975685087,0.20574278644506633,-0.08785577688941218,-0.16940941348135616,0.07911016548680704,-0.09308384993548387,0.1260237866823544,0.047898053836272936,0.09181006907270463,-0.1817469880447799,-0.0585450324533954,0.21393252267691967,-0.14289120135960773,0.014207202606416856,0.2273090634570075,-0.13559538699477205,-0.1575840754189884,-0.029959968410738645,-0.07013712057917444,0.12480991408032577,0.12323379909983947,-0.0494838694183259,0.12514537100609394,-0.2184453487920476,-0.08100350319861233,-0.06879325516398344,-0.15490096271976567,0.12884487302993552,-0.0647986263944395,0.16529795233766,-0.07950550713298227,0.2407008211717193,-0.1816179066721352,-0.16059922436566101,-0.027119946255612273,-0.21796467691198967,0.0437995272810816,-0.1413567224274795,-0.20252243581182827,-0.048579902492367086,-0.10365540065641804,-0.11712215672025997
-0.15130016620097836,-0.09107861451407166,-0.1890602740184421,0.07281744378586527,0.1342661801844406,-0.015165411926593257,-0.03346442499132324,-0.23072779807629604,-0.17188043288619761,0.06291080035189552,-0.14157967177572858,-0.12088090064280002,-0.1825020445499476,-0.07346371543705454,0.010338045498894308,-0.15785744376737232,-0.06336853558656864,0.10390221513236539,-0.08109979734925551,-0.07501923544012716,0.2000283516108953,0.09461969481921848,0.003903452672279786,0.11761428218863264,0.18762141488061737,-0.11764128525807378,-0.18909074617284138,0.1780339008924481,-0.2109505570924226,0.04214761696874167,-0.008353526469148333,0.0436523644787869,-0.13182391973199006,0.05735091112957845,0.22947448807709125,-0.06705096041451002,0.10624195965924993,0.17072996565388845,-0.0464747426406439,-0.20319050574835312,-0.11013740335065524,-0.21254960522156136,0.08110363981030713,0.09493930694244007,-0.07594543333978943,0.10866273904310665,-0.1909532540133274,-0.07539292052089064,-0.19863656410812452,-0.13630469758221242,0.1135141794684615,-0.14185527073008442,0.22698931698044514,-0.2350876235200862,0.056961745093736825,-0.08090408084156941,-0.07869872194227186,-0.14171279111473156,-0.05104939732314542,0.011449666550378346,-0.18769662711822738,-0.12545532580712004,-0.050066882900957566,-0.184543100052941,-0.16958090475778914
-0.16212581991864694,-0.12374796985132029,-0.06173933920149035,0.11019543401614561,0.20549304191308201,-0.0050817005511142365,0.09358134077234109,-0.1524044534087715,-0.2028492201152508,-0.0022215882349777994,-0.15186885902490563,-0.16096273332675334,-0.06507909018616707,0.0029740236412912698,0.004679107960183344,-0.08974493972915694,-0.13872561742643974,0.08027600490283435,-0.09328491427485257,-0.1885190951094744,0.18042360358948337,0.13113880586259385,-0.09664240485817523,0.10894926223909149,0.06343742657633983,-0.1612372146730559,-0.0765671207312775,0.07984563425391142,-0.04905828338570806,0.11690569596261259,0.11282749743937831,0.22598117325375477,-0.16884485819397915,0.03674572521611588,0.1650961316626214,-0.06341468245958248,0.02685700553735116,0.14731671749923933,-0.21751657259006563,-0.06608490600058607,-0.12294922587399555,-0.13848942554199675,0.1810593708594476,0.030611254645795172,-0.06455829467148592,0.16178821696787524,-0.09772228453274695,-0.1010177819546184,-0.14575914177517948,-0.12113587483409068,0.14051673193654954,-0.2500877843914443,0.20792443941461103,-0.15513706281184345,0.13986765207849552,-0.16096884555538477,-0.19103663856800196,-0.13381663237403638,-0.08176761881932933,0.009416487802937286,-0.21264794876686924,-0.17492281725264858,-0.1008251966759048,-0.035296035565570066,-0.19713442959114924
-0.16766043149228407,-0.25104650585772403,-0.07511947193030107,0.1648373424365548,0.07144469210063166,-0.028326981008908254,0.020403402704109945,-0.0883631227813941,-0.07869006733025181,-0.07072559628285773,-0.1215767855794186,-0.06696557222267593,-0.1268854778343496,-0.09878849301794694,-0.03389041631554734,-0.13718202839317079,-0.023529147679488396,0.07020874887151354,-0.005656443047624256,-0.06659824500056008,0.09797678144575203,0.06132365912538148,-0.027913544833000264,0.11664861676369313,0.20681853082494792,-0.09224632081199871,-0.09614170239909205,0.2203271581580864,-0.16182531150502918,0.13389137849690833,0.11461633069403111,0.19055240617347233,-0.1271297469413181,0.042848820173207534,0.20618061291231404,-0.18376005735478443,0.11328756204094483,0.15316696521942746,-0.08576207709000354,-0.15599169871800944,-0.05823390342543442,-0.12745924702659184,0.22852814095538115,0.12911373030768275,0.03642561118428407,0.09587943489229744,-0.1924138356219804,-0.24434903743816996,-0.2533376783928243,-0.12471255740301038,0.19791748814297158,-0.10656374036040053,0.14204158791975907,-0.055412557649237866,0.21984668083156544,-0.1240493373104328,-0.21274798583646795,-0.04173745657678447,-0.09083696863158455,0.08766563198306629,-0.23215954972843988,-0.2039533673936518,-0.15937259550830207,-0.02348255734922093,-0.13728835109417226
-0.1547542905502711,-0.12113478974601959,-0.22347176161483115,0.1288637376366023,0.138713973831633,-0.016476816897006474,0.033716222383354165,-0.10958679982385953,-0.21233559116709763,-0.025323591181751304,-0.07275823760545264,-0.14514702986982658,-0.22623811812912126,-0.06352953259594148,0.013137616661330988,-0.22230300526729138,0.03331576548012317,0.1527669879839186,-0.13407177923962801,-0.14167576013803493,0.06963361157842213,0.09830129576770319,-0.11920925393764258,0.027478354016830405,0.13999889074959673,-0.15508057955076912,-0.12652614422281505,0.13794992796301206,-0.2226518783763232,0.1340472649593271,0.12302870353060776,0.18354136358315717,-0.13931770683869324,0.06901529072315293,0.10586166879406722,-0.12580574235000086,-0.013247194271549512,0.17473382334217077,-0.1805993181976115,-0.06252400647161481,-0.03199077020904092,-0.0929388147758133,0.143378314356419,0.09701627011616566,0.02974943281999042,0.12382248486676486,-0.08958241221616223,-0.15258471071383758,-0.08971087806558074,-0.157305065764066,0.039051685658047966,-0.18578628668520974,0.07228166074691916,-0.14069700083825795,0.2200479546630849,-0.17743430757678957,-0.13275852111070044,-0.10935158819445459,-0.14991446119781274,0.07776618048825691,-0.22141092758879027,-0.1860633991380679,-0.1140161091546339,-0.16693756079081576,-0.17115761980551425
-0.15413941079477045,-0.21890449985611152,-0.1766247923277578,0.17754058504215048,0.06828163616353815,-0.04546927395606983,-0.024408646319192547,-0.1329293702749021,-0.08762872703049966,0.059883964781536056,-0.03458122791595701,-0.12105999863337533,-0.15756828959455219,-0.09462224939289374,-0.14923971128767324,-0.07725752148622848,-0.11709722965371212,0.24084250058037815,-0.1131463992864893,-0.23671706612039117,0.08749787768770226,0.2223547670121954,-0.053547918894267285,0.03823476631418531,0.05635240007530236,-0.08601702443133266,-0.21806376504050592,0.16122046451950817,-0.11984967699045265,0.07074615198943025,-0.013795973244027978,0.1429958201769819,-0.078421984560389,0.05706439658094485,0.2086387297983304,-0.08454263776969725,0.05358626889375638,0.19114813571425004,-0.22036264368475394,-0.04379148125686742,-0.028801483081232288,-0.1133831996904898,0.14896430682527226,-0.012157034573099527,0.002354134885424031,0.2287697351406539,-0.15787880794404713,-0.09758497976160464,-0.12529451855466553,-0.10556388805372721,0.23502172688148806,-0.10298094430310281,0.06866650946030833,-0.16654928148873344,0.057966714648516764,-0.12685223632682632,-0.17661267791294505,-0.059159099756703686,-0.09300399008519707,0.08972156446830207,-0.23750367328298433,-0.2095746922766787,0.014314003775792805,-0.16118333835301193,-0.1434964993781942
-0.16202839682228587,-0.18715693688617643,-0.19241134845019564,0.18163704101673656,0.11614044628203961,-0.040996120166597746,-0.029220279042069114,-0.06135287281125677,-0.13745878541342565,0.06156398511250968,-0.05473101832420303,-0.06264110952339602,-0.21496385798646978,-0.02613447765439876,-0.0980192197311147,-0.13389969509037994,-0.062359551892473226,0.10509736535866804,-0.12580505299704556,-0.1383443369037978,0.11036719669615394,0.2112561345836824,-0.09541660104092936,0.12816746078642646,0.19158506392816968,-0.048498396341491175,-0.2118192660053994,0.2072119251068037,-0.2391021160641719,0.20637135791127173,-0.003998473253704094,0.16757664151685267,-0.08563294097778121,0.10487940948936096,0.1862173223244718,-0.1223741411947598,-0.0004412756187119032,0.054338927709595475,-0.06964136934717992,-0.17613347534165064,-0.11852145288573501,-0.20332532176629797,0.17533548688776773,0.021152046947559257,-0.0172002674434487,0.10199929947871494,-0.13196889279321433,-0.0620582710264585,-0.14408948915331543,-0.05261950341577912,0.0983066574735894,-0.13968900174817833,0.22833527501924938,-0.18189785451360596,0.08077844168162508,-0.20067278769288352,-0.11282539845504852,-0.040694238734751115,-0.10055289548569157,0.04951783967112901,-0.0925470804007588,-0.07539904934063967,-0.14786887796203807,-0.03328482363504599,-0.14945890999620007
-0.15936423467075042,-0.10930666303944116,-0.07815685610940011,0.020563844297300862,0.23474616990382716,0.004844369356343879,0.09033274127934973,-0.23033348652484326,-0.16086667425012585,0.006907030750934566,-0.22849756136404217,-0.15741815778729665,-0.22738608051069745,-0.007458958446439065,0.018344086152965566,-0.18978628907737605,-0.04706432818873929,0.1536257911249053,-0.08499094060117106,-0.05609691553443574,0.14208452737411068,0.06147027647422767,0.005097685381128925,0.1297617881573577,0.10845233264319747,-0.057595291154948325,-0.14120752592550107,0.10807132910572805,-0.0720354501542986,0.08554493242702473,0.032644982916405524,0.13885639253168908,-0.18371233596436967,0.020453958858272923,0.17213171023621573,-0.06650239543801442,-0.01910437936057406,0.12262640360176084,-0.07841269910758607,-0.06696780738963914,-0.04405304997797988,-0.16039575999992514,0.2138375592994441,0.04770960529983325,0.022361702412119926,0.18435561118023477,-0.1721464761066689,-0.17259684659428717,-0.05568981507107954,-0.17825674504513556,0.14379071057287893,-0.2060045403211324,0.10740308910055132,-0.0896553296230601,0.11785706135400824,-0.0895452967673432,-0.15926677479835719,-0.16799261701254672,-0.18162799428919724,0.09760047023134422,-0.18807698087142335,-0.162957246909557,-0.062317119595107544,-0.11728150494387667,-0.20022360581245302
-0.14663038481187798,-0.20280304793236986,-0.06872146481247969,0.13291660406845332,0.15446785697441634,-0.036594378659181255,0.11025849700454873,-0.19036342828652694,-0.04351614645341532,0.01008118775867307,-0.08455139293590758,-0.12956077172201405,-0.23325730947368953,-0.09030700161323105,-0.11413365453866549,-0.22252592244916153,-0.07052404259737274,0.2129155687181193,-0.08557518156950314,-0.14874626138426464,0.1902298794800867,0.21256100983004803,0.033221667361904794,0.05621439749967205,0.20582069988632135,-0.06212594935410206,-0.19063897879806943,0.047173928393573726,-0.2274778775561854,0.22726623441630875,-0.03527031226519932,0.0923009261623641,-0.09852577108094651,0.017523897961940715,0.06616177473487217,-0.16870844788017336,0.10416590953454247,0.03060026873364252,-0.13921114976624419,-0.23258242233020254,-0.10052732364196576,-0.11941840486418033,0.11051426786922129,0.13634445426338157,-0.005092895036555549,0.10707683329072662,-0.22059122443626117,-0.14400277448064053,-0.049113213686301234,-0.020578823482113047,0.11745251163625123,-0.06384291168468767,0.06288064057909362,-0.19489250391173552,0.0477917765965161,-0.15782970239771343,-0.21886203011884325,-0.1510233865254982,-0.12167480892532997,-0.030334545279951382,-0.11839642346240638,-0.10750644496626821,-0.023931730175408228,-0.09311330524919552,-0.20143503525664352
-0.172127945767117,-0.23882621123904596,-0.12426316096497132,0.10376820484054076,0.09753143828052,-0.04416731353602189,0.04137124328333347,-0.1697145225666546,-0.10705057742604399,-0.06392185389634855,-0.20938225234266333,-0.19908396601262024,-0.0797669640197435,-0.14288401072736479,-0.10278731480561613,-0.21056007509925595,-0.00305266642454452,0.22727050315256145,-0.017092954856931374,-0.1048848882365395,0.17246015969139178,0.08477322688145039,-0.020548820370459474,0.21160611952704722,0.21004520585289402,-0.035831807013702505,-0.19225324565010724,0.17365855954171855,-0.2322551624262392,0.22839942084053888,0.08560917489474927,0.22689589119394726,-0.1140289861848039,0.05253530961173427,0.07323518490299206,-0.0629324568102129,-0.0095464108329118,0.08051280707150868,-0.07170785407656767,-0.1338079266883042,-0.1902656368173551,-0.21906171853084438,0.08053472755934829,0.05390020624793262,0.0007026466718742196,0.08651699333031407,-0.16686054114069915,-0.19792707271098117,-0.12038406092791601,-0.18352649151851844,0.10712317400862943,-0.13845525230034053,0.09976779580982825,-0.06496534052074521,0.15650270320906856,-0.07214446427215739,-0.07604827255145852,-0.03817154862572441,-0.172298762902405,0.09079508139543425,-0.0944777176253872,-0.08508947041132223,0.009540263748059495,-0.13580015753359223,-0.15869223954848624
-0.15988382748544674,-0.17234248786103848,-0.11902305546104028,0.087256358654251,0.05054465263058214,0.09433097860572122,0.0791665513324058,-0.24207786054302208,-0.17803208718692876,-0.002122671658433599,-0.042776894871717173,-0.05166890129087104,-0.18278526150053406,-0.11543095449016387,0.0045120869057244765,-0.0935172701423697,-0.07099057999728876,0.19221971077004524,-0.13651824338221816,-0.08238111564556701,0.23667193513508444,0.23525971697687187,-0.07870501731991554,0.192270826184796,0.04635741133030593,-0.15446339876358026,-0.061324333356172454,0.0935387194720356,-0.11820268210074684,0.044103796763958904,0.1192668505513189,0.09846733050698304,-0.09562158628394382,0.08874278322080356,0.16777556071006955,-0.12049573398233711,0.004046742768079618,0.12959482004830178,-0.23029308184048686,-0.09919343400648385,-0.12683135833974837,-0.20488687332530867,0.05571393651846507,0.007540792273394852,-0.07528398735426192,0.07579058554094566,-0.24187781117847035,-0.14207699638144985,-0.1738515631235733,-0.05810966028292764,0.21935489631154823,-0.05488064308579646,0.22339649772446438,-0.2112695754286599,0.19283328798551147,-0.1642450442712518,-0.1577627265999919,-0.042658294796498526,-0.17864239886712688,0.08155863637485182,-0.13311145251229006,-0.0759482580417059,-0.09558583869394056,-0.14219814802925476,-0.19031516534700385
-0.15036564526559157,-0.059035111502589166,-0.08363787142490643,0.02618141771946015,0.059827400721301376,-0.02742197557742769,0.08833724041449074,-0.20262500958382657,-0.12584131844213586,-0.063409353854202,-0.13518140181150845,-0.20558797379091412,-0.1408324525778875,0.019991970455540492,-0.0943217025544407,-0.1555054790540591,-0.08306466630031613,0.08566786748146048,-0.07373528316660702,-0.10379602391373008,0.08565947001072119,0.17936724540132554,-0.1065922217792044,0.07095124882133097,0.11170147589203876,-0.14481762427945116,-0.176683398535133,0.18317911907837103,-0.214191849072573,0.10425004443207697,0.10753498484944671,0.16151774777434127,-0.1884182504541246,-0.03358608394245086,0.11013759736781711,-0.18236061366424489,-0.01714130057225318,0.21416252721145895,-0.1328678264404034,-0.18636901711980125,-0.04124077093023653,-0.14437549623515278,0.11018692658837818,0.05198446717467948,-0.07048903405531909,0.1074545256248184,-0.13314569781045887,-0.09689357018134231,-0.18190162943645952,-0.15391231681810277,0.20332421899312433,-0.20951567539988172,0.17927101009511887,-0.21683262677144424,0.05646516968418452,-0.12247175560479982,-0.04714248244878727,-0.04979116971854028,-0.23130874212221433,0.007622172809267235,-0.14070444438692206,-0.14049114566225646,-0.07420596097286317,-0.10505941034851805,-0.13030622227888172
-0.15032508940789077,-0.07341327708587571,-0.07039390362328204,0.08314262469625362,0.14455041250115544,0.0931755510871272,0.04553647678203082,-0.20754710314404984,-0.037602032646920844,0.040154507101264496,-0.13951783850934213,-0.15931569936965087,-0.13478258385506456,-0.15449836776330664,-0.0440571576207151,-0.13716625341739574,-0.0939486629832897,0.11962543708748943,-0.026009904316223936,-0.16555708452003146,0.22798827004224162,0.14553270759738443,-0.006013792744827816,0.13969927316852557,0.07936929501911051,-0.049921919538329994,-0.1365233574639281,0.20349416884641733,-0.09092378144920964,0.14404294748302923,-0.016783282077574055,0.17432637723475614,-0.22069422256312027,0.10683172440728128,0.17390084719498802,-0.10900790093756697,0.0041364838575749345,0.2099544653930267,-0.06840910476181006,-0.04651326763975777,-0.07826263853730091,-0.09752490890651284,0.042298275038774,0.09980537036714252,-0.10095353368705454,0.22351263264009322,-0.22445757726202878,-0.1577253748612247,-0.060009591639009215,-0.06972587516499407,0.17730181418860697,-0.16084325273923306,0.12030619593555225,-0.10775475638763815,0.1460440404584496,-0.1381051836900732,-0.23728221162226606,-0.022435216680033728,-0.17936622268509755,-0.07658718718964912,-0.22588728841650366,-0.031073956934847956,-0.08504356183833102,-0.03925962669440392,-0.03802860612368361
-0.16126227960487685,-0.09843989580312094,-0.14072552529504628,0.018788182618036223,0.12742749566522654,0.058224867740612626,0.06455103858384596,-0.1980287428613567,-0.18646002237937687,0.027247931922105114,-0.18943091870307976,-0.2364146187281124,-0.12586230439208346,-0.02059308409131077,-0.10483053458543964,-0.04478893499335468,-0.12549036542153616,0.16154650325579767,-0.10108107158633414,-0.06706025857539415,0.06033603741986797,0.04566025388978697,-0.036665802251241775,0.0787645039063212,0.08581233130900287,-0.14606471203334234,-0.11372595546133828,0.159624339080053,-0.0652318854474455,0.1931381355752039,0.10929397627251597,0.12972065662104368,-0.11361343398995437,-0.05467589078320771,0.19815609179457547,-0.062125861989135785,0.03636129372073977,0.20845120548375337,-0.08702921459512755,-0.07787932551445417,-0.07872973276541058,-0.06842816874623066,0.1889196166360563,0.028828560748516356,0.003924547249326485,0.09090728496094676,-0.20720357926960373,-0.238799624304722,-0.1896617178782476,-0.1667709831414015,0.2023915863852163,-0.13268578011344917,0.20927801610130095,-0.2012797462631633,0.16705971855792706,-0.08862558938928021,-0.1451295994224239,-0.02213487600034367,-0.1794644468620857,0.04272978342608219,-0.11105644903543173,-0.12902279284081444,-0.04177594770092847,-0.02672469172839162,-0.10503073878775067
-0.1557169191874239,-0.16575868244494357,-0.22554991892108792,0.18963563142559936,0.063714857420191,0.07703872794518464,0.08646146186651248,-0.11031678159502938,-0.21400394184565835,0.02220130427839548,-0.14676423812849526,-0.08893413454259066,-0.240613705373939,-0.038950548458226604,-0.15294800181495108,-0.1990553797451749,-0.03249645022917099,0.1822836571059314,-0.10305779305585802,-0.09076146751922469,0.16543539077219804,0.18208646756604605,-0.08312180149209032,0.17518531596868678,0.1289713563670675,-0.1532698403780546,-0.06710823823956545,0.0789713642854411,-0.10409962907477101,0.21857179848950176,0.1519770174055349,0.1504061126418518,-0.21610127524114273,0.06238426690023001,0.12719704233769671,-0.05614617747197101,0.020123493289676556,0.15474805271281453,-0.17512288553296515,-0.09874691707310672,-0.1145436140914093,-0.12781540291680016,0.0651323280346529,0.018456411432459945,-0.05884811225164443,0.16845444180870908,-0.05733075943059971,-0.11762429792507924,-0.0743441887677898,-0.1330226862774508,0.0793793130008043,-0.1413037093380598,0.127771990540461,-0.22960737490323455,0.10703720728857563,-0.11724500590798022,-0.1573174889691632,-0.031120840415600256,-0.10756817145058624,-0.061457611011202076,-0.16054616705388688,-0.06513771589821855,0.0016655220123175875,-0.1250757242663878,-0.08766016120631846
-0.13976143944465766,-0.18905574187483618,-0.1832823788799599,0.09486904078748076,0.20385130121003428,0.050514928270187096,0.05878023005249565,-0.18820942137644264,-0.045776550194750125,0.0315717194443669,-0.10959492843260708,-0.041489550813422996,-0.21409285698991698,-0.04254295524950589,-0.04727741057434619,-0.045954497908809865,0.010823015227418385,0.029116368285122075,-0.013704571101546137,-0.19326073966590987,0.1509334211341684,0.17358855921352073,-0.1235675117211772,0.1372178158814275,0.1967176608029781,-0.022139960043182524,-0.048507534475003534,0.09773976251886334,-0.14251037698947966,0.08057880378363746,0.07385285140292797,0.055848052012952044,-0.15089926028204437,0.09462253109637464,0.09673800550538206,-0.18420668008201543,0.11543676831197282,0.07938588079960888,-0.20332741672098784,-0.1776935041042374,-0.13995494611415843,-0.16592395429534562,0.19576651223742847,0.0690504693596393,-0.09926658011207767,0.06314870148051871,-0.12348790123659341,-0.16419731236277466,-0.15717910581425998,-0.0625035830102163,0.09692351619954764,-0.15469643641632203,0.046458492022292096,-0.138278641286154,0.04899503245499709,-0.11934076508949573,-0.09852533924907458,-0.07869546624490073,-0.16381057348513725,0.013322877522632295,-0.227059549737347,-0.21428812948420198,0.035577962061578955,-0.1486675091615769,-0.16689880632072926
-0.11383450178022009,-0.15694537041139894,-0.1655317532527864,0.0884597854199836,0.009084049856788637,0.17242982595857748,0.1472008593789208,-0.18734165548216253,-0.1912277552144333,-0.1107443439290314,-0.04847047819891352,-0.07087090245647587,-0.04481815437239028,-0.19528327041377927,-0.11478929536681975,-0.11913244189715161,-0.0456063631164716,0.079074130118065,0.004089627300789272,-0.040695948291064175,0.08860709574858296,0.151787791689976,-0.051119436805159096,0.09472871974956394,0.054862849984315676,-0.09218764222203085,-0.08512130734432138,0.09150718089327499,-0.10254852518162666,0.052710139905351824,0.09179307280252573,0.10604295989427609,-0.12439337105275719,-0.042466430709281563,0.11079563874243412,-0.10942689481308143,-0.04329009951171133,0.15815011475501647,-0.14862945825298726,-0.06177208972900516,-0.07028421919489813,-0.15488986361355297,0.1768533173556827,-0.06815014922617894,-0.07044011743211927,0.17663660524921448,-0.056035516510229456,-0.17487454567960986,-0.1735976660455995,-0.029610064693745577,0.11265999737963893,-0.15940194867526672,0.16344641878532432,-0.10813743779699896,0.1616352514063147,-0.17647451260354147,-0.1959995584908317,-0.05472692674990293,-0.11060685676406978,-0.06526240077189795,-0.10994942045674468,-0.08826266737826532,-0.04352081394672012,0.0037863189309000718,-0.06278102523324669
-0.11544039198300647,-0.14832087602961322,-0.13962931476521384,-0.01738783580167677,0.014170980204065188,0.26138268461684416,0.1771066529775114,-0.18376083970058227,-0.18466008534534153,-0.21206221605056372,-0.02903520721393565,-0.17388560696448907,-0.024876326960605176,-0.32622071448177287,-0.07927386450742169,-0.04182776950885953,0.0935667333974687,0.1626291585789691,0.22369125816066143,-0.0517154395350439,0.01178407668710852,0.0742460950435209,-0.23318972882883401,-0.0985603312396132,0.14235594478178734,-0.023267031269402317,-0.04352812248797938,0.18771769910712918,-0.15481750631745048,0.09578859217599807,0.2667517725413102,0.14548873938000872,-0.15329872118899598,-0.01539937862061722,0.04455164809323957,-0.0598049804624915,-0.03252483079944258,0.1298950215379647,-0.1443333785161253,-0.15825233534675726,-0.030313749887422747,-0.0929895126612179,0.13556307617517377,-0.19632283059906294,-0.11918198009457118,0.16959731984788887,-0.19432927291927454,-0.06695626146002921,-0.013622642932702609,-0.0390866771362665,0.02645457984610358,-0.0727737776196378,0.2038348065828296,-0.10777708591625199,0.08854041975802424,-0.12715769253225254,-0.011367889592550908,-0.2580009425543806,-0.09490052515576235,-0.22531699603441616,-0.09668712890733022,-0.27177957418346615,0.03159166830622266,-0.02189379713292033,-0.15704726548359155
-0.12913055970828255,-0.1034893115687782,-0.14353645074147198,-0.009116012406151395,0.13658547810764263,0.3279210427922668,0.2231027640106527,-0.17209738653571977,-0.04465917672115799,-0.3359202933664366,-0.003047107920750782,-0.19189527905033135,-0.02365734096952286,-0.3874647861574815,0.06679342480432755,-0.09345640121172391,0.18869612952390813,0.028142152090964833,0.283527127256374,-0.185434941443093,0.2102154192356446,0.1490618316705463,-0.22387460839474302,-0.08890374707521853,0.12756492763609875,0.10187904712675153,-0.09196219389107842,0.08047085943318555,-0.180761011415192,0.11369056179795432,0.39240743356540925,0.14894186393750156,-0.14974628213420058,-0.1991725073820214,0.16650112095880226,0.05939530882332884,-0.17657312807483863,0.050653030312990205,-0.07232677067669417,-0.12590059534272768,-0.08409681551379562,-0.09989707327927164,0.16386930377075937,-0.3689225424000298,-0.08422960955808267,0.08167983493908532,-0.05015632685912284,-0.07737047478702205,-0.07482434771526109,-0.013995773774737317,0.179455381988168,-0.13436033241051343,0.1552950016245827,-0.01966379816645827,0.04618544300303479,-0.17183401637377282,-0.18339538720117207,-0.29282255629292203,-0.06901971487161442,-0.26340295015204146,-0.026214763238980726,-0.2957257632449126,-0.01687426858410511,0.10956300043784022,-0.18548971169293518
-0.12668105841970023,-0.16492639859838934,-0.07756217244004353,0.1449933090437147,0.19997265629811997,0.3933068254498874,0.13130303106628283,-0.10819715306751974,-0.053941456092585174,-0.44406389284659753,-0.03779118057471506,-0.04962848760256699,-0.2137589622674087,-0.5591663732980748,0.17527609527646668,-0.04616267179031361,0.2301456704662313,0.1967120101636942,0.32385916665721004,-0.18326662519317016,0.014687255170610498,0.04694516584360443,-0.22205661978198288,-0.11728877654509945,0.15188003469342387,0.18026696827780458,-0.11834433759535157,0.09912640390290679,-0.11757119057469116,0.11472165385170455,0.41305026635871295,0.07109844712493657,-0.12543014671127836,-0.28954640920258673,0.028565610410432245,0.1758946517856605,-0.2513217626840976,0.033065446361204,-0.060022492832643805,-0.07774178144483317,-0.10265084908054382,-0.19338292968674936,0.19292103479043485,-0.5091518505020811,-0.07477535749778493,0.1989447517082669,-0.0709122419675449,-0.1228126671475129,-0.14740021557498717,0.11089072278607572,0.10710236539397028,-0.04584092912348959,0.19938305478900342,-0.17334547066724768,0.11587538524066548,-0.048598880918133316,-0.21717062612039859,-0.26817702137374155,-0.16675836963342747,-0.252142649284448,-0.08308777244210483,-0.036071191260230964,-0.11273217791591757,0.22710514505761167,-0.14966102488916252
-0.14244452361578105,-0.22683274320387906,-0.18696202764835645,0.25734581632370157,0.02304371447789181,0.40513260777836546,-0.034803730062094744,-0.05052353625376957,-0.058709951254344805,-0.5276834874781917,0.06059735620545554,-0.0755712777742935,-0.08607595708843978,-0.5690973119748839,0.31339345524744106,-0.11011606111364096,0.16656906224095094,0.1999778685102615,0.3037452235187467,-0.12467255338077914,0.08550149038655362,0.12440924279404875,-0.30707403394464633,-0.06663176258534378,0.0506756977647712,0.32451372183013955,-0.17986720771384435,0.06733960952104287,-0.21955499707390794,0.048967612939145054,0.3632834376013368,0.22548500900874624,-0.19446486388314546,-0.2800424138455332,0.12773259052034258,0.13714819300153014,-0.22381593436441452,0.12916458792114688,-0.1977908760587424,-0.03408224391652835,0.049351879497006396,-0.22512919206064438,0.021405564366425094,-0.5855462207544753,-0.033237777828392226,0.17337202553178507,-0.13486167835188603,-0.11964194440927135,-0.07501595409358383,0.026439344571812302,0.14028753372098318,-0.16210960241076822,0.21624280321125386,-0.1527351007444265,0.12222718355732473,-0.027505443014755413,-0.14390409071551208,-0.08674842980687952,-0.041199752961117844,-0.23339437266426002,-0.07200695592200729,0.1674805875510583,-0.22893962091865067,0.09618430255845256,-0.14183333183762417
-0.1339290301342333,-0.0797380431657465,-0.09766859132558446,0.40279476672607756,0.10180499558012587,0.38030188935109793,-0.19552455421618625,-0.05334466826936721,-0.10577480934633068,-0.45343626047554064,0.08066471625023175,-0.12769223315093262,-0.19611963393862714,-0.5584631370639133,0.36225267949101997,-0.08046348342822209,0.06910526303679387,0.0967841792993529,0.18776714780262926,-0.20433956401445932,0.13111686980629886,0.07978294696774986,-0.3956756136997416,-0.20953007261076198,0.1502884060614993,0.3719756253118852,-0.071989479026264,0.08243051375409581,-0.1451087795464725,0.15108513174757676,0.21467693374770444,0.114965393200839,-0.16712264354489023,-0.3391889009699422,0.09636488444797411,-0.08906490516815656,-0.2088119920155378,0.1630772410741379,-0.20780156440520361,-0.08085820966775474,0.18127165391484232,-0.21994078272345147,0.02098795474267566,-0.3737750388130376,0.004189219384066314,0.1551865138808392,-0.061251254749626075,-0.05316628297074342,-0.1299256328146041,-0.05445638116926366,0.21266160648432966,-0.04158155421336257,0.14302471206377182,-0.0832236265340272,0.1549416896363173,-0.09083271636062495,-0.1558457772959441,0.039817768033681776,-0.033697004167214904,-0.24208061562981395,-0.13924750098749322,0.21335332494431528,-0.2771743903945143,-0.016463545870115264,-0.08744410087033946
-0.1330384582895559,-0.19986427866504264,-0.06184579264655637,0.24862619327139834,0.07403685984631526,0.37605581170842894,-0.34819613120743403,-0.21405330114833607,-0.15053132294873636,-0.4662870349260969,-0.05850175673358966,-0.05852170705476401,-0.14441478905869226,-0.5786873757496326,0.48061802202839427,-0.16274805234471534,0.08070923491555874,0.20620409677667306,0.10020893253028762,-0.04923098284399614,0.16316256411610813,0.14335227911524867,-0.46319727780228637,-0.17932476116539403,0.16975895766377333,0.3598393995171154,-0.183467821458862,0.10233093833187401,-0.18815457501557517,0.07824273097409146,0.12701942646143516,0.02434752363974545,-0.17985268640829385,-0.3188920011622618,0.06708605692063063,-0.3115538045534305,-0.1750224688256787,0.11206956683114223,-0.060426781682541376,-0.06354192398482779,0.29413886412022405,-0.07864228670802638,0.16818072650795135,-0.2129776166107583,-0.010020501587082746,0.20580034742410463,-0.1768586799896661,-0.043730914434779326,-0.16449264625123214,-0.15722122033306538,0.04834286033333635,-0.15241741755364038,0.17960750764587075,-0.08142590038579298,0.14493400150129837,-0.15680466875911697,-0.09205332770930805,0.24005094589430076,-0.07151926667181767,-0.18202525347059517,-0.21375504640270754,0.0290248161247789,-0.3200334805207737,-0.06062364278176108,-0.14557301478423929
