0.12137447918907807,0.017331593757238556,-0.031707531955972146,0.09767883065966822,0.015830552615531263,0.03782624587288747,-0.05796314402377578,0.017220326928100833,0.051016491656843625,-0.08499225345206456,-0.08584465588619192,0.049266131400412964,-0.0694819323182136,0.06685535206667455,-0.011369954722194368,0.014157021440311598,0.020809338625448787,-0.03621818974818047,-0.045629186687886035,0.010972158413107192,0.05644135411510063,0.10327305690895074,0.09810998095323825,-0.04325777366408051,-0.041827869871479614,-0.08123111236443341,0.07354780867256616,-0.02244943182007387,0.08405409704692132,0.10984775517930602,0.035288809174724954,-0.02951824744545278,-0.043882414203571425,0.09591096468840157,0.01903766850384607,-0.003415064800107301,0.1085581134952221,0.0801809824451839,0.06457218014083989,0.06389393835650783,0.014818835177034632,0.09428876912852237,0.00981678580844777,0.012535010826372574,0.014559635263707498,0.01567393410030406,-0.06824224874809878,0.06727653932712306,-0.07980599964697549,0.04709946625373632,-0.0030428635268509936,0.040256890400070675,-0.05015929928205073,0.021364093253885313,0.07379257247545677,0.07024177353587012,-0.035050363119123,0.10620816622843272,0.06153315339554663,-0.0049427808297981815,0.10459633753009397,-0.08760027833406203,-0.07831183799745589,0.07808515946252184,0.10836342875012163,-0.04956649253769576,0.021603194633488147,-0.06698777872653228,-0.036752746256092546,-0.05373583495390518,0.036695626401350906,-0.037237836353561246,0.06303139063694971,-0.04591650939533937,0.09064783946045205,0.09029046649630175,-0.05280312203170445,0.10160566095949869,0.029769949732228414,0.08147135206026952,-0.06247302432439831,-0.031121890046288528,-0.012788063244031426,-0.014649458858455165,-0.034805772511553756,0.01779838697077911,0.10934804266751509,-0.07169429096628994,-0.09121879131284308,-0.06100442008900525,-0.011159782303203155,-0.027208810081213824,-0.0865412744652094,0.10498445472073228,0.08442757765019918,0.06505791081930191,-0.04842308373966993,0.04732161299543413,0.014964352640065511,0.012795909417105853,0.09174078873797281,0.1106446001345836,0.018259707741957596,0.0026406176191822745,-0.0023713561603638535,0.04842721350532621,0.09344989039867924,0.07109205425226472,0.07159093600176977,0.0882046523611972,0.09531726707809329,0.09881190945193496,0.09602048937905229,0.005506905546808565,0.03156824782082338,0.09734767072831958,0.06858997995453207,0.045428944166158794,-0.041298363741735795,0.06491327499755951,-0.07787611788173848,0.07624015177704092,0.033646092167432286,0.08331889177409761,0.08801639968731698,0.026833070744602207,-0.014114685263485114,0.025753127439213618,-0.04521754928134218,-0.0628282430312773,-0.02303772529901105,0.055654318832453566,-0.061189630727412465,-0.022424928210659556,0.08562702228936404,0.04276037654773189,0.10071403433976064,-0.02439707776015292,0.009945140860408408,0.062306983683059154,-0.030982977418372772,-0.02356891218197612,0.01996133427146487,0.004622907564136099,-0.01705720950196063,-0.059157977788624715,0.020598099339703566,0.0329935609427647,-0.01461285764475417,-0.06687643654349175,0.022359256863316353,-0.022770958457333863,0.03536186970353569,-0.0220908022458055,0.12382185534750534,0.04781898618595901,-0.07090702819191377,0.13412396894703166,0.061176160673376875,-0.030228027503093467,0.06963326713611431,0.10056536443349472,-0.0016029852122461995,0.08277431942699795,0.10232183371827383,-0.017482420514990563,0.03776953390933077,-0.009977092941967962,-0.03433509898197751,-0.0015008793567515305,-0.053198184330493115,0.07853084314563506,-0.022885051852963304,0.09367400472810765,-0.07128282661537771,-0.062451175873317805,-0.001247934704801956,-0.08034460347440987,0.04826987312500895,-0.05903121725577661,-0.03811251828511592,0.014244766833243614,0.122022257042003,0.010007651375764745,-0.018731719621467097,-0.024707712858455987,0.01796782183519589,0.038843844987075354,0.06020686550147841,-0.03295411198232553,0.04933373229090891,0.02907361915970971,0.0737871197263937,-0.009039472285387318,0.055240630146133715,-0.05755599904994065,0.050621851161728376,-0.08338746904270318,-0.018829243361769825,-0.03908203695402816,-0.005232309500223987,0.0295415132537933,-0.07034195668488497,-0.021732966124902622,-0.09024945376594642,-0.05698235397307049,0.008286022743237958,-0.008111990395472009,0.05012998764935046,0.1402052787449298,-0.04674286050672707,-0.053414106247513624,0.09760514009278382,0.06564932716135155,0.10808578708420885,-0.02130126359114622,0.05519783328683274,0.10039752570894453,0.09724379465951424,-0.0506357171610401,0.004380668418574027,-0.06236779361670234,0.06387253895204492,-0.0813822605643851,-0.03467099565966321,0.020855906252626125,0.10485637492959583,0.10478906815196201,0.09240881579000394,-0.03784881476844014,-0.018617438281587455,-0.05230495701446885,-0.022339320504325116,-0.060563092657813226,0.10554015242829722,0.05759847304713605,-0.02149190606553843,0.1433857365355668,0.019450505971704543,-0.04525883457595067,0.04770306203623428,0.04106655414208441,0.1669675389377246,-0.021507464935524304,0.058217929464522984,0.06659419057456031,0.1196803940247366,0.08224072974780235,0.08180874327551986,-0.033939398949220365,-0.05993179432771081,0.011966352061717346,0.02183308161422276,-0.08733928538060971,-0.01289309225934694,0.07609412035974797,0.03104852400588917,-0.08631851167088063,0.02408195883980961,-0.03677088633492796,0.01487467580273235,0.06396943226888534,0.12300903510700871,0.03388598083168085,0.06734088416422114,0.14489923495289264,0.06534107707050488,0.013644692809979604,0.04207877483994054,-0.039195880409677905,0.0917466590908037,0.004693708434022427,0.04152330523365899,0.10578158177479972,0.05071119827389946,0.10363681780542279,0.055232348172315135,0.013067888393656404,-0.03872978949846452,0.07787031867669186,-0.0032405006163378405,0.11010076851843872,0.05195784844057867,-0.059142229471702154,-0.06595443947823636,-0.06240949422589961,0.04442264293075826,0.10452042453869825,-0.028234595810404668,0.05929646894394088,0.08395400875629878,-0.04536579734164603,0.11877433692436187,0.03518548287181992,0.09531006695732197,0.04385414833858361,-0.07189247024445324,-0.05182270524372796,-0.023469288214764163,0.13670592660325978,0.09523798350253411,-0.008726553849447207,0.03888923670129124,-0.014880846385217463,0.009443607963044963,-0.07771951787671504,-0.035920699761825534,-0.038914764280580216,0.0685596183799737,0.07540107478139164,0.007546368506484878,0.0311792146119886,-0.022242070652696934,0.10662690069454459,-0.032775735758324015,0.07510622967666511,0.05660376292202217,-0.04920243521974176,0.08654597274990677,-0.021283572313700726,0.0891847265656639,0.11217521541566447,-0.053006676287474255,-0.05130529767862692,-0.0519710594054947,0.09345495170375538,-0.02532140853586874,0.013954488043999323,0.0396749745763653,0.027333165236179,-0.038099313929249055,0.08332163136099956,0.10884824146993399,-0.04568252920076509,0.0018262239352429535,0.028751536994540607,-0.05507454734944644,0.012521324800281387,0.05578292629140868,-0.07380559650478632,0.10678475321229611,-0.012061735536502827,0.08615035716190153,-0.0016698563789024358,0.009651229792860531,-0.02813762228621909,-0.023224248474290846,0.07315547466311924,-0.029943320012614995,0.054095042365649666,0.10874865779340495,-0.020790198124014277,0.09652411472667208,0.13098497813745874,0.06492708376485393,0.10002402076546424,0.11178799743133755,0.0595643696073179,0.11294790977733354,-0.03175890389389481,0.06172983135935112,0.01746391905807679,0.09728872815324242,0.04353140509609096,0.049949829349938454,-0.08112393492796928,-0.02917049057791619,0.048715524805462,0.0011997960520890953,-0.07104808941425445,0.06034889881270945,-0.040157114145527854,0.1068145322391225,0.079995787900794,-0.0009169431865401046,0.07348653034481997,0.03342620004723818,-0.047920122676279056,-0.051625689529340435,-0.05081081870125899,0.09722223455279114,0.06796437041126005,0.1335586832268608,0.03206678861016859,0.07679365144905623,-0.030945880814498557,-0.021298965990691088,-0.061677493986536186,-0.017844955423961494,0.08012987753387969,0.08078681709976003,-0.012605681938455007,-0.06921992242472295,-0.08060999835530308,-0.033065682741474985,-0.06832834257491271,0.07470489154487525,-0.07707678941479784,0.0774497551663712,0.07643411975136688,0.02840056149681208,-0.006472672337132905,0.09348897139771015,0.07666270586668143,0.12597112765545135,0.020726651134486008,0.10652214522529851,0.049516757671930145,0.009301166647973556,-0.010314958266638521,0.038795387205255195,-0.010170776177975653,-0.045289314107037355,0.027851165711846423,-0.03954600650524785,0.019065082040251223,-0.025052084562814443,-0.006957850867348845,0.007491464156630148,-0.046149701801210745,-0.052161535946775014,-0.07903916010054843,-0.037579139131469055,-0.03836253210369829,0.07377784324224128,-0.0006007700134185224,0.07573285774650838,0.09070952962504851,-0.04856600739720451,0.09335956613807732,0.12759222039781568,0.025883088372751002,-0.03918636619363722,0.14239979793755472,-0.031763876015482057,0.025240613877090808,-0.05876039329784521,-0.017002246003634737,-0.02524828450078853,0.05363655712969595,-0.059023076411516315,0.0011393021041944155,-0.032936466149744464,0.03246762720728811,0.09261138908508831,0.09717524593923181,-0.05782233597425384,-0.011509072612760591,-0.01870055469388935,0.01745261000952364,-0.024075204853770515,0.0984769700932469,0.00578519727641138,-0.05409431492152553,-0.05205487761294338,0.09326510134405877,-0.0729183690099753,-0.010317332988374825,0.07387801455798164,-0.003173377489492947,0.0040735107857065855,-0.023446809683601775,0.08846220596950793,-0.0037183209713114404,-0.031249656532684238,0.08482949743549141,0.06884604284595017,-0.010085968826116952,0.08738728164853847,0.06765837498374462,0.009697704111867971,-0.031040075694361763,-0.024142145516782152,-0.032121199698265365,-0.030523195162808915,0.06329904300301682,-0.008636503999923476,0.04701518568491348,-0.010081178519407494,-0.01788308439165128,0.011035410634493497,0.07594352244981302,-0.001265316913905022,0.04534881382782894,0.036162561588427795,0.07258200375805444,-0.013524981315382233,-0.000653116911693211,-0.006868539143962045,0.06371751268225036,0.128917509041638,0.04259762538152679,0.027004226555009954,0.13355800163932477,-0.035354733893173916,0.12454191344851241,0.1067509069154176,-0.013347555514951053,0.06166304811206664,-0.03884007626278488,-0.008990591019865662,0.022821228224876613,-0.07175070906437875,0.0008657085512414234,-0.06335688922941922,0.061446994250751244,-0.04084107635799293,0.08853575094215531,0.10838580974772996,0.0441955967645961,-0.08209810077993836,-0.01717793268682537,0.08599528750276543,0.02454353280800957,0.0036547716702853244,-0.035331006199122474,0.12359504994829507,0.0085645394369186,0.037158662138491526,0.11479707785746793,-0.03192941205373281,0.0057410271079024675,0.15634019666392912,0.07907286363101278,-0.015073607601933681,-0.019920032170287587,-0.022690955290586796,0.03282130767494292,-0.013724893804872098,0.03282031724549891,-0.006538448690731018,-0.04262846614171415,0.059348496636704044,-0.022842965663183896,-0.08560507274006103,-0.0067287098908454974,-0.07868700921404087,0.11082154999068275,0.05087906667996348,-0.03397355671072551,-0.038878672980112966,-0.06787931554058861,0.0025574147151658333,0.0730032419170524,0.07771254110380393,0.021932081867218668,0.09237418129764599,-0.006992292630483706,0.03209729143993422,0.0643391832406647,0.02463100521526866,0.08216544551502704,0.12530176964161252,0.0527617139666192,-0.06754034980279189,0.0469196843252306,-0.024753853390491052,-0.02491307327443434,0.01535363340982538,-0.0337429508174502,0.09946124398349244,0.06589940919429231,0.0342294052745632,-0.07979310172322052,0.027767552596248073,-0.028097363731876802,0.02752885160824138,-0.07913643413076177,-0.002973172001556278,-0.021269143509210713,0.10392336777058263,0.014285767331685979,0.0627651705808546,0.0718407305677843,-0.028579554898581147,0.011526165292409535,0.007854728537825154,0.0031956021220632363,-0.047703585633908266,0.030601664174610303,0.06585549643471124,0.02484181519751638,-0.08156245360997984,0.022827908183825435,-0.06222509845289063,-0.008957197238706206,0.058023665704202,0.08204947869883703,-0.0714581826582605,-0.07885365149853722,0.06563018164704512,-0.036038475260495674,-0.07122613608504515,0.022193739796879115,0.10926244720217346,0.09623500204968471,-0.033345412524184576,0.04800282802323047,0.05805563772163572,0.049616287071755916,0.14991584338992894,0.06573409567388647,0.10961772597436047,0.06535165524870111,0.08086447058222193,-0.03131831734527793,0.12635060487232605,-0.05879440737556906,-0.02084706433416099,0.04377389754238419,0.03170787051067672,0.053552188268725306,0.018318458040239283,-0.019892908784284492,-0.01375658950079535,-0.05613401620122117,0.04588811978595205,0.06092074172981323,-0.05727367247921185,-0.05119193367352506,0.05603600689677784,-0.009955069962530826,-0.08267412199023412,-0.048359587155082914,-0.009878689345077131,0.06986955560999067,0.02164977195749882,-0.0010136878384009885,0.11335239165358245,-0.006154600931133303,0.09098389763444299,-0.0505573672990816,-0.023469204537351657,0.12461719018189968,-0.05875240406609535,0.1138376190623234,0.026138341456899607,-0.04603814005911941,0.06331244743283382,-0.078007831536396,0.08239301306902648,0.07795919966132245,-0.03780862157913974,0.04926936774467174,-0.05977028903534031,0.04650894206635649,-0.01851324441716009,-0.03471504317128762,0.05533923237280519,0.06310951186915977,0.003934761484228336,0.07719073776592307,-0.04559888461247951,0.056821803726935856,0.053327381849596164,0.0760506556019905,0.059559642821899926,0.10779670315772741,-0.007740743482740612,-0.03957393175849333,0.06581397389254123,0.09318967210001453,0.044482753148678215,0.09428325606360921,0.07401617195127726,-0.026455353298142872,0.009637694286388256,0.0504863347018702,0.016341009700656765,0.084413200767227,-0.06557230061576294,0.04800631461299827,0.07292937840528603,-0.0002845887050993498,-0.06757971498239831,0.06642467744129614,0.06617069147126961,0.02006325919908409,0.08982540533173919,-0.03140346134828568,-0.061307640676850295,-0.007644610730438072,0.0534155066581896,-0.07157102583887885,-0.03621525113542902,0.026711188060790796,-0.0014166850888014005,-0.04007228992629608,0.05915580050798781,0.0930695312952165,0.0005048955324433454,0.1077118673787632,-0.0011324562063316857,-0.020047131416478153,-0.045790898646056004,-0.02082297617929791,0.09583757456944189,-0.08922633551498395,0.04903958447288177,-0.05591222588343418,0.0421863198701257,0.09799870885727079,0.053860313549247855,-0.06891155891482298,-0.08013676487198246,-0.05119431525447278,-0.0816495602496416,0.08601576809175711,0.11037729290584765,0.08783515848693677,-0.07821002189749367,-0.0027265453992571763,0.1198866939334092,0.07525379138373568,0.006317174352853082,0.0006002208323396026,-0.08326116567918658,0.057405653137266234,0.008340729180855181,-0.055995078062537555,-0.018927476776431147,0.07938146575642023,0.08990754508609543,0.02482985404569056,0.03441651829049635,-0.0019484137217054556,-0.08290575421552875,0.05533877435617944,0.008828175948806591,0.08262673754980274,0.10043804894406445,-0.002145799882798542,-0.036293939506605255,0.01574205531082358,0.019862704873193148,-0.07972760647619435,-0.017786706818695246,-0.028374074922559937,0.06614027256717753,-0.005327636068024215,-0.042013995176082744,0.0753853401755359,0.040907793562549116,0.09650738369127485,0.021974432617031685,0.07466398986018574,0.06636288714193514,0.03779998453227306,0.04306714445335737,0.016433892110426524,0.023844841064787233,-0.08649271259336114,0.07295731642559129,-0.014045238415616208,-0.08906321649951518,-0.06362758325790228,-0.009515742205481641,0.035004398387655705,-0.018710590861015033,0.020774638096279052,0.0442790394938142,0.024931890299069,-0.07591158747815531,-0.03987456848723078,0.01900509233975915,0.08063366857316605,-0.08115400109711392,0.104971167460487,0.1019149785540956,-0.07688760472862773,0.04605464699079692,0.025984500186561805,0.07122448767427354,0.018930384513942862,0.022544737069822816,-0.06647243693237646,-0.008740470545231712,0.05102331094155462,0.058987275159633784,0.06899485588597187,0.021974275097767643,0.08074988539690445,-0.06798683356353509,0.07325234894875321,0.03251473843596531
0.14636228028846543,0.034951550727384116,0.019501594642593243,0.08005350462112004,0.03623132886997788,-0.0077778816078934426,0.05355135775736849,-0.044195465206983864,0.08413027623590866,0.0472958180815231,0.07198790431739809,0.015146875054926512,-0.050335705433216485,-0.07850535467111834,-0.08308701580742206,0.10571714838345857,-0.0856194437582204,-0.0469547735471338,-0.040989657575484596,0.07447291434197034,-0.021153756102487913,0.04068810817501497,-0.07303115865878065,0.05067761605055976,0.10821635188592668,-0.06615257610510648,-0.07899967300623216,-0.08487478427036443,-0.03314012061270482,0.010157272420683,0.03343940876967295,0.09152701030066199,0.10283606285701075,0.00323576408327345,-0.02052947704490465,-0.007523909192999395,-0.01258402271031328,-0.05597717761888385,-0.029148428119567946,-0.07193652133187839,0.02540379877888165,-0.028454129319817046,0.08138035747230521,0.04640023690920157,-0.06128460247273446,0.0228255758337629,0.09553538919823154,0.007932469461807874,-0.02455854874929113,-0.08626559300978084,0.05336435429869472,-0.06729025374916799,-0.0064799187578360295,-0.054823804466551364,0.08342828235709374,-0.046212402641089396,-0.0701546522537034,0.05698795918155599,0.06410654296404693,0.09670448104815411,0.030378442104297854,-0.007463222150935388,0.032626942235608254,0.07794697530042784,0.014013902763241371,0.03148895172492604,-0.009856845746896188,-0.002755379840599917,0.07265981943658567,0.0632510802561171,0.10570384031444917,0.07981866483177594,0.03530617199950796,0.09969045786489669,0.032978660744808666,-0.0662319563324546,-0.04176022541330628,-0.042544672328590445,0.01657918692457426,0.032678544743591,0.03677759783533817,0.08979138527587867,-0.00728046487408901,0.10913604957867816,-0.06686634976549556,0.021713001758821255,0.06890916415927915,0.027555356324868326,0.05310415440026655,0.007766171083490055,-0.02480091805506126,0.02194592315304961,-0.02157081910210178,0.09769712135462807,0.06513293265109636,0.01417041428463141,-0.0835166938213245,-0.00036922055759700586,0.09049920683742187,0.021968172576248734,0.04836058264573112,0.10234783735954528,0.029519819349250916,-0.025562806252146575,-0.07075215782493094,0.04048084687411595,0.035050517709168484,0.017526841791230326,-0.010588765110099785,0.06022732815313895,0.0879911449253153,0.047038206318015176,0.022867595239298256,0.08187182209585918,-0.04818113647927952,-0.027634417369359995,0.0780986380440268,-0.0606833642967734,0.00892892574207169,-0.01664649497597456,0.027632557622044404,0.014159598453666109,-0.05137538575467034,0.03310440892027406,-0.028714010736161703,-0.03976227645211669,0.03445895552940411,0.10908342865778793,0.07289744930443076,0.02878931723449917,-0.013851170973672805,0.0967913538978203,-0.06865640028457996,-0.0032095420134260833,0.10834814820118123,-0.034142615524123135,-0.07147425226665204,0.0036477023074024425,0.08580587818589915,0.09396273407837602,0.015893678418904673,0.014344849477231667,-0.03559155503695399,-0.08039510544482285,0.014425766052502719,-0.025291740478236388,0.004805110367551275,0.07000886586437681,-0.03723746598652646,0.025950256744804886,-0.06506423591108598,0.04324307334748675,0.011143901299738043,0.09360078515458747,0.013822514933832564,0.024849096226928876,0.06561314742196094,-0.03195509938473717,0.011538130386879668,0.024598321389494915,0.11266815447279926,0.06052156496442947,0.007157929200819249,0.06067397531581919,-0.037520805657515977,-0.0548311434239876,-0.06959398551815098,0.005492032663820543,0.07273943103639703,0.0032359495353807854,0.10890237423247168,-0.018870322844605207,0.07744270809135581,-0.0401535353446165,-0.01440883965719102,-0.05609356476002722,0.07169475414570375,0.0750553704596235,-0.05222762586776756,-0.03983728241446923,0.013572366339158108,-0.061526734710471896,0.08211688067260921,0.030290268215857438,0.13813706060100173,0.024216237220128518,-0.00912829015332043,0.08183323718721035,-0.05547037800150583,0.022661868342445043,0.0013808652332918156,0.08145026913987208,0.1075529835006935,0.1082625671941506,0.05955348430953344,0.07496060274195378,-0.03972673854817435,0.10717975050033861,-0.061223438545118206,0.03999446378484257,0.07483460036651593,0.009016351720058383,0.11130633275507333,-0.05282345610511007,0.029888416677652373,0.07277503122119887,-0.039862912737532105,0.03727335770084766,0.12239326087157645,0.021447941367737994,-0.021050841962493863,0.12867126403504986,0.007887810935351236,0.1322144236523743,-0.009254916673087109,0.019219565299468954,-0.008681124839778205,-0.04300907890644361,0.04952402808899261,-0.07473892885529423,0.11649156974461365,-0.08035568072413349,-0.041180544640712705,0.013954229300616933,-0.03932280760518018,-0.03724762445020855,0.0023204760059619255,-0.007192746681596525,-0.010080492476836391,0.10099018158165465,0.08642794130140712,0.0017190603636933674,0.054120142425358606,-0.05777955132082532,0.12184426631136304,0.024040335899493014,0.0798255614880352,-0.032609714491765536,0.1546462300228454,0.02550885549052571,0.12376235957559065,-0.009172821098535254,0.06182152184552213,0.010967198708875265,-0.035708372036570075,0.04081417006369665,-0.057711192021391175,-0.01987659558991716,0.08723841279457632,0.015052631977872034,-0.06616403974115193,-0.04978128755427255,-0.07698327532902934,0.0613419694910429,0.08832215984535213,0.035506989629396295,0.07611044442618117,-0.009231274786450286,0.05450417142308711,-0.06970267568122392,-0.07630193600346541,0.03163491262499789,0.023515117317665334,-0.0412477912016921,0.06919596508676455,-0.01549129226698343,0.04992229432548863,-0.020647100545296827,0.09902187400695123,-0.023570904621709597,-0.017827524031501937,0.14093767166773635,0.1077284746111262,0.12892374914967003,0.049201019605381556,0.10358118942345497,0.06128035099584206,0.027644137245236105,0.050870492985238894,0.008516500022481477,0.020939699469258423,0.07053408270499552,0.038057319199611056,0.019120263562960454,0.06289969410340115,0.08673868662524292,-0.027686358804262803,0.07205501965262427,0.0545338648168966,0.051528351839002756,0.031197936361526877,-0.03836372987704654,0.07121561130491334,0.14248624555619233,0.044183052117840495,0.12933444411614103,-0.04045294029913483,0.09187363647954037,0.11964211524227708,0.02002346248761096,0.018987785932198444,0.03605785363427722,-0.007739741267388611,-0.014787997343774905,0.06864285745700278,-0.08156643483796241,0.0007244599784208954,0.043308780362526764,0.08795407081471869,-0.05213413101396347,-0.043412379093808705,0.09361595446822618,-0.057111064738463585,0.04527264845751402,0.009555351385188567,0.005039974027930423,0.09425717488629021,-0.027845084897828484,0.08306009422970392,0.13749333835058672,0.0674702984204109,-0.034934070307866355,0.04010861503473789,0.06458917138878383,-0.03149538286729252,0.07189875063531523,0.06501532482378515,0.06030259475118222,0.030855952377002293,0.035474477337216793,-0.049321504564098236,0.03564218844782522,0.04072538665104119,0.032388500452657384,-0.036915522540099555,-0.08656341898902659,-0.051390478410272895,0.0015544453469743395,0.094106000394562,0.08097514775911055,-0.021537838930840127,-0.0855737829217638,0.08107103817786668,-0.08233909594500233,-0.06449393348140148,-0.05870980193353625,-0.0019352023881131007,0.009890207648476923,-0.02732941398558172,-0.013720803786134368,0.021984140274406275,0.02339150116366215,0.10137690264012575,0.035030522986661296,-0.015435944073636293,0.11712264248660295,0.028620010605600134,-0.04389005681477534,0.03226228080581499,-0.05103432743167761,0.06133569582757284,-0.05970575303556681,-0.05507531400934898,0.024146225122587933,0.08946396563110527,-0.04267664516288679,0.09766169333886147,0.060943264172377776,-0.05153733611202259,0.10840479711891532,-0.0624926665353618,0.08360997452165361,0.027430248836865505,-0.01808646956395398,0.08534229474355037,0.06079468001793341,0.09777328852371309,0.04377582365034775,-0.04143902657471196,0.16314279795613232,0.04310976457048056,0.10905662944442354,-0.037820208425610215,-0.006328413112562914,0.049795758104775364,0.04245674389849874,-0.07295714810767479,0.05961934726929465,-0.03731434064537371,-0.0780625668198778,-0.05457782610057866,0.09772141586974674,-0.0022594489971125347,0.0040435742688951495,-0.025658568758691547,0.058794785269024416,-0.07079019815789278,-0.026638145608550826,0.0948915332664915,-0.033796210179139016,0.11026819045728578,0.02563047405957957,0.05997486691510041,0.010841785481077238,0.11019138692570567,0.024195278490358955,0.0839910151423619,0.02637153255574754,0.09892141583346903,0.020386705310696213,-0.023140947759064022,-0.024236320515435783,-0.0456880259903851,0.11052350212198117,-0.058587930274506796,0.05485733868794001,0.006983330476735835,-0.053893265309673664,-0.06465696783950384,0.07470764308664038,-0.015917779151001163,0.01299810200437411,-0.08270847023879327,-0.07930940788060842,-0.045676120969474536,0.0583368694533239,-0.01983306509966939,-0.01303413728574511,0.01709872726404844,0.020713162237701796,0.0063574069412452895,0.0857480587019792,-0.02700744203642928,0.08087017442853746,0.03948112239517568,0.14842888319158423,-0.006757693611828549,0.12765621049658055,0.038533911279019215,0.11947065940260972,0.07385726144584412,-0.060504736837795794,-0.03551515475621457,-0.02682954557401283,-0.08630438878465331,0.032614323182171834,-0.07940523280333545,0.02299275455977091,0.09016414019844453,-0.08201438365061403,0.06475935412415144,0.07753203261706533,-0.03942197818675911,-0.08570371911332383,0.08799698173301389,0.11779910802749986,-0.020363505123783265,0.08629036150396668,-0.03598133955648888,0.06431309730820052,0.031328639057658994,0.11918569970192361,-0.01963447986820502,0.15399052854274964,0.11978390517104022,0.128601531849372,0.1093482921918079,-0.028332151377637484,0.12151904575798911,-0.023513215830807975,-0.0015729615698089688,-0.024883809145284937,0.05974460789006179,-0.03843220745321046,0.018902269808934554,0.029301588716152797,0.087897234303766,0.04299461606592112,0.06233994061750445,0.03359857114290329,0.023013938397079096,0.04066795485999381,0.10160120879443658,-0.030506576962122237,0.08879829736415225,0.03200225151319722,-0.06173220728497988,0.12824903543442956,0.10503103343815773,-0.041066042311667175,0.07427386739698777,0.023707113820235135,0.10803673169767507,0.02900032247944498,0.1356158652502328,-0.013964400708403907,0.12039092312814788,0.02263657413274763,-0.035050428339472695,0.10050150296295746,-0.02580130674583652,-0.07212564381424906,0.011736894785592908,0.08087968755564717,0.056448342984331566,0.09188683391170793,-0.013796114030089323,0.03384884030779964,0.07938984228305944,0.03764569057778296,-0.04124901150172189,-0.0022566804430264042,0.0930525513497958,0.11958999338675558,0.09295009721785583,-0.06866694510699066,-0.044064487582256805,0.0035103653944057477,0.06508686400347591,0.07539057834107804,-0.014254099198319192,0.026056891197546225,0.06766354122161697,0.12836819318773937,-0.04426923770500499,-0.0679512847326914,0.0570299101620165,-0.07700957182515465,0.09065951932335158,-0.02042457792489005,0.07043206386288772,-0.021579531435399438,0.055821211948291136,0.004021619706369745,0.10488949653886073,0.02338510540059773,0.09996724645837267,0.05117187034599383,0.02355871324679215,0.10766591614324594,0.09246869078710199,0.07587935120859335,0.09072256163888744,0.04985616588354398,-0.034249268652363066,0.12630304723288527,0.14941415807531594,0.03193023585932633,0.05944311130438377,-0.02469985330176822,0.046208358211075724,0.1204361480913257,0.011737293608463603,0.08741478500132753,-0.03010351010680588,0.018040750589904633,-0.06858299034165924,0.06635326253344505,-0.03799728602179158,-0.06652632897674411,0.054029468063526924,0.09643605053639011,0.030754343299592,0.05557998926459277,-0.06749183057990323,0.008939896456093572,0.05314918483683276,0.027642716357154304,-0.020351867179811085,0.05884251386818048,-0.04303384841004779,0.09034295063318183,0.010015474194697713,0.06362151496233619,0.1290446753662917,0.15097358600609434,0.1280953948517596,0.08895495732321183,0.08026893021597442,0.06480301565380597,0.10064843457631588,-0.038592809763317915,0.023470060309927543,0.05336658394221091,-0.01603934011106385,0.004767634595035505,0.021506046931771813,-0.03596577997811473,-0.044079613271792606,0.03974234655381259,-0.01233297766715626,0.07824776888380411,-0.05385836227634915,0.02868295245791447,0.0635955156505968,-0.04197966428020757,0.006580005650238844,-0.003175728145406622,0.07740657655727075,0.10756928292136339,0.012455853563404558,-0.03991003163484382,-0.03996142341464243,0.11635982947622668,0.03158776120424685,0.042163438625442015,-0.00019416748607320133,-0.047138152157438114,-0.017218644702596562,-0.02320689698586565,-0.04934486619758503,-0.00919090383637875,0.01024236253232525,0.04655805992284387,-0.0011602447227047454,0.03190485304804643,-0.0801743177339768,-0.06346420776840696,-0.01355182955467256,0.10140502072393824,-0.039649927792925886,-0.0033440277965951603,0.03564502465834667,-0.06358224052351151,0.09191558865621756,0.020595621670218646,0.07021533294379442,-0.01953377500504393,0.15967544807905407,0.0643865493599445,0.04949845421735977,0.1101614730887385,0.013451142577627747,0.06674463676255889,-0.008425889288582051,0.04947570554064748,-0.02116142788700121,0.03242185139324425,-0.0803925603568378,0.09774988635923687,0.0248786204008785,-0.02739728750646619,0.022462185614187183,-0.05637982480103923,0.011352706759877079,-0.021863861831107726,0.05217596630659828,-0.0164952065811557,-0.025846241784243554,-0.07714329143801163,0.025250920039651854,-0.015108627693611322,0.11367311173732207,-0.013651981958558629,0.04324134376946652,0.0418980635060467,0.015218268838366342,0.14110472117915365,0.03728665342839594,0.11796643498799485,0.03532573837023969,0.03824439204902562,-0.006490715683403558,0.047628295803211124,-0.03554293360362392,0.025633282956614458,-0.0737717941919735,0.059500081848027506,0.0962776464510165,0.03340454723160231,0.05293731349296371,0.09770125592933625,0.006344781980733264,-0.08496410384963962,-0.012446377623476832,0.003217124470719733,0.009145018656652739,0.062433551531561535,0.05077429633153871,0.047254844868736066,0.08224830631806877,0.005661349045011167,0.005362428103534169,-0.0637868130483432,0.05601094460346713,-0.02003028280669537,-0.008956514514588456,0.058440559416373265,0.025178486720986052,0.07213996434885908,0.0893362862534586,0.10115716045702057,-0.0410257107343769,-0.023247807478021614,0.0786121250872796,0.015272844533545568,0.06362264526317606,0.02146886926419519,-0.04139328689980406,0.08231551363510219,0.05531787330347249,-0.021660645777863755,0.07024598172886994,0.08118594842974988,0.0589114803284793,-0.06055148629704811,0.09074955584994453,0.06740688201159252,0.10956985074210639,0.06981047034212007,-0.07741556885421817,-0.058600463864316936,0.0017948337107518257,0.08819138451600288,-0.07321908988186517,0.06116284949324728,-0.04609836996137108,0.05987542641884131,-0.029759187299462052,-0.0010673595935380867,-0.019817325931886388,0.0660820898528637,0.08719255630821802,-0.07817538658637706,0.025963652346306914,0.05336991507556429,0.09657645304608113,0.11402270375369769,-0.024606797365102465,-0.05118892414621485,0.03259828593990561,0.10529819421028354,0.04381108897605637,0.04062687504753347,0.007947962518718847,0.08921594578707438,0.07073287808036942,-0.020283051008141408,0.011401824869332432,-0.01304980995145857,-0.06532755671899795,0.1075137267519064,0.06438653380477342,-0.06781111022209974,0.047185321097947965,0.019931222944034713,0.08418096720620377,0.08076399131011414,-0.00800727261703441,-0.06367077818544507,-0.0241868412016504,0.03506847942259703,0.06405908274875169,-0.07612512528239644,-0.04115474621418322,-0.0320293875479352,-0.07953965243166611,-0.052905183757113255,0.021784460654254285,-0.07503880208337292,0.05223858732310627,-0.05393929116069388,0.06943085994320798,-0.07134362623513137,-0.013141607891314525,0.08442473083808305,0.10866303598883947,-0.08411173911864653,0.041392394634817434,0.05491863489553167,0.03744967545242546,-0.06538186821125208,0.014057380136770763,-0.019381838310548148,-0.05574505878306347,0.017851505688646924,0.04953392242108061,0.033976599628231144,0.04694792380103529,-0.04325707184974303,-0.04137684559474572,-0.07112535649991292,0.07658529945414956,0.06552653826476856,0.09615214313898576
-0.5491200045745346,-0.019200743904683144,0.010473248475056788,-0.03444684628119094,-0.054682066375293034,-0.003563372884759556,-0.002180622481439222,-0.01478422150219087,-0.04096707076281161,-0.010103413784036713,-0.07053348809865953,0.008015953235818114,0.008856991196489519,0.04865780934020303,0.0398460958245727,0.026485020379285282,-0.05436303672433835,0.0270189119006758,0.0277645537670286,0.0476277668032945,-0.01242931283355474,-0.012131745307056943,-0.06485870957400987,-0.004815954165702833,0.001924826743465937,-0.042101585348143684,0.08725341948048186,0.05690565414623359,-0.0020963182834473964,0.05314386050034525,-0.12232139123286327,0.0191740598585874,-0.03505050177535513,-0.08179614504222696,-0.03325551776332264,-0.02772041392935513,-0.07718457345092522,-0.013876507207132885,0.0975011693334542,0.010081765756331476,0.023739948540761256,-0.03076373215479933,-0.0009944042277072285,-0.0005564275420141695,0.0376718442887088,0.020724063483495675,0.020725634132925646,-0.03602904943678148,-0.0065724248229875075,0.058478524726265406,-0.016433604917836537,0.03558012112991686,-0.05276280821102303,0.03727706195856043,-0.07095842341413178,0.015546682970037078,-0.012230560980413294,-0.033121256658036655,-0.01792962115984315,-0.050225062014118575,-0.0443319298088966,-0.010982478866475598,-0.09094424947391697,-0.05254385431164452,0.014627090850644748,-0.005745909557248988,0.017645464355444316,0.07393404811752857,-0.01726668013315068,-0.003772050803006166,-0.014381944956618728,0.05998525664359732,0.10608967885687122,0.11251956152317223,0.1348176809038209,0.08928835750172616,-0.011214222633360044,-0.08513977907342572,-0.005598563420804995,0.03576442396520105,-0.037087904093510586,-0.03308941899964551,0.04330605746914362,-0.004062695508899768,0.027104937419895704,0.00275963236334268,0.07007898077069731,-0.05804325682682676,-0.060859639117065316,-0.023305682008492482,0.06789140892602086,-0.06381252310148923,0.09448344341746921,-0.044710364116982114,0.0180084663792826,0.013892815338614679,-0.03860414941091142,0.10116520211091504,0.0622526873279614,0.17097924854516452,0.2564651033248854,0.22813824891105805,0.13019672456377537,-0.003917278546131232,0.010455974135898896,0.005621759310768137,0.028917749667605363,0.021701060903965362,-0.004182421595403468,0.03871587578406389,-0.10316808258909149,-0.02271246598880224,-0.03773415179436313,0.023742874650237163,0.008066748680877105,-0.03664559947760377,0.015660529039610314,-0.033288592567739764,0.029814391792431692,0.0006100628794992002,0.07027713489741802,0.08994568434720998,0.05420186391082877,0.017851201469060458,0.07820228937660607,0.12844148238849623,0.20120461494267194,0.13055746081042316,0.15944976372034703,0.07103303429179449,-0.038865086068807106,-0.06688751141135672,-0.1650406018358737,-0.14178403518556984,-0.05326708321902191,-0.07806552066542687,-0.06286595574148683,-0.03884501979108727,0.01798502046543181,0.012950879569248957,-0.022724783582241923,0.033261559884661306,0.03957683274187734,0.02624330351215519,-0.0776248073446168,-0.06675691937127531,-0.0361732718407247,0.07460528754710083,0.0005653083911145479,0.117997519232312,0.03559060171523886,-0.011626924936718363,0.012050008367527863,0.1219773127477024,0.09295751103382971,0.21787931518986048,0.23438013375586395,-0.012937538752468029,-0.07679426805242948,-0.11655440205919347,-0.14112328776461652,-0.0989107264825382,-0.12480858191760077,-0.0024014204840895536,-0.040733192215783184,0.017022289811428705,-0.06339513583507242,-0.12212401834753106,0.10205130706677383,-0.01718115426836549,0.02412206627633289,0.04491115635352964,-0.027770482011800296,0.04815479532745227,0.0635581274815828,0.07885520368641909,0.02447052309189601,-0.007058483491971323,-0.10060129062814406,-0.058351336128440394,-0.10436211603288872,-0.0571179182542307,0.12334105196638971,0.1967148187104269,0.19737223879216745,-0.09706001606189402,-0.2296070428815085,-0.13599506096548966,-0.21405142365449248,-0.133367884712581,-0.14833039794158315,-0.13265162843852152,-0.05164051379427566,-0.05103079421229139,-0.05405035131517768,0.020497865726826853,0.010004499407763177,-0.01682114274968876,0.016901889260742937,-0.007640344412943168,-0.01631226980259182,0.021077556209592795,0.02209690754952028,0.1466288043222984,-0.033734553316461406,-0.19932265337231664,-0.2674691621716908,-0.21499594371477312,-0.16631303649951273,-0.016748450784158892,0.08181255030890747,0.11282825782780208,0.035490677272016394,-0.08053654601654499,-0.15862045052338566,-0.21378584983427076,-0.155932110691084,-0.1468055734660007,-0.08801544870089043,-0.07895093877001436,0.005508434200690412,0.018278418505890695,-0.040590526939543264,-0.027984943461420202,0.01085494154895,-0.03184963691721087,-0.09888942289624111,0.021552870168368547,0.01654711127626058,0.08247460778325501,-1.612806025226885e-05,0.012282002279155756,-0.14367567459723632,-0.31637820583992476,-0.30595712826813465,-0.22251105303940247,-0.16625052068318238,0.0022196771017267765,0.09866249712335616,0.11613003519011475,0.1498049977827418,-0.05549447239893271,-0.06337224604584195,-0.09336357286172202,-0.033480672539784484,0.04329441069381936,0.030209524635196886,-0.021871958049080327,0.00700305732593191,-0.003081285401473144,0.03916278907871587,0.09840600992713772,-0.009009953412098363,0.0039640190369602596,0.014648997726860798,0.01907421599320783,0.033728091549637136,0.06214705213396685,0.08549346909429155,0.07759116781235859,-0.10362188674454467,-0.21332702132466594,-0.2469164202634349,-0.2412567161612691,-0.11091135403320689,0.12905109910149096,0.11552324160874694,0.1721888830038503,0.14663819354069846,0.028765998567169986,0.10265618879814936,0.13241770262375457,0.11463422071547914,0.09376597021180796,0.06805681781323153,-0.0021645498819420693,-0.01308046619990415,0.10297169286630825,0.09562623992173412,-0.004114914884313632,0.005192656880459682,-0.07804346533009303,-0.014395740640385964,0.011338246669646808,0.10506524306109594,0.06752114301855208,0.0391616136198636,0.012243584240470883,-0.0846066677598327,-0.18928034606895427,-0.15731136811053112,-0.08823791138828166,0.019487309132240293,0.09366476562109403,0.14010566867194513,0.15242183651858074,0.0648415365757073,0.14205747624303558,0.12397392540354367,0.2459216476824758,0.11738470660164776,0.0854099198560717,0.07545207012465859,-0.051903219257564,-0.056341839418213156,-0.018173770861060392,0.13274689096327535,0.017996429298069907,0.015338936156809748,-0.06327077581648258,0.09119701257080402,-0.061331525552999984,-0.034784344043583104,-0.025810305720582155,0.0362602801096675,0.0148745984482623,-0.0768442926802022,-0.11004559230676124,-0.13501221026675111,0.047774187491161406,0.021801591232514326,0.019480573911385624,0.12304181331443481,0.08080957693600953,0.05831685509712297,0.06424734167636957,0.169423770965179,0.2266784234990013,0.16095551636305047,0.1644993764905267,0.040206261062141216,-0.09950357735901852,-0.04850611042466952,-0.04042902439661763,-0.008695140943096303,-0.016945568040892364,0.03891266633311149,0.014963186884012398,0.0150485434067042,0.028024027172961395,0.006216679908196697,-0.02482325521790902,0.02163759438902155,0.07017002802199099,-0.06415341543762085,-0.04242583983838943,-0.009323690796297567,0.07060941890365098,0.08060170211085645,-0.03090260742018992,-0.017159200328047665,-0.02151832106107649,0.03589538467043702,0.028609889787514855,0.12116670388141798,0.09467474836993542,0.16146731136982395,0.10554125286286778,0.12817502599759886,-0.027304310095394687,-0.037901403471025184,-0.02249317782898178,0.03231239123189136,0.0252399322245631,0.03134275584557745,-0.04028619910106648,-0.004696278305940526,0.01235640693390187,0.05163547249965436,0.06626498948873177,0.08719657726465019,-0.011952990932143982,0.05513535698137756,0.01018354890189813,0.013215125367305918,0.041958944453116195,-0.0151463014338762,-0.02243540489299112,0.04487024238330864,0.010717802704706259,0.005855961469220477,-0.05348674087919827,0.03746187973771524,0.08698731926505235,0.09416414771510875,0.056234078352996285,0.01645207459804082,-0.053631561582534376,-0.1099672125075084,-0.05965501061077887,0.05094943352531256,-0.042099593427096196,0.023545926636157018,0.03317030496964788,-0.0389576044502241,0.033387299382233816,-0.053155271088547604,-0.04195344450186789,0.0795216506572922,0.10807629182571574,0.17464148561775433,0.17680736555046372,0.09321361277321327,0.09465501514475949,0.006508629521002081,0.05997254012700175,-0.02539778933203446,0.014127588250555548,-0.09728098610018872,0.024194938792777305,-0.042049100149262435,0.001787633926844591,0.061010129892886025,0.006002465695864647,0.022929449557686634,-0.006063237945554263,0.060268476738234676,0.029388284545157555,-0.013184834900529978,0.012361215704942861,0.06971968308837354,0.012158956686427769,0.0012448047063911265,-0.02266978962588278,-0.044386127921096356,-0.02910333780187865,0.04481985534584008,0.10186451416791674,0.09744408337166144,0.061709254658797175,0.07174099407638403,0.13182130844565254,0.07433040346978603,0.06307035058159334,0.11286622617685178,0.0602709729543759,-0.051367201259145415,-0.07207844758632752,-0.06299101753450857,-0.04247829336430923,-0.09088522195171038,-0.04013837404817765,-0.049169276764019075,0.030406094804744384,0.05560039875532498,0.017941148508070985,-0.029935965144784343,-0.020401498249754242,-0.029359834571162875,0.03287327671540144,-0.02054327676063511,-0.0728437595206603,0.02038116812664683,0.02962415585304354,0.05275752119506038,0.1401353885051236,0.1580572568705992,0.08488216294667844,0.042441680866018204,-0.027728614577311884,0.014765167287660964,0.01576145756746891,-0.019080984626370413,0.09038276159820322,-0.06143249904906078,0.05031379301776188,-0.050988940465240676,-0.19312066099892145,-0.03779732347756226,0.047784603180985034,-0.010367671525780883,0.07368609507462864,0.04776439574687294,-0.09288148277238518,-0.00974830108354021,0.01584778132433129,0.06935881523437205,0.06421493879821805,0.04616706242987539,-0.030663062176803643,0.03147148725542823,0.11108815370403113,0.12696898145040553,0.07133421060158081,0.15055862863397934,0.054790899148881196,-0.1146054324647402,-0.12000800531276017,-0.06536915930813772,-0.09699984601502554,0.04442691633058906,0.1571229536876381,0.01111042233519304,0.019361098435284885,-0.031349095503123536,-0.1134707252151654,-0.06635544642201623,0.02293737947132029,-0.04418950355861775,-0.019548970879699278,-0.023983406911269742,-0.05960543258510901,-0.0020061223193462343,0.01995308235309242,0.06814519715920722,0.019537690272653306,-0.08971743424931013,0.06104500895406753,-0.03978140718571558,-0.03359850182596496,0.16449247009075474,0.1602180933954931,-0.0491445442892068,-0.14620025927439423,-0.2874787296201309,-0.30562609453228684,-0.14521814959800633,-0.10161052065948319,0.018317128689085638,0.13629205431670724,0.07321111136394505,-0.03469334989343787,0.13194944436265232,0.022345223427345216,0.001305076115623301,0.10876926635931905,0.01751256801512225,0.01354464048182984,0.044533459179822425,-0.04308388763052036,0.02890683365905876,-0.06175030170678329,0.023296937573461896,-0.04811216288710332,0.01220507682701939,0.08186951740599101,0.03794278187191611,0.13477216860546848,0.20036805801957724,0.2396174957085435,0.14681724338281724,-0.16876183127171762,-0.2706681263139301,-0.29588630691795015,-0.14026308653798836,-0.08811849506428811,0.06487712843800406,0.014540136344464735,0.06958365969693585,-0.020760169546623693,0.05379993882253021,0.06598891889523213,0.2326342948837379,0.12837638638823534,0.055918324035306936,-0.0014286823891654804,0.07263334529876318,0.07207541907307212,0.005333636870949456,0.09470311824197275,-0.03870546898358954,-0.015051933338868463,-0.02754385911042796,-0.045724666177975354,0.02901034219489686,0.1418150783655492,0.3365661784071458,0.22584457296622137,0.1036572954256261,-0.08368238517159829,-0.26102364508292136,-0.3113613756275612,-0.10021718205122428,-0.1261623018000477,0.08876529324881709,0.03226408206905432,-0.017345384661012923,0.0074587228054786,0.12778304463732326,0.1086781656367727,0.09106755784789744,0.1145569921389157,0.10016511864869128,0.09937358730168781,0.0486165053080663,0.03337500875915197,-0.02252327221716892,-0.009764071697500551,-0.034736505506209076,0.029641028866547094,0.04219600439783506,-0.01643347170662382,0.0668037162915075,0.15600440818958605,0.2958760396425898,0.2861134604915533,0.19552506023381883,0.00040085434702513375,-0.11965194184999431,-0.16749385303710762,-0.2038264754202408,-0.0704252563654881,-0.09047929980068417,-0.15865693257049074,0.05429899881708845,-0.022860761209307866,0.11452513750025033,0.09786294591639981,0.05663995714623564,0.10146731574004221,0.07932260947764781,0.0436798016180767,0.023770688714412187,-0.06136889990192795,0.05469198859810283,-0.05443152749078444,-0.06300954634343832,-0.007018509970764773,0.035383362523648224,0.0066248636125128485,-0.0007304571686684808,0.03743729258856964,0.1902630435350536,0.3225143352767031,0.17802754242901886,0.12711257000343335,0.04422376019574861,-0.008136833520469573,-0.14134871790044323,-0.1691393361871833,-0.1085642569842904,-0.1761340374553259,-0.024989862650487936,0.10183702381668536,0.14649312099747977,0.07038886489044092,0.04853257893537483,0.06970756670883306,0.06191945938481112,0.0680125607800907,-0.02438479260543926,0.04439630880268234,0.08907979758818464,0.028105944230333902,0.03446854518729485,0.0169260513138356,-0.047747443687175144,-0.021002724276754054,0.010463337397075237,0.0033686354891649846,0.0739420896346273,0.05967709616930526,0.1456698907510292,0.16591988940108227,0.166033504700215,0.052912263570221385,-0.055066250183185304,-0.22775233851537643,-0.2889528334819523,-0.262118906910689,-0.05139693276332507,0.048919460653334114,0.13517588359315852,0.10450323207914052,0.01693404977703935,0.020905938598235443,-0.04522119777880147,-0.05981801689541575,-0.025055438130238486,0.026630382657241027,0.06984025659505641,-0.029142868343650923,-0.07389761625255897,0.004218138940482232,0.07687996355715684,-0.005802840285735873,-0.007203288030982286,-0.0357075157469662,-0.057729159091698935,0.08132645598388684,0.145027833503617,0.10779278857373313,0.035065332021419926,0.05289566725883165,-0.12109854188124004,-0.34197626052101715,-0.40977523708399255,-0.36211367558367735,-0.055494532786682295,0.117617165861526,0.10028356138267126,0.104230312227929,0.005041715616758095,-0.02837974520554104,0.001148773261863266,-0.04313476884372347,-0.014928821939872522,-0.03447676075937569,0.03749899252187836,0.07601750312173364,-0.0393195418071353,0.013453841132071,-0.020885786280546437,0.021630952377095343,0.062287548208474305,0.07310642815045118,-0.08390740846032191,-0.033785076203219404,0.0270578251215579,0.05632448480074932,0.031205938692626015,-0.029173548672566687,-0.12083850976276048,-0.1805714283808283,-0.19972317509790136,-0.1469391297676553,0.05492629918970636,0.1304472613039042,0.07116330185060554,0.0279399735288041,-0.026244354457477623,0.01982233162263221,0.052782945859355904,0.005269028288758602,0.013811076245271644,-0.017877115198347986,0.020273826651607856,-0.05962787658849726,-0.08582536402043059,-0.03372291997425794,0.024125270282998806,-0.03951000455221861,-0.014252136613267227,0.005190042096542209,0.001412723693091258,-0.033289641191600716,-0.012491920446549773,0.0375643833347866,0.0678605883053324,0.07204279083394922,-0.05335309924438516,-0.08768577329844301,-0.08966043303550929,-0.1278243990145908,0.001211979520019488,-0.03951209797026416,0.058703230934093235,0.06172089298271943,0.03446623799554456,0.011805216634814571,-0.04609611276241737,0.04168664299965298,-0.045234127631483934,-0.01810661293899588,-0.024939447042829445,-0.0031431670924613325,-0.01485658873393581,0.009464114131253023,-0.048916390688373675,-0.07259238925539604,-0.044265777793127854,-0.013691564016979052,-0.007448308511339913,-0.012115593165176193,-0.016480628791686186,-0.008824580468215727,0.0518960362473221,0.0062900121919324675,0.10341389363305258,-0.012839619780527767,0.003472338131517382,0.039855233188187136,0.060970374704643546,0.045656117656027694,0.02701186212827006,0.04436471763874257,-0.07155264522870344,-0.055238303558752797,0.014807988625649443,-0.01463252969147853,-0.1148271760809741,-0.00712435440913048,-0.00045470671679382187,-0.0033518225417008725,-0.05648468636660057
-0.15130739846576113,-0.04208574286894924,-0.06736225702570006,0.021639094448421714,-0.10205180262050853,0.037352480049909736,-0.08084772868891625,-0.09486393794968348,0.06144312047612873,-0.05768146442791798,-0.05249505471285271,0.06591919351236324,0.06481984684682686,-0.005556170510438653,-0.10575078978139783,-0.04453596102176595,0.02956558319584355,-0.009135411372704093,0.0574321950707095,0.08871269247514478,-0.056097538213331015,-0.010309778859791154,0.027176785780035694,0.04896952982539746,-0.10291970383241261,-0.01045487600005098,0.01839890730714892,-0.04474869979723449,0.04579405888929291,0.0053554998213331964,0.036442570590823495,-0.0634743005126601,-0.07998179192783747,-0.0002408625094706178,-0.01682941784728726,-0.02950590569871224,-0.0015957304300598632,-0.10687586755845206,-0.1076214040618681,-0.08907163922203115,-0.10517105613003953,-0.07983780175568955,-0.0723619012260042,-0.08995233119246551,-0.07568881463116539,-0.06827352073802048,-0.04284020163918964,-0.014925453188406922,-0.08723294600049881,-0.05575301766559899,0.03856735638879801,-0.06200823474580093,-0.09497850634527008,0.0719596842686047,0.04808790851602468,0.06448412088303765,0.08250533589461786,-0.08726701546376261,-0.09649705039403968,-0.0658399464031203,0.08654988530775602,0.05304542654212642,0.01875739807404483,-0.08601953416546738,-0.01281956983437541,0.011498151439600016,0.060865596351345266,-0.031867653672778946,0.03418861926972108,0.08849710951897458,0.04705919490354592,-0.09845529103045744,-0.04154565890168103,0.03006554703775959,-0.08560152015242085,0.03906073275485507,-0.05417805833094074,0.06602756582460045,0.03473318938682263,-0.10212859111940795,-0.0687451725439852,0.07788288561722537,0.0605186440559212,0.04720187292642769,0.03607853870226778,0.02955752113987676,-0.03201712938267362,-0.08914117334742315,0.0019291834776632897,0.028745570889043608,-0.09461589937919185,-0.0976003283741323,-0.05078619738206823,-0.05108544604822653,-0.023431956448491355,0.00644738810614729,0.00011958028574162646,-0.06790898677097618,0.0304195637236324,0.019343485753496717,-0.05230893931732336,-0.09779754959958428,-0.08557070154556029,-0.028966635606789793,0.021321861200801557,0.04147415651809832,0.04513612531694642,0.06474627866943336,0.07557187139993952,0.06819773520973425,0.011706074997575653,-0.03610710894285771,-0.01797121146903625,-0.10603464254789696,-0.05583100721073868,-0.06222531387980658,-0.035064915099421695,0.031236374051559886,0.0255528164429811,-0.08789822386336167,0.009849728298482545,0.047401424011626586,-0.10737924664672058,-0.10489216752783288,-0.09764435828979436,0.049824336464696535,-0.04001332786081647,-0.058954131019403756,0.006109209270292188,-0.03933918608811808,-0.08144897418241867,-0.01878618858877673,-0.025240000489410257,-0.11552047961219837,-0.08754915236669884,-0.07101225947500554,-0.009677889251658162,-0.0370803049115448,-0.03984620351596131,0.07878285338979225,-0.052008986779861294,-0.0010487067869137078,0.030207255547273815,0.02592036175492733,-0.08478059892632323,0.04127600788839257,0.059216896557815084,-0.00731161022402105,0.057620116101241695,-0.08361650832964368,0.021958933345417448,-0.08460356251378807,-0.01318644042601535,0.009409016833134278,-0.0677673095222244,-0.05599091707322513,-0.032704662602255234,-0.0916460056872838,-0.07854206575821375,-0.05820143870449322,0.062276639181010375,0.006556447423731234,-0.0940794192509945,-0.10819708964902948,-0.015351687408010909,-0.06993265383788531,-0.08197043170007338,-0.07561960328452977,-0.05123606679163222,0.06210116464764082,0.050098069025379985,-0.018358449723075654,-0.06118897079019468,0.0013334005960181892,0.0011799723877759052,0.07140280605498868,-0.10376907395941173,0.0684368913401426,-0.014743334892584972,0.06055622356687858,-0.07465481525735873,0.002419972733563363,0.03629556928878204,-0.021760678203885393,0.03372660989430637,-0.14314255862047268,-0.005503592621221654,-0.060180766784967865,0.027603533878869442,0.016600142462139058,-0.012442066279105466,-0.07733139074797787,0.03871347898993403,0.035211181732699874,0.00351546443640132,0.0870434089162083,-0.007513094471114562,0.001355840155785865,0.010789505344342663,-0.07381750043866896,-0.008316208525206167,0.006285026970875895,-0.02735898853302753,-0.0989694161165222,0.0042042929654906,0.022149806202574084,0.004406928529827251,0.03451704215514429,-0.039696673286451725,-0.014637219860402284,-0.11943689506469161,0.004465066325826558,-0.1254377888922695,0.03577696194197842,-0.08701447028862343,0.046124990602412215,-0.1043196954165467,-0.037771993470133707,-0.028259601623468203,-0.07677263504959839,-0.012463875717211092,-0.008314381641415968,0.02643592813279003,-0.08071076489908445,-0.0017163307059691404,-0.04654888308450908,-0.04269492732036555,-0.08382712629633436,-0.028953764827419626,-0.08951144360339484,-0.005374549371317883,-0.04889444812700961,0.04465798614001717,0.010968063677052825,0.02101527967172011,-0.0932270923971354,-0.0889112179458672,0.0275765537402192,-0.013197212950468343,-0.03718462442198959,-0.04647703440793175,-0.13289141116605643,-0.02975712765657904,0.0065271193923246325,-0.12605381700546298,0.05662852857593365,0.006299383390439737,-0.03118409565629808,0.0344929960369559,-0.03271079137572241,-0.09498747042784572,-0.10694731445685253,-0.10574670871020812,0.0002510980682007776,-0.043371976511010296,-0.028606744413522685,-0.04966219984298944,0.03318213726378582,0.00611441884130327,0.05025427059390799,0.007738261119086429,0.0033860669461508452,-0.12411522989633245,0.015149538687561944,0.019099128289502276,-0.0174767732879066,0.02188398430010299,0.017854840400925782,-0.02360210874929013,-0.13406653702486945,-0.02505970381665188,-0.11184537172015452,-0.07407112674469232,-0.09571133731805218,-0.11096428638293876,0.06146390407692907,0.07046627387669498,-0.030676427426675243,0.03782472435749156,0.0011620265641321507,-0.05644237314598236,0.06579975757069396,-0.08158297547798578,-0.06546072602184658,-2.129107804251762e-06,-0.06695471204889177,0.008500061954521835,0.011551037243660158,-0.05036949713790991,-0.022571194359555524,-0.031092490987004655,-0.10068535180075935,0.008944056955835953,-0.08546025453289827,-0.07541461292184518,0.01152434577373439,-0.09595712519744275,-0.12832717951387637,-0.08312219434541242,0.02457564888404297,-0.08633682511102825,0.06423066200926537,-0.045431289130490854,-0.055117424719599205,-0.0338342909127619,0.004185536034338916,0.03470533498610027,-0.07471397719909748,0.030288172115989248,0.027742328732509924,0.0022121521660481997,0.06463370187941204,0.026259825039744337,-0.09052901702503803,-0.07252861156454328,0.04764487585294056,-0.1163505074449964,0.047164811261365305,-0.05958827166354376,-0.021815767646946378,-0.013628675614349002,-0.03896804996263794,-0.03856628000839775,-0.10134718639097416,-0.030914795001848894,-0.13989544797163872,-0.13646346709079138,-0.07939626140495629,-0.0774514824290824,-0.07216056967790796,-0.013985412558732856,-0.0713050951161606,-0.08093589931033526,-0.0025897905613209192,0.028947269883682764,-0.05753245140216599,-0.06169030487354148,0.0015078888066848404,-0.10010178879482973,-0.04602623041930577,-0.051248046335406035,-0.07664903934588824,-0.06114000408946421,0.05670003335153132,-0.05736354588567369,-0.0542258756347817,0.0286337866348214,-0.022757779662234027,-0.09655159946616176,0.01991511261560917,-0.11299060360566668,-0.0128808633644742,-0.09078615814183323,-0.0111891465741378,-0.0779613762714924,-0.10077987732311292,-0.001111441721332544,-0.02889810365080018,0.06339354444117001,-0.07690308980493536,0.008080007182550778,0.003119825309330023,0.05068389845545128,0.0817492661653547,0.03633886558925435,0.04458461727852316,-0.0073742800168843945,-0.05135817779780484,0.051296036512058454,-0.04534668882546864,0.037510546767721566,-0.0316680460667237,-0.03485758207509152,-0.03350082222222214,0.04516806346090696,-0.07087978448488794,-0.00018785818516197007,0.02100842729653872,0.0400585299047693,-0.06234625240775034,-0.05357074839554029,-0.08152432841830738,-0.12685738976001368,-0.034289987717010285,0.005360727104218724,-0.08737635081497463,0.04570869907664581,-0.07346055753282624,-0.03545140162045534,-0.043670992535826035,0.047508295072792465,-0.04446447852797269,-0.048467792228976916,0.0013892690572424478,-0.04465424630321642,0.08643810989121233,0.04651745550807851,0.0030358380131207383,-0.0705317571664438,0.07476441807274216,-0.0645169562242579,-0.11595316726306772,-0.08753122250111982,0.03978387845965401,-0.049120796464157165,0.02619043057970387,-0.12497805155728793,-0.16034872102956316,0.020300682512929654,-0.026566438801436432,-0.06374810124308869,-0.050705493314897127,-0.06709664962068672,0.036802174114386015,-0.01580954879028382,0.0830977472669432,-0.01678895389089695,0.05033382772242917,0.007250162126631208,0.024886223860752562,0.04735070674131827,0.006729042753312785,-0.07036929171883466,-0.033259015599026984,-0.07629822762825139,0.07129743778254014,-0.02923337597535962,-0.055386003668957115,0.014375960120339721,-0.07850961844191236,-0.026248882612258106,0.04644758256274527,-0.06791381759608521,0.05994671377293607,-0.16192742190814885,-0.05893575050147254,0.02889637669743529,-0.02905217322732174,-0.08665026262081489,-0.12185429786387666,-0.039270566930069084,0.01959478228152936,0.06197821674792135,-0.07238982941190053,-0.08428838103347813,-0.05345198904432867,0.0509514625334316,-0.08033288806281258,0.035504351344368024,-0.022697593259800128,-0.07127052186078588,0.014922491815951289,0.06344791244585121,0.01701115052748726,-0.06680716046537073,0.0012688299277596302,-0.10159157285477305,-0.0017169872722434787,-0.014236127305971189,-0.11292290768737134,-0.06109145108465242,0.047347091589684566,0.014570567372606827,-0.0030038483067511166,0.013913641979038244,-0.12994913168189778,-0.08968881375083487,0.009545712531504914,-0.11302122027878334,0.04003386941364605,-0.10069008948768848,-0.07567337420728402,0.054108012715154134,-0.05982373403198496,-0.053698155413091225,-0.07491888248331742,-0.09975819061958204,-0.01216431026928256,-0.07368596978207939,-0.10543412209494883,0.07146747890364336,-0.03212254855709614,-0.04746386115084999,-0.020398053031722083,-0.05478492480997626,0.06962550869498599,0.004810615139785833,-0.03378736266539138,0.02173399179175668,-0.01257973362761134,-0.05734836101106272,-0.06684395151643108,-0.0025990413199653783,-0.0332211978402166,0.04375312617050472,0.030606328433596508,-0.07300876027949313,-0.07341118856433296,0.0506014354943142,0.07788735133819799,-0.01708899539001889,-0.08763204671882653,0.06622145101048221,-0.019353134949926597,-0.03733711514291931,-0.049672048885563196,0.07950217160744087,-0.089576603371207,-0.004158441539826687,-0.0795585300290891,0.055792694357441996,-0.041409961980976795,-0.009832318900962932,0.03708562578010678,-0.11978746582082293,-0.058304783068557894,-0.03992300033880305,0.033120498785277744,-0.14503272566157033,-0.08076825532185751,-0.09821836489349572,-0.08721539071308654,-0.09287040895337806,-0.09759991281475752,-0.012805726960909865,-0.004615592075049025,0.0107736300884405,0.06636935651753405,0.047823462835744,-0.004028672047139966,-0.0625053550964357,-0.00306850787683314,0.0383082420319451,0.034441411008409556,0.049387380713057816,0.028061435308331502,-0.047291781354178795,0.08321030315161826,0.06046024361675128,-0.07895208116645996,-0.09554195945578951,0.06863614075828564,-0.02779261239941767,0.002441092501446963,-0.1263517319232249,-0.0980829915834459,-0.1339710583873019,-0.1499587707124268,0.027366229884495115,-0.08704899621251158,-0.03896590608457247,-0.011361446405463294,-0.05165866766935064,0.03647898037125154,0.02343610690759308,0.06000081578840508,0.08306000103564337,0.040263466351677754,0.07933330875862277,0.028276008093541572,0.05262209505092183,-0.1043468824198683,-0.06660851822789048,-0.030885727646591917,-0.0762440692578215,0.06299921008870854,0.04214349891840261,-0.08142183921551464,-0.05067286589945107,-0.015751588288258428,-0.08590678188289896,0.025588730734866737,-0.06665911120109617,0.027437522279012114,-0.10780266717889467,-0.11895489804931741,-0.11270341630080637,-0.034821661330592495,-0.10181336674935101,-0.08521289464316342,-0.001592892400194981,-0.08659376008356827,-0.011497051461056269,-0.08378018854618406,0.04446415300060942,0.08008682763032873,0.04868226106528551,-0.038781227490490566,-0.024040265618543097,0.03355161004905373,-0.05577861606974539,-0.038299960410028526,-0.08184647180247843,-0.04802933223506307,-0.0069604378544998995,-0.0330580574058342,0.0424420529693156,0.023525636953114486,-0.08106586406442419,-0.08111120579772507,-0.10399683044381132,0.026110950212764304,-0.09122688779415868,-0.12700469985364754,-0.05204301933556987,-0.06523052443503088,-0.11778997653128004,0.005111271971624434,0.06456961714520225,0.05040060404670246,-0.05609640092935567,-0.018154159151250668,-0.029136338903964967,-0.015521463255151316,-0.10529322618954437,0.00761032895862829,0.03236558869983569,0.06917547047708958,-0.10054055164819388,0.0702637169722154,0.04056521411897299,-0.09209784164819629,-0.02512524305078102,-0.11218584917114824,-0.11270102932999478,-0.11227230981400463,-0.07294967862273716,-0.09911963005430265,-0.10664221257963823,-0.01984330006384627,-0.13776257293660055,-0.07361938122982137,-0.042944148375421334,-0.04552506298928299,0.04125159418634015,-0.11786248633353841,-0.011099678819297508,-0.10511602631824267,0.03411914107588074,0.08124719027596515,-0.030698505001410657,-0.05393079442775698,0.013193422781562781,0.015620786018461806,0.07234643229945668,0.00460780711167848,-0.08157774421275306,0.03560872830169837,-0.10058095033392551,-0.05157317931130715,0.0265769794609261,0.08040500687425634,-0.01927394791588992,0.06466159036894734,0.03364452364102651,0.05277053459736085,-0.07142282644775244,-0.0597496034714239,-0.07167150579158492,-0.02390165118610443,0.0008590701566241535,-0.07914271432816672,-0.08814758826482298,0.07309805680930756,-0.02005753139453501,0.015463601882107976,0.08376013264853005,0.08069124886848776,-0.02251486198504542,-0.0651334934405809,0.04682348409763185,0.07263212945934305,-0.1050436316170644,0.0071617836488658505,0.08656795125985589,0.06021417602182913,0.008023681462467232,-0.022244907463212404,0.020261747604822192,0.0456575962283077,-0.08963600425236556,0.036925932342987355,0.052952764513153026,-0.011272840179803007,-0.06629033225884141,0.026156670510842094,0.032791973045661296,0.023950755814943436,0.0015588525239107619,-0.07265344803711565,0.06827043962277037,-0.04505084382332469,-0.10560960132624238,-0.10625227027567591,-0.036957941708910196,0.048119973484804374,0.027015925463978147,0.07018659218005861,-0.00031867275521189735,-0.1096447399156429,0.018648200161892364,-0.02829417937967011,-0.07971055539350584,-0.0263756958729007,-0.10101985687897531,-0.08539377942333952,0.02296982514552169,0.06604130534874543,0.028007540514724896,0.021201495010711148,-0.052180378058222565,-0.1075119128616602,-0.08238876035604532,-0.11485527889466147,0.04198964702445866,0.03874410463199767,-0.09539076297862024,-0.04749829295112259,-0.0917725013953102,0.023653508018727867,0.07373772434082138,-0.0689150701602897,-0.029857722559625176,-0.059914521331027454,-0.018038180561103095,0.08426799507259491,0.0328166205479605,0.08288712013700475,-0.043525337361631576,-0.08879023114990166,-0.10958454869649158,-0.10925188846522435,0.05596038348848088,-0.09198216706064669,-0.05852140458278669,-0.041125850325960694,-0.019534352230765953,0.08053786637011792,0.07698617269379592,-0.044559139817650674,-0.07805732964309492,0.058885582051846026,0.026267070582326274,-0.051566028200582835,-0.09298466882793342,-0.07117719997604639,0.08245492699734845,-0.04037236562421511,-0.07416415258336809,0.06139176873577911,-0.055530681138172104,0.08249978701709126,-0.0852700582307323,-0.04782315556102792,0.026939626250033107,-0.007336250063756317,0.06826917161816974,-0.027441712729834443,0.0103821327276269,0.00587302433743867,0.014287349053215631,-0.06485620389495765,-0.074017576518266,0.07032223405973675,-0.023908865740389574,0.0529287135626701,-0.10690344421914084,-0.07966952916058742,0.055211294150025104,-0.08864730289286957,-0.045403235685037305,-0.03367848890155294,-0.06596809857837949,-0.01406540299999896,-0.03064134857933393,-0.0780215301339847,-0.00606365779867788,0.034631784494085556,-0.0032121818435391068,-0.06341625837706728,0.01556158996701818,0.06618000252880504,0.027842207588506498,-0.0940348613125627,0.047094419105600124
-2.0165457632438364,0.02529463870523441,-0.0740101312686956,0.05259519330747139,-0.010833753721248934,-0.1212891564122978,-0.09820441769416424,0.024477685973550406,-0.1181436972949433,-0.11692647328086796,-0.11221077451829788,-0.06637188721139925,0.04764010333035759,-0.022581846280145614,0.049708924027053854,-0.04403117505184259,0.19444245344552355,-0.03841026735186906,0.05782993972220272,-0.07924301703670882,-0.09980570263347469,0.031154232516599007,0.05096698636838772,-0.0867142013900056,-0.00730736992764887,0.0461194110917962,0.007177627339247818,-0.01261875474808527,-0.12216410872046315,-0.03795988517824254,0.07137017065020773,0.2248354480079905,0.09619456377827773,0.04492621620641227,-0.03772293443939401,-0.032397049625047955,0.10034368064376274,-0.0962326300327314,-0.03464684782613736,-0.0234914132280147,-0.012034858638227444,0.13043473598322952,0.09052618002782238,-0.015602488614318302,0.06517497011741473,0.08712846791718956,0.06053941848734032,0.03789915342732805,-0.03739498791925246,0.10245880434878601,0.05253645142583415,0.002871358474396956,-0.04612581135245813,-0.07307682577841693,-0.08476386314075045,-0.08888982766361374,0.06679880742599133,0.011777230236422994,0.063659342672988,-0.035772565376135115,0.04183783324656354,0.07657524567963656,-0.07082660961765269,0.09452192398010079,0.035841051846834344,0.11194393828170474,0.000695277298954783,0.038813465432615935,0.05360269917324754,-0.06446566156943347,-0.05859467108382214,0.1154131113186444,0.06398488746274762,0.13617711942858415,-0.05034363231886367,0.05056544203022373,0.02681744756487686,-0.18184334337863062,0.10352949092526818,0.06058599726016941,-0.09362024665475752,-0.0381277154845989,-0.09923835453053244,-0.06133685446069362,0.08997422532684693,-0.13004624919439647,0.07733250543945133,-0.017623172692045233,-0.010574730636621338,-0.062287202274637805,-0.0065910815652162145,0.034004451484400164,0.14900616875203823,0.09838146291012338,0.01800323777093858,-0.011158360521417153,-0.04932142007465059,0.18426449486093532,-0.035784387046778436,0.10301156405255847,0.06523013711340434,0.02337630723556447,0.1017479377980078,-0.028106041572118528,-0.04201118246151007,0.03886745465054058,0.0006085085876537458,-0.012529012578777749,0.10911666775181615,-0.042680599644852636,-0.049325777227767174,0.06885611301510113,0.06052489660696571,0.02962661197362843,0.09007837517785529,0.023784262487802854,-0.048231780630662954,0.09413939487832393,0.09128028261437947,0.014778630049848425,0.05543443884000199,0.023228824609872006,0.06199559567225794,0.07661576341013514,-0.003481676636632013,-0.08558636394872318,0.0337609321764401,0.01889675712670407,-0.037749472702014265,0.0783979353363536,-0.1306798477693797,-0.0514635285194141,-0.0006912680102413688,-0.09908367305340474,-0.03226539124239932,-0.02914191012802841,0.09829910165792712,0.023901225006774628,-0.015546368029888624,-0.04949393284797306,-0.05630665781347169,-0.03489600008277523,0.0035954654487532415,-0.05903198067617143,-0.11089632828355574,-0.010397541938299094,0.05986122482661231,-0.0506550296592898,0.11519802276947123,0.022766592810164625,-0.018789789754085788,0.010364380738440182,-0.09669274844999541,0.0116945343911783,-0.07175263969435504,-0.07276824283460202,0.02357946995496871,0.03812840141927739,-0.03986793156464915,0.039581711410592677,0.03241113871615833,-0.12854974489297188,0.0037847638634709905,-0.029039036760925535,0.027343413644042962,0.05934930036089518,-0.0038415026736840696,-0.054659236951499025,0.14052464540095805,0.054597903516217496,0.0545542934401808,0.029288751504300624,-0.04362138246043713,0.18039420189889083,0.04723216289503192,0.11564510568279171,0.0994935469967485,0.067459129139425,0.08283101669065829,0.058509223707192026,-0.0036488652196602573,0.005172894685273131,0.040415910166518944,-0.10373700520972927,0.00018408508127287955,-0.0035247865493643823,-0.09615133273656759,-0.057181237986572736,0.05384513612169625,-0.027506204607525526,0.013447075233318253,0.0008320637898204406,-0.09587748875954816,-0.027506251613742,-0.0005647290438177792,0.0010839701150926872,-0.02768722787693081,-0.04138588561835278,0.09947231495244731,0.014841026888479433,0.06202326235593131,0.052298081641937375,0.06685446115293298,0.12917549520516178,-0.043845366396619095,0.05969504829613852,0.032723373501207645,0.022568608597798752,0.0652061326259126,0.019130289878347542,0.09745274901325188,-0.08887676014107969,-0.13377277389776956,0.10087003916516481,-0.010122346103323795,-0.07560772568948496,-0.027370468798210968,-0.10919322949071522,-0.17243768818083524,-0.24284729515745254,-0.0029685739918555052,0.013732319483547237,-0.026103751877555738,-0.0020363558168048647,0.10171184763362884,0.05019741074974503,-0.025913891230263268,0.009913374385598746,0.04802560142332434,0.04460941792858331,0.06880505116527927,0.021612766331109815,0.0474382206444863,-0.022392580705020308,0.1469583635980365,-0.0212542242928519,0.035259167178139615,0.13106147488158953,-0.02710163665030272,-0.10004961817508536,-0.044704080978086154,-0.10279677783437358,-0.007537616928274081,0.04537645597116497,-0.09339496190089061,0.014564695494854733,-0.00027893738648161314,-0.07137745323378848,-0.06540950488864232,0.13305395436511275,-0.017164303147229613,0.051205638289681346,-0.10293183683155155,-0.06738138414460518,0.08552264122918442,-0.13039312827615665,0.019819636395681208,0.028771009625386736,0.05933726450133642,-0.0010964673140171468,0.13566209528820417,0.09305850785811043,0.06465807013552703,-0.021662811200155795,0.021152096172839516,0.10102652065682095,-0.024585658959282993,0.04201828630243634,-0.06395222216521637,-0.043576844003203836,0.00237880656912571,-0.0914607358399339,-0.00598381116982475,-0.052656778503354734,-0.11270528631363101,-0.16889710564213195,0.048478163624829235,0.030961124497339267,-0.08125889348949107,-0.0790713588821154,-0.12307951842949774,0.025182219574489847,0.057663504447639895,0.06398655211231752,0.04655826699424687,0.13990755581468578,0.018530659941308196,-0.14203889888073745,-0.005390797836368855,0.04493807249871757,0.025525005346103094,-0.008861792759389232,0.12915932354516937,0.098730156511444,0.09017470838385336,-0.06373459403142351,0.03345507682652502,-0.16168558955742604,0.043915396504345144,-0.08063007422024758,0.015131169381212449,0.002667326948626241,-0.13526931363795971,-0.038294063221530186,-0.030266054494448726,-0.02666863267079885,-0.08710649771533609,-0.043985538315055174,-0.07839301234330076,0.002120106407797391,-0.08744753274718312,0.004226086760600163,0.02273210667683148,0.05097285133826744,0.1068097601408866,0.0604519274453669,0.11450407434071076,-0.035580257825777284,-0.016807172950854852,-0.030183814578260887,0.18838231572631917,-0.020991824298843043,0.15888292645395552,0.027576187967662143,0.04313039225199798,-0.07023513922069294,0.03425582838122117,-0.06558880205208316,-0.10567087700317962,-0.15499177857708207,-0.03751129701792148,-0.01805285265950777,-0.02860290252542328,-0.08916621376221467,-0.11416811407245596,0.20393181229165014,0.011697602690871849,-0.16566930143896627,0.027890872485083287,-0.009561228617640843,0.05044946892888154,0.10495358440089886,0.08898464050960248,0.09280003722541519,-0.055142432210284545,0.043408159819335705,0.037924888187022956,0.05091693025875864,0.13620512218283862,0.12850161855947273,-0.08597733445180913,-0.036519909430548544,0.08816988488726693,-0.017755278345855528,-0.10390810353022471,-0.09813948608719751,0.029447201400200605,-0.11614019964025611,0.08628236997666483,0.05494408792398701,0.005551954196461505,-0.04915043954060348,-0.05703194050240896,0.17075512977466809,0.10870864604058092,-0.02691296476385478,-0.017691800856539937,0.026201622894249682,0.03626979837366458,0.06651449929506234,-0.007407440217612904,0.01890571388350484,-0.0434044339886337,-0.07539943739283311,-0.06281948319496393,0.10068365623827681,0.07758985761442096,-0.010194518264309496,0.09490838648157619,0.1828135050365115,0.10179817986138026,0.11481540203396595,-0.02878019791056181,0.2066726708485149,0.1521066746667032,0.1327509759558404,0.2346719601689624,0.04917131493724477,-0.05739257680948333,-0.029663113673697204,0.10141497153694487,-0.04442098686320343,0.13039297669117705,-0.08877690675505437,0.08231179341800107,-0.05569656579613003,0.0645130653091178,0.22328809167263508,0.006787094321304719,0.1155952492801015,0.07555755439486592,-0.014236290574076545,-0.07411671681705485,0.01635299060472748,0.09482863229606601,-0.058252898621903595,0.039064859024701554,0.11369258642332332,-0.0635468892202733,0.14920433041578965,0.026911987108998288,0.2832688459657815,0.3966406447873244,0.4523265559906213,0.27612740448847606,0.10376875199992569,0.04394817396322496,-0.051964437496580286,-0.06310185467421775,0.08635499170683228,0.02169881169560377,0.007221063598170797,-0.00719139466822446,0.02882699563895342,-0.10597660666041014,0.04672345735520961,0.15540407876413298,0.06361368459560736,0.13926716200203276,0.18656679458394332,0.02450440522652333,0.028530121178456498,-0.10567384466242512,-0.09096883381682425,0.0944128526343067,-0.019547163540547356,0.078822272137534,-0.023126850684259,0.03610355007405537,0.3648936699897005,0.5936147547196418,0.5807231707117302,0.5119153850019735,0.07957569483929464,0.05790856201566088,-0.11586745950484657,-0.07180534072884293,-0.060529064132557035,-0.06675326129269281,0.05936529774041184,0.019993828341050995,-0.06315534297858243,-0.0830001137534772,0.09738830144313647,0.16961443680262162,0.18217653282375174,0.1324235872950185,0.11128855917440024,0.09212768435216322,0.12447548643400289,-0.09299743010480595,-0.1333419486751483,-0.08841196869254907,-0.13917044031292308,-0.09221751566877123,-0.19842748432106255,0.03728513624986105,0.4472931744280803,0.6558287924988777,0.48707263945711604,0.42503676645607785,0.2363210695712371,0.05280821851368282,-0.04676939742284646,0.1615996126356927,-0.09974943396934156,0.0034234603997018356,0.028729514494339265,0.022553961935283032,0.035254662755443776,0.09293334291447113,-0.05977763167563849,-0.024553778025055453,0.0011150086158232403,0.0243258335801465,0.12984633683898275,0.05426238571455907,0.06976819509832022,-0.024296626799672493,-0.05917278538051081,-0.05900353425022793,-0.24163030245828965,-0.10001718534922263,-0.1575225473306472,0.015464844809774893,0.37057520365802643,0.6272205976129417,0.49258119145606977,0.36928121349812354,0.02765309103733022,-0.02879863153985241,-0.04324833745082997,0.06914952063351666,0.01822731781698908,0.09287056208323048,0.05413075695256953,-0.027094224359575605,0.07704098925735017,-0.1492830248314323,0.04484782687210012,0.0855556848311641,0.021177295127149397,0.01729159842870673,0.10256155368451354,0.03787255632480152,0.011955503777147027,3.672796278003654e-05,-0.2625819254295632,-0.1457566219683567,-0.11040117660640833,-0.1983477063156917,-0.18362619909843153,-0.14792604420163974,0.34247645528609943,0.4477887780390189,0.3945259852855166,0.2348932129951173,0.011097316852665328,-0.08883789775799723,0.028859066650906057,0.037989348445101205,0.1334453836524802,0.013444168132773732,0.004453373548891977,-0.1674490103750753,0.07154783157755239,0.11803985773078314,0.12604100229770987,-0.006895590336010363,0.011545045476491444,-0.009799816155359242,0.009386908592365968,-0.11390029395043497,0.11812361432783851,-0.03271847838290338,-0.12838086770804802,-0.04725294283943286,-0.06552285096611955,-0.06169793261006777,-0.009586967276992216,0.07629824431354297,0.21169906943969402,0.21657758480140069,0.23250660842858759,0.0544040597799337,-0.022610016420453367,-0.13665419800346623,-0.06582201304210314,0.05742248138380068,0.020016786002403808,0.06736393129440606,0.00023711321578043988,0.01538217777368107,0.01066973451098067,-0.019843583069289364,-0.04557708644809057,0.14937706209864163,-0.17790898493599502,0.021355853383632543,0.05557231226390671,0.05009556406191222,-0.07361047098649921,-0.16987669660029528,0.003798127136135721,-0.042742284717444,-0.22839861034597297,0.045094295818328654,0.022231701877083152,-0.08443499424072835,0.003810825187904935,-0.08936537758485624,0.03286345227921651,-0.17169114100274518,0.06013288747053583,-0.11767793729731234,0.09494836126875293,-0.14617116872091582,-0.0037906217987470027,0.03442936536205306,-0.024329887118519855,-0.02337663389908966,-0.03125133582278142,-0.04035381083857962,-0.006846386384490841,-0.057386060283348105,-0.14865117091441046,0.056187311654574176,0.1532085835696072,-0.0004658682152969924,0.08925554667018079,-0.055360499102850846,-0.04152602835824624,-0.0026585596254456558,0.10117960212460542,0.1439792707478175,-0.07503561553697187,-0.10508272003710702,-0.03896537589576746,0.02956792438693137,-0.05730918916181977,-0.1050964139663609,-0.14345303256527536,-0.02086773595367319,-0.008232715248469713,0.06084207142389704,-0.1830092101777671,0.037675088189000554,0.02533653889562834,0.045902050198231265,0.16065209528604057,-0.10998770412934948,-0.12219119437603096,-0.10310429072267956,-0.03202951399828521,-0.027429111862492077,-0.19181836209625688,0.12051205488104619,-0.004430649311059482,0.05692910718938564,-0.022648234245878144,0.08595218703963273,-0.020089545220560858,-0.007092956034793166,-0.2626507351451447,-0.20747039343559842,0.029530509584418458,-0.162027962011441,-0.10688944957852609,0.029148168453928456,-0.031953088823596515,-0.04094793879163714,0.0553675078348275,0.028474443363838295,-0.13057715560539385,0.01685445814972767,-0.0829175772214636,0.11192505444502572,0.049468486903718016,0.1145767243008843,0.04637494439464997,-0.16586621233695478,-0.11541619273536426,-0.10886517297161938,-0.0008752237667662491,0.043461539829934864,0.03576160637074528,-0.07616163846377587,-0.042879021730426764,0.13566889649848565,-0.014172407517095385,-0.08890430248892739,-0.009918845458286411,-0.2171488817450196,-0.0961351861742149,-0.11134877412198861,-0.010966615518291832,0.23695437889515744,-0.03077368557567558,-0.10067848302603943,0.07708700440033579,0.01079678035733031,-0.04310330423445548,0.07888402418907393,-0.021309487947693845,0.13508652962017048,-0.08351513467112111,-0.0227274899900635,-0.009303811958806649,0.12938792953258269,-0.04349480008503521,0.09523981751731105,0.06352807360957195,0.023373670790399342,-0.06303029349222758,-0.0752397600317321,-0.031999219132179825,0.11790631160503359,0.017435334179291048,0.02320871271742108,-0.06262615954145707,-0.021773940334912006,-0.11099684575068429,0.06375786672305085,-0.07050846739543357,-0.14800377297660577,0.19359240961544577,0.059129035870581985,0.07620901869318862,0.027248412371876602,0.025000334900626094,0.10589540349845464,-0.03870451466136744,-0.09999351165897971,0.035639049725507764,0.08017273682835677,0.025215868128149386,-0.14191786297405373,0.07906872529279182,0.05379048463832388,0.0032364682680071756,-0.11206792861603562,-0.01422112125508736,0.00432071953242544,0.0927990199740456,0.09443109875687197,0.07384613992812787,0.1769861717285832,-0.028936552819355532,-0.14347590314865508,0.006879875028294033,0.12396679354646947,-0.05341981397731336,0.024625709685288107,0.08769297541190431,0.012192982428217316,0.014019150834656878,-0.13231239013547352,-0.07879289307065834,-0.053541419697459076,0.16798563274364303,0.0729395109399477,-0.13449570126995566,0.007847695905969097,-0.06929098030787385,-0.010382265228640594,-0.05190853246267425,-0.1599011520757896,-0.10105646628898893,0.07251261624704347,-0.053071960284267465,-0.012167897577150692,-0.09221268198209334,0.06639618888526219,-0.13042459093738853,-0.0436008408619343,-0.0548365587293881,-0.05480918651161102,-0.09600512401922519,-0.04729467543304017,0.06470343648828479,0.06419971380372796,-0.045772834157210195,-0.008417358439950805,0.055125799843923046,-0.0698310287151473,0.0314898830248107,0.04741380308055671,0.04148180559103569,-0.019947546401953065,0.10414781063637775,0.18629341379587083,0.07716712853213198,0.05296071204473175,-0.020812595015579013,0.009143692206552208,0.0214384147260521,-0.019026575231853228,-0.047135680125019126,0.0875779810659927,-0.00037636228027108833,-0.05960982024108569,0.08248795296876732,-0.04392483027713813,0.07068991604626264,-0.08036285537116294,0.14791925498388184,0.022769759539685602,0.11367596264996407,-0.016823110204803267,0.02410373486617474,-0.06373985292558335,0.06025463521257402,-0.13206676631329434,-0.07689063516553792,-0.05541371126563502
-3.9520569496282123,0.01525934099446329,0.12064481274657152,-0.03138472129079042,-0.07230778914520421,-0.1751834286250741,0.049492365223084804,0.04429948139308033,0.049602631576443214,-0.037577723051198615,0.0037666495995645104,-0.020354636060174763,0.000858890021499077,0.016612738524783295,-0.006304722592960856,-0.05438044676870734,-0.05783694178259632,-0.0490166823310876,-0.0023238720674992634,-0.004776966907138834,0.010010911487286908,-0.05921258237339554,0.006622474191095554,0.04483156394900206,-0.06332259087408672,-0.07855563784892197,0.06748585611970823,-0.06200825694778467,-0.12274233890330913,0.02170949153671934,0.09325142794892194,0.04607388410021438,-0.013722538947700499,0.038261221101230196,-0.007957603870763745,0.03052366937544955,0.0298521925869976,0.01878079796980305,0.06821837165203071,0.04164198758928187,-0.010236646211304105,0.011382619534676756,-0.09696546812666021,-0.01648649080541947,-0.0035521964085835768,0.04574551221221209,-0.11487281895861329,-0.18664596462100652,-0.09396400410328276,-0.07049552178861447,0.16779943534499786,0.033620856829955456,-0.07734499078665345,0.06421044073249653,-0.04948434728870868,0.05280849553503882,-0.06636977073019225,-0.025363983783448268,-0.06795374019128028,-0.08832404912981609,0.005378855206481415,-0.12342441662253702,-0.05798854822030515,0.034285924925943956,0.02464658862095936,0.027140834091874927,0.030111992943115697,-0.023823916420140544,-0.0003361033744264865,0.024226245647366793,0.00903679688653316,0.017785317898750114,0.04276971968418424,-0.004124680067315548,-0.04749668802977107,-0.03686801169418101,-0.08826409082804158,-0.027216157497940256,0.07538884257332935,-0.029347115005296062,-0.03502828917895553,-0.08970498627993528,0.03122176603900922,0.06632575942870086,0.13078047192725653,-0.03504909912314623,0.06770441208435583,0.022608429837759444,0.05555432370184115,-0.13302125064943562,-0.018842481562719178,-0.01924635846227756,0.12132981185657032,-0.004178152751620822,-0.08533029244479097,0.06316885720484988,-0.10317274823897905,-0.06143481316204314,0.21625340591564285,0.04732661251167764,0.07067541987105747,0.06529743020999379,-0.02731220263416555,-0.04106037615777735,0.07048970179355105,-0.018672585320720365,0.01150997533751535,-0.09782987601947421,-0.08700066534139278,0.06123042025499166,0.004868454254926285,-0.09922925882101008,-0.045918667678589625,-0.05783739163188253,-0.05044387870943752,0.09023742713291986,-0.06383731376066518,0.09153871539102472,0.030867956154541895,-0.041940552074110786,0.022259486804949696,-0.08906222155932106,-0.004776900245474205,-0.04416446209950241,0.06578050231280255,0.1703841676560151,0.15741809197571957,0.05322659259016784,0.024178409867346366,0.08064521924150073,0.1143066626163303,0.05644446549666662,-0.04504695862561751,-0.07612104798011114,0.03185387158065925,0.007665777299046894,0.07676620035116073,0.12477147759666239,-0.1389205360661511,-0.14340626009405594,-0.009578940988794226,-0.08403896676623514,-0.010249613222678523,-0.020963348038085822,-0.01735594417080791,0.03392106969993457,-0.06156083048639187,-0.09256707192722033,0.08253848074289648,-0.04552074051056209,0.042252982096212616,0.1949893705469584,0.15243574248591438,0.1735218171922486,0.17938537254474454,-0.026756438213994205,0.14792985624596644,-0.045254803261322765,-0.08174443623340917,-0.018652781696295567,-0.0531147940420774,-0.1479044984051038,-0.02853233238711428,0.060254749212064876,0.1547445328118438,-0.08255051805761827,-0.07549032060453643,-0.03280575086251784,0.021119701228274255,0.0019377940112710501,-0.17697907277062,-0.0003960644385109741,-0.05526877059704401,0.13895763321494145,0.07169633100149006,0.018899558978616053,0.01950925358088291,0.03688527249032405,0.13185346714694213,0.12135006896156453,0.26026179393133403,0.18141826271642525,0.15140423933163405,0.09134537988890128,-0.06030457837405932,0.011431660234994019,-0.04432669710461873,-0.11589194128134017,-0.12747249853542728,0.03141671349923313,-0.017141331952525724,0.13135097138071083,0.07170879299571947,0.16422463395826964,0.05066555176006916,0.021221389449366242,-0.08953196685135395,-0.006535858906496551,0.020369871624665914,-0.07791184518612039,0.04553374366211289,-0.16898338849311667,0.05400005881240962,0.033019589188886166,0.06080021294507125,-0.004704623934567682,0.0892319133478877,0.09041147034266847,0.29938272567260776,0.24533714564982975,-0.01373768340510455,0.011913506233752669,-0.08168826300645902,0.0038279330535755905,-0.07805506796898617,-0.07517515213009049,0.012309628723355929,0.0840874892130746,0.1417686817220863,0.1600702729041493,0.1695028934038826,0.05887135805061579,0.12461882197575722,-0.005918677122882397,0.08591845543571468,-0.045294379613982666,-0.11759578186239415,-0.09377259240363378,-0.08014062044577736,-0.002661903460449567,-0.05690457727967854,0.02259496687853595,0.14889466775204854,0.0679687934913907,0.2522365841269785,0.2985930421339599,0.08075850962460995,-0.16318390628377788,-0.11527107770901215,-0.11878864146554939,-0.21940118139285983,-0.05321174182330296,-0.06667917996378998,-0.0077924558398603395,0.10490278821615687,0.2459718273081718,0.3437875696581421,0.10478091936088789,0.15676842240850675,-0.012559994564487122,-0.06603519048444713,-0.021067051297474042,-0.04750184487859207,0.011307515031697619,-0.05243020839648011,-0.01534085916070138,-0.10656183258942571,-0.058799441200405866,-0.03189537518457806,-0.19302400666434893,-0.015048779524735077,0.03787686736143738,0.16226063218098957,0.1053698249715791,-0.16172272196982893,-0.15972195835927458,-0.1572757115631592,-0.15406364204037865,-0.019200619625703873,-0.018025437038797935,-0.0533001452022916,-0.06210775308871242,0.01951927598830325,0.22161244592089752,0.1429683727266031,0.07609341513541627,0.07840547800161184,0.13931486137160498,0.003798972691990313,-0.16059956404103903,-0.0688296656280361,0.10186561261912708,-0.017828345418501066,-0.03392788645159934,-0.1037137520238441,0.047791591606060446,-0.046209602002378065,0.06189347799934872,0.13864537274182906,0.20111836776967273,0.1022517264638117,-0.06554320872846814,-0.18871760225269893,-0.2634864293891713,-0.20292554477026373,-0.21814368742291715,-0.008473831161194855,-0.10576133619743702,-0.005892189222633185,0.1357747402383662,0.22110674241280298,0.22443435223750643,0.17616320203990773,0.05045744723064159,-0.10596369391429758,-0.043733785160774905,-0.0044087371689739445,-0.09513412123333741,-0.02626026564057233,-0.009966444326682481,-0.0708587573846337,0.034812633020380984,-0.083586886150292,-0.06362559145742243,0.03418012231419607,0.04269014742830178,0.12825455660849597,0.2026343739099564,0.09109221762894057,-0.22632945511917638,-0.2539237509405333,-0.27082926405445285,-0.3488568666448724,-0.09034354945428524,-0.045350599768528274,-0.055175054060388445,0.1795870616761217,-0.04083598835188247,-0.06370148462665537,0.0018959705927660477,0.07444596510985252,0.0017160563616400537,-0.0977007606617389,0.09392616830388469,-0.006935698429050504,-0.16135526412141515,-0.030860918022742146,-0.08528470932547964,-0.03880825351271346,-0.06965254046396549,-0.02612802411856398,-0.02450628774146369,0.014404752790422823,0.07565804863898228,0.33125112506154264,0.21013639547593269,0.07514744054073969,0.01113154535054226,-0.2110667457986502,-0.23781595931232055,-0.24242537980409978,-0.0019183866190792377,0.05839366799202822,0.03795609430184035,-0.0009544630887605384,0.06154363789356354,-0.020800596514018454,-0.10894704370265614,-0.020021158012499127,0.08910051192777216,0.03391954848618064,0.06145040486595483,0.1278833622620686,0.14322445818322355,-0.03968595275967345,-0.09546844090249922,-0.012517617097271751,-0.07445080162186672,-0.03899940465386491,0.024413373453619328,0.03767320481275691,0.15406070964173652,0.16565318281970734,0.1059718468464484,0.052267006013314625,0.1340777978643827,0.045751332902378324,0.0772988214241298,0.27685036406501057,0.2668059444484368,0.16862710175784013,0.14448476976544802,-0.1740653294804059,-0.2341139208233664,-0.21707389665173124,-0.07981891933416617,-0.1068193829328859,-0.007002094808322927,-0.048844103790095655,0.07784381581310534,0.05504056719999537,-0.07640111367169561,-0.04416348421295802,0.026977679945131672,-0.012171065993420853,-0.15646858668166488,0.024138118218066253,-0.05807128224437578,-0.10739896093278756,0.02456332628061424,0.08974733076527601,0.19193213529083858,0.18968841307969878,0.12571059533200005,0.17137446865479428,0.27941593451057917,0.28880230454523237,0.3695629254600231,0.12629243700359122,0.054596883921242415,0.015153392121847995,-0.23538403611042075,-0.2060091677685118,-0.13373204133330582,-0.10824909100546987,0.042870646964392904,0.1302999209491188,0.13604371231728768,-0.050042785462368365,0.05282847961037036,0.033312562418279054,0.03028473168178835,0.018980135659741413,0.012387766798077354,-0.016181545545894994,0.07771802578134443,0.05880449763741253,0.025551206760949845,0.2291226998119911,0.16858347279656358,0.13718167598670908,0.1638211865652506,0.35018078652403606,0.3154631504474722,0.19294918424913698,0.266839504016259,0.3150752984957111,0.21814834454454873,0.044931522595199176,-0.0789607390344972,-0.022903523851750866,-0.18084495444619436,0.024689558492377455,-0.07284743000651525,0.07092882416244736,0.12623338450195704,-0.0005482628942099226,-0.01186939208088418,-0.022204499262567387,-0.01816655350726618,-0.041274310652805776,-0.01716259672759541,-0.003528343026100625,-0.15551378278113256,0.0444419736981823,-0.0007944855974135847,0.05816988314940791,0.13766337823604083,0.09541539157705611,0.17941052735656474,0.276251219948856,0.18630911231885441,0.0708943581598626,0.17458474351163333,0.07624495511252777,0.062439436173036114,0.1497239099594338,0.1872470162334759,-0.027586136593270374,-0.18623807517904514,-0.016533408836279406,0.05677145181288551,0.17805796490040263,0.16806621482939177,0.08269259756832277,0.07538952651871077,-0.016900171781561033,-0.0010475791004275173,0.06975719578066522,0.005661625344467982,0.024090191480666906,0.07850451579481327,0.021441345260503474,0.06073442163619542,-0.01072623747399907,-0.0264110876892731,-0.10716400233545431,0.04333180029538164,-0.030680969737606208,-0.22410830919138652,-0.04450565241236222,-0.03897638808803361,-0.009052757284218426,0.18800447766820919,0.18518275533413173,0.09854666011539392,-0.041888889426872175,-0.05832643745633223,0.09231354337491228,0.10435701221427464,0.1271350062319244,0.058897072620292354,-0.012144052929555647,-0.06659024637009123,-0.11494245122799271,-0.009735035263407524,0.03227353992514732,-0.006534129858220753,0.09741631000261457,-0.04450294056837413,0.0023314243926745456,0.051725698066253406,0.06929503938810083,0.006383253894232969,0.03377646614138622,-0.12470308525304462,-0.12369907107623951,-0.047444529267630854,-0.1445945524121968,-0.04995639365181024,0.057232687403042645,0.026613867934749576,0.21735928527636905,0.1720865706446574,0.006717991627471914,-0.04252258383738642,0.11465735808603403,0.08399311759193645,0.14958094181725362,0.07530981067854488,0.06774875006040633,0.032318943255877884,0.010161600833119037,-0.18221315376284278,0.013532401522339017,-0.0009142326794251555,0.06574360310331132,0.030988715220837383,0.10658997332377823,0.02034574002200088,0.1441245156950027,-0.03835606178897227,-0.05763934854940893,-0.022054843481087324,-0.2729264247663739,-0.14445728035323774,-0.046000640741309044,0.06871299200059201,0.03228541417396084,0.05176159447584321,0.06568363304208091,0.18183221405344566,0.1582514258945588,0.136134389464025,0.06881122468422739,0.1277061246705234,0.12912111488955116,0.028950536230275953,0.0066804967005429814,-0.016588682067713533,0.019574173500147764,0.05052321210421497,-0.054762862678406916,-0.08587148074466139,0.017096328061221994,-0.005588964215503799,0.13293051361493013,0.05236894612456818,-0.02621112843728867,0.2660355454290388,0.05621165584735206,-0.07913611620090776,0.03547284296304473,0.08569326545641144,0.05980945947931534,-0.03691676583781829,0.0016617944991050388,-0.07566111942493434,-0.0074413928177460625,0.14604775742378598,0.13273285969102963,0.17787119002603177,0.10694744837892449,0.11674152646627102,0.15002714104424103,0.0450533041554461,0.05725609274339549,0.13779514830648418,-0.12170595739412794,-0.07635071351286113,0.024768077131130956,-0.17856763713826765,0.05435095222881697,-0.054787042825890364,-0.012014479756232937,0.09483777820051104,0.05732746959950489,0.14586389069152933,-0.14462778268024426,-0.07599450747984611,0.03498725817816455,-0.055931331653558625,-0.048670053386503896,-0.09965534325924873,-0.11745849469105867,-0.032619790264754485,0.06779372755377051,0.04998569031469815,0.17876824230447916,0.09990166661180909,0.15799819103712764,0.09707913710458155,0.13094583689331227,0.09823467896136258,-0.002649693348337412,0.022377640916288716,-0.10881801963394543,0.017448459134366063,-0.005181955189417311,-0.05351823688166679,-0.11733105672599142,-0.03713180944820285,0.01086979774163779,0.03514232120790365,0.01959343990331511,-0.011307524294608153,0.030566750912944647,0.017150645643836702,0.03178527522043499,-0.016197309734919365,0.025600856264058357,-0.040173904132051234,-0.004455225039432512,-0.0990773271017056,-0.017738927778969186,0.07662540461274216,0.15240308751400491,0.14208428109161408,-0.10463867241510763,-0.03727265889378609,0.0007683085199782134,0.05237500913175828,0.05751820059275887,-0.15777592121858483,0.01780252910130622,-0.11661652934739036,-0.014981284035259038,-0.13122273233165516,0.018678798990337794,-0.049684881838624795,0.05510546579943126,-0.03334222998633236,-0.05332271942878195,-0.09073135102541785,-0.09086082488947254,0.0004669897070758923,0.06723632302614828,0.07581755664864975,0.015271741468511721,-0.022026336881413432,-0.09620328468449475,0.015460659081823262,0.060009510692597114,0.1718850860326057,-0.029095112294626285,0.08488758209675129,0.020626375310849942,-0.05652894590304238,-0.000537539358819679,-0.014363418332575947,0.0891929730991367,-0.11054918030758297,-0.09646253725134322,0.05634809260899038,-0.06463632464221292,-0.05585873421580866,0.026511502294242806,-0.05332875212834228,0.02583719513193731,0.06264294998482142,0.0023096883590171613,-0.056707479707516564,0.1253165028961872,0.11051411281658492,0.0664511269754496,0.09645784339367669,-0.10576412878179936,-0.14455211898202092,-0.11109794604666091,-0.025628685088804264,0.025912773255016185,0.08873682865558143,0.08403525009803446,-0.017010711768677824,0.03466187133403024,-0.0445892159961235,-0.0401145313262675,-0.000640443905898941,0.09150481672336107,-0.11576730160880226,-0.13546971534458332,0.0077989360910755215,-0.03300221954289857,0.026863725108194687,-0.16068862831500827,-0.039311400499838396,-0.07838408543626138,0.06510843422209599,-0.05307268963068678,-0.026738413515323998,0.037715543488062594,0.034260451102918976,-0.04395074087856951,-0.08014233762074344,-0.008975443028322263,0.013727422745261786,0.07915304822937157,-0.021470377077858826,-0.08488411556990035,0.033246277682963725,0.021660695381639367,0.03778048229625712,0.05141497972035146,0.010752828349716302,0.06667824467116683,0.051004877455167026,-0.046662155373154476,-0.03550727132902465,-0.00912934655320315,0.013559138284655537,-0.2052161984165606,-0.07187570364325085,-0.029343486955201847,0.09942563223158582,0.0014684858783943306,-0.1265029158560857,0.010511584480292739,0.010363762193389244,-0.11206094050234347,-0.014682088771996503,0.004490807581667856,-0.09842819062704425,-0.10987806467222418,-0.09052077451499159,-0.08343070998251696,-0.06013568016155628,-0.08701398627690447,-0.007497613617858273,-0.027557872398131834,-0.01450881599631922,-0.03315990252338186,0.14631231141400575,-0.014315740527301585,-0.04180629057410642,0.030294964113456408,-0.08076360352803218,0.008596317380716445,-0.018850955704592488,-0.03451388123920375,-0.02537181576783165,0.020162682568346517,0.04554730384988771,0.1424530884025232,-0.0582421514826698,0.045357351567468576,0.04333543989861416,-0.05694071460899639,0.039913197696930997,0.01606028168271657,-0.07069407744339229,-0.13134630457541682,-0.06190135364766099,0.02766383171707959,-0.08233224101971977,-0.06175495696337015,-0.015015990088283731,0.010092433034576097,-0.07825749974397082,-0.11216188346040364,-0.11779051800055103,-0.0331852143847624,-0.06387477932045159,0.06531467796124545,0.04712571522655859,0.053295774175170695
