0.1573281455711509,0.057533173006179966,0.09356388407797236,0.0598506638031466,-0.06326788663368117,-0.0013210269844723677,-0.027777007672447798,-0.06376230148172718,-0.001807225971369203,-0.05071088803198605,-0.04198700012282113,-0.028842657430377214,-0.0385221707450651,0.0827821893127475,-0.06700478197559642,0.02898589533930176,-0.03308584088264678,-0.07199437101607833,0.07785369374322507,-0.09850686256138155,-0.02077665924851438,0.0937242313878994,0.05723796743323842,0.09333215577956766,0.035516028756772205,-0.08196473531671343,-0.04862169415972957,-0.06391066784447637,0.0012653532104296011,0.07509662425164404,-0.09506719920045958,0.021166009464579763,-0.09919450674883229,-0.08678803003460513,-0.0934562242217223,-0.01965693795357866,-0.08125851703887181,-0.08975301039139517,0.08948869559552701,0.08482886503184099,-0.04947042706972459,-0.026004714306082713,0.061131662950335716,0.08235694965203545,-0.08380269253969662,-0.05056044779657313,-0.07730744750403197,0.04195430519661377,-0.07430474348372218,-0.039229559853475975,-0.02262976154642119,-0.030334338310583363,-0.07449393534210128,0.08650298238293114,-5.48065022276667e-05,-0.0577792136403003,0.02250096768321383,0.031935964415350154,0.03186453427359481,0.07345062160977607,-0.0818997963556779,-0.07285487629657816,-0.03557371983219085,-0.013089116168309163,0.057285156014011164,-0.025617190731976727,0.019985512723319065,-0.055475595474677716,-0.029457782791752287,-0.006971495212652493,0.058479510446666515,0.054407454976280176,-0.09635159817996512,0.00029373677738957373,-0.002269495469295713,-0.0773549661694274,0.055629246155919174,-0.07612212242241292,0.03470103688210306,-0.04498638787500939,-0.05767445534402679,0.007909248812758417,0.05159821905804532,0.039956665176254735,0.08913849301114729,0.08825295239213202,-0.02123863619295112,-0.017201536518679277,-0.057583911009245294,-0.04350925439025522,0.03171498117105895,-0.04910378290309847,-0.004714555181129535,-0.0318556537786344,-0.08062712824269345,-0.09083420432897203,0.05989670548661574,0.02749218784034605,-0.03025036843415378,0.06877731069948712,-0.03845962954186707,0.0035546647480641557,-0.048294551083039046,0.0015492791262842177,-0.047333892342716205,-0.09283189543446453,-0.053013455204095734,-0.018942555627654224,-0.04370607813123653,0.0963699509498576,0.08335964461619945,-0.09218481093092079,-0.03317862119933167,0.04385117919622433,-0.00976073628757573,-0.060416114404433625,-0.0455761232976751,-0.028480475658432685,-0.04340111140807165,0.0369911688660388,0.07867555596855955,-0.029288122136909144,0.054567531969558006,0.011943564274747019,-0.049504226660653156,0.03623611063787502,-0.055691186309861106,0.05556385377013297,-0.043906950661589624,-0.06606598534755168,0.07590347728824073,0.1060572407107867,0.0230567343968701,-0.02358985019698045,-0.07918945999148043,-0.048809496036974306,-0.048813733665993134,-0.0013767243468014796,-0.056701166595947594,0.003739840179847576,0.06243087342553274,0.03208858490382219,-0.04693686621592113,0.08293131094624415,-0.09429607551335971,0.005585702739641675,-0.04753180611872487,0.020955675130314638,0.05485986329387122,0.003228148641644414,0.00768660653152077,-0.03383407197141323,0.10898575516800837,0.06064076072962148,0.09167857740135536,0.0639869275447126,-0.0273049843191722,0.10908009958337302,-0.0392105559860631,-0.08251079032660957,-0.0843455407278586,-0.009372402181673782,-0.06618004171254627,0.031472228693144116,0.08101027169288492,0.03791408034919208,8.278365087317484e-05,-0.034164037417880995,0.02118579116531412,0.09305102277460606,-0.09206575021698474,0.01050372174539428,0.011934645157241216,-0.08654561798815318,0.08620453209253146,0.08496856115465283,0.03445557900302876,0.08347398570286643,0.11358114906728844,-0.042651452663198086,0.07849157537974186,-0.035474557434583796,0.08165585550967089,0.09805015958032522,0.044573526503465064,-0.0023156764388892574,0.1242088817824794,0.0018476226934126614,0.028884647264633787,-0.02857626322561443,-0.013107250816040479,0.051021433981203165,-0.019046659410042858,-0.0230838933744625,0.0021182630905870192,0.051188016831320966,0.09617246078100376,-0.07170260821206215,0.026798947336470123,-0.0221313457795924,0.014672376582700854,0.07315113784600641,-0.05404374825156993,0.06038372777910787,-0.07842364528596715,0.044581742387494,0.11058522120576428,-0.029299080767020667,0.014488466816714533,-0.02274861804834044,0.05147720394672131,0.09223121442026246,-0.004853386490883981,-0.016299746083116493,0.02032219482266976,0.031683300900351145,0.10737895259709682,0.08974163970056688,-0.08721001886314356,-0.019832915925888893,-0.04771931414959776,0.06497837514125337,-0.09604050219061347,-0.06494415902843874,-0.04687793336206047,-0.08451141512872988,-0.07422559849915211,-0.004505404073848989,0.08646757721426757,-0.03326205120555814,-0.10069097694101234,0.006609718835910298,-0.05814066955158461,0.046748369524083344,-0.045520240283624495,0.003158672717455723,0.08540829786023245,0.044430929819831946,0.03882118778766142,0.08572344197996613,-0.016963277863865697,0.06641128453000629,0.028523444072755685,0.020782202367975244,-0.015828081607749272,0.09273995910026661,-0.0443319457741102,0.08593560697036776,0.026266394953105985,0.09679290749856623,0.0968272884273433,-0.012625505888657055,0.046068384180283334,0.02693042684176684,0.025454498662073055,0.016868061720408015,0.06854709097032187,-0.10283114232637382,-0.08641283136022351,0.03542659806595768,0.06343094454738488,-0.06279585225739572,0.022985373090413375,0.09289679173656969,0.1086893825049164,-0.0033479718261272755,0.093615352267326,-0.02969163140523307,0.0935364548179696,0.014271001949115509,-0.02290741294077282,0.09209545153524323,0.04793918872912049,0.10421982894581902,0.09971252979751132,-0.0774148057752799,0.036535950196065335,0.03333195085990788,-0.0753523365524927,-0.08698385482142656,-0.023348256728347196,-0.015367633321305777,0.02809875283909201,0.00302771218692819,-0.026455252146791196,-0.03146957250949642,0.03659855139761503,0.0484525563834098,0.05496053788042162,0.08650299717941291,0.014083477329662985,-0.05253186550193535,0.10112934791957925,0.0188067537358444,0.09341074723530776,0.13426525637896677,0.10700097250704944,0.12158006655996377,0.050378876643097203,-0.01960201237177078,0.11980548561116322,-0.04704822328456877,-0.07052982058665291,0.027342390019294192,-0.07028793773597866,-0.08524220757441008,0.04827834085066467,-0.07557401414007553,0.044057239604024814,-0.011901333701454974,-0.002917732953020311,0.009672673781999274,-0.053316582610223616,0.06312452373330352,0.08244810412355169,0.0499313359021874,0.009149958157202504,0.06278717059928025,0.04364387182549688,-0.005100079087190418,-0.01498513842353264,0.05635333308247763,-0.04901569553039518,-0.041264122629934466,0.07874840815025104,0.08270930179295313,0.05820087207623168,0.05151497169456011,-0.041063669114538626,0.08838257415904849,-0.012185715166995802,0.0461665979415734,-0.09534321935560054,0.0051867916275592195,0.07671946792317168,-0.07565459770831039,0.022206313823223196,0.02269875395494461,0.024440150463830638,0.04836182610575199,0.07188119244234457,-0.06078277738692572,0.09104051234037566,0.08946816570285603,-0.0010839901057267622,0.10562641496590025,0.0543330737165843,0.03598688397991401,0.0074318106512054035,-0.029734287151337222,-0.06420593495989244,0.12630411857572116,0.0010436203389155483,0.07312211719154905,0.014340518590073858,-0.05360382239293354,0.06947624844507319,0.05818251670856183,0.041987603957494145,-0.05824030430143953,0.0013312203803687779,0.020678348366157687,0.09743405089073782,0.08151537346301035,-0.02253468086761561,0.00916078410825808,0.018700130732248407,-0.06667012790043261,-0.09090070232134416,0.04891584748318026,0.05924933847238093,-0.011993875809473685,0.035556975604596114,0.08582522656970454,0.08771692164467325,0.03434934734451673,-0.043809595962867154,-0.012753675123979435,0.12038847267733427,0.14789356571135484,0.01435155412350827,0.07492748630424802,-0.002611210036148458,0.15052293423582913,-0.06722779381269031,0.007656990020039369,0.0888897118769814,-0.04291569427460118,0.07100132781407051,-0.07160872109557044,-0.04967010501466484,0.09985969755033923,-0.03519022029619949,0.00501508860845363,-0.04458206992827787,0.043612980505449296,-0.0022433176529048646,0.0967881290408396,-0.03063247760260752,-0.049186857997467505,0.033950518735065625,0.010168675386711935,0.04592155874758894,0.06919497777415008,0.024294262890026144,0.05429437573899951,0.14312013001570167,0.12547246776506946,0.16629737380943996,0.1188305658181905,0.031671412917582034,0.10035661909784058,0.0041962233764137715,0.08612986460648812,-0.0704383080391868,0.03320425798980328,0.05533561417305076,0.026169523432771673,0.05119193386829802,0.02603349832447618,0.01267488465576485,0.0013341130319328627,0.0667131726356451,-0.042566523819901565,-0.049242906375495166,-0.036433668777751727,-0.07120440743597775,0.06824014826932709,0.03386909331228045,0.030104925767181222,0.014090241296481933,0.05841834055309389,0.09389039841521465,0.0862974762189016,0.048522679433033636,0.06696612417893102,-0.01844287865123143,0.03573306655178864,0.10415041276248611,0.12002918006506823,0.09710523866469312,-0.05796894268042317,0.007171800463434848,-0.04203546022122277,-0.02433106514734966,-0.009231316991052983,0.05248263582422011,0.08885053344890888,0.07174375281432405,0.03826160199517443,-0.06782446866270254,-0.09772033429676924,-0.07769512118737772,0.007953655288011946,0.07713151050724226,-0.09154864821346109,-0.03440284905852348,0.013951490549787763,-0.025370821913398817,0.03172683750557334,0.005043895182704714,0.10244630927082207,0.04491541785526101,0.1604803384739752,0.1278992421694779,0.0856118117607778,0.05623510834530342,-0.04384434476080555,-0.059461983523918654,-0.04257393393568537,0.059021680862221516,-0.041171272440877565,-0.018865599489515307,-0.09220674746156188,0.09930876117852928,-0.0018877350755106346,-0.03440580193131799,-0.05499731415043083,-0.06397626473025608,-0.0474412479485841,-0.04583836610687919,0.048361077662250444,0.019617925596511845,-0.0076866899729668035,0.034491760055467856,-0.042314382919685,0.029967967984742987,-0.0033081572309542014,0.11264807238431594,0.06722082278289877,0.11967769927234655,0.16620128505176968,-0.0009045576641425434,0.12881066636124924,-0.012359552726565979,-0.03792910602812037,-0.031998753081111685,-0.07249569360238715,0.10713412787836472,0.018002149288917867,0.029000104799551667,-0.08479725428965862,-0.02158052658455703,-0.030011806515267157,0.0729076188061507,-0.058078339560637626,-0.09417238284351595,0.09674668332276347,-0.01830588235559551,-0.027979017818356447,-0.02749705656143522,0.005064698021790682,-0.05003441327226836,0.062468396118804205,0.08875214216999323,0.08591521979368566,-0.016133760772097692,0.031444776447707046,0.06554498268208378,0.09894831216730907,0.13165397170790816,-0.0344498292783756,-0.016676089057462623,0.08864535694451292,0.09005074654502031,-0.0029366956209539207,-0.0447670180351991,0.10914772594486069,-0.01840813593054118,-0.031600836192954534,-0.06795453340662075,-0.06330961098038174,-0.02664649079443706,-0.0702046264564551,-0.006661181537059355,0.08192328439735494,0.08296269184926726,0.0012558854701414856,-0.07541624683134747,-0.05553849860400787,0.056799081669137,0.11990346369576024,0.12304286503685515,-0.016591587898969334,0.10602714827344194,-0.04103360582568884,0.14915163491212888,0.11457627899843872,0.116566859693202,0.07890405895671258,0.053752616391895554,-0.0635036359057508,-0.012589358728781029,0.05249694259646594,0.046823116768742894,-0.06838249857436733,0.07463655650286416,0.07409712602685219,0.019340697392233222,0.0329465539443519,-0.06895090476554622,0.00846436027641409,-0.0393075496563347,-0.0781270908244502,-0.06911661740740238,-0.07291198660931417,-0.0034690600597178708,0.03641024182920793,-0.017178125893030707,0.12348661669851616,0.13311684920851113,0.01692112320708111,-0.003281817303728133,-0.0002924817608570185,0.11307348536670708,0.029647511469509072,0.10226789399325738,-0.005915107802372709,-0.01987054416173744,0.0687940107250216,-0.05962400875677563,0.02512747237795857,0.010673570865293724,0.022629732388335606,0.04638559353030276,0.0348090987642259,0.05905157263904804,0.05365002180171627,-0.09293344837789069,-0.055289282602911174,-0.0639602301874606,0.04029842579587024,0.08360800301538548,-0.006302787058062955,0.03128825289835807,-0.04878828393223299,-0.08272735714586818,-0.03884054750488678,0.014838478487739115,-0.00020388439824589965,0.1279539230741399,0.08743265802618265,0.059844386981705334,-0.022072881833872772,0.04833888739071017,0.06316066060331654,0.03633300850084853,-0.04613951271585011,0.050028041574269044,-0.07706893309279349,0.031075692897972202,0.06354043153062933,0.06160348684656299,0.016126894641680396,-0.06404213169423743,0.07055081770658506,-0.09377378125868957,-0.09816081597158574,-0.06794514764063717,-0.043477568689151584,-0.09013308157009173,-0.08084936454941072,0.05915238058101536,0.08982051921989401,0.08155956250551577,-0.028450733078264148,0.07424980055140959,0.12347813372982057,0.10069156536594595,0.1241981984121632,0.062244639939479054,0.004584214819747148,0.13563812005676243,0.021122586953267908,0.10608251832541167,0.09942030592648794,0.04983889000820522,0.02519865598123288,0.001647882755834749,-0.08356382450819974,0.09699754868712103,-0.09006267377589167,0.04352754466621843,0.08620571025615807,0.06651300475366015,-0.05507389857991274,0.05250377318229643,0.08737088064585069,-0.05656641824785444,0.0710034707610386,-0.05212409150923591,-0.09849900942845724,0.015310619252285279,0.05991894412443019,0.06583964258577216,-0.012745987571881234,0.008648890665626904,-0.005963264702156622,0.1414872520405604,0.010326584739847652,0.07059442036294501,-0.0776528352450022,0.006353747526973628,0.08524987365258997,0.06901780108029847,-0.01623352245525419,0.04241819498802267,0.026802866735707306,0.04213301780092399,0.07159125293554292,-0.014522851423944482,0.0908504568676165,0.010027355261545495,0.06455886267464322,0.08818310413534308,-0.017641474147964957,-0.09877079720434176,-0.06410913966661368,-0.08032880642203888,-0.012171838161245306,0.047189786892743064,0.0275509390796483,0.0958204084808563,0.08481648883327728,0.07179970442781217,-0.020500737788229063,-0.007685174097695165,0.00030448489070908716,0.015514200681694661,-0.02302546398350139,0.03002304188360511,-0.0716608603789535,-0.07124939452006167,0.02968685241471861,-0.04395349656520964,-0.08369572764138392,-0.05338706816695951,-0.09511370014038435,-0.0610666947421212,0.06300332762312591,0.09588076038125978,0.01844619665355443,-0.052836180432540306,-0.017992430430924067,-0.04025301663439724,-0.06949359577330484,0.0492878306771925,0.06480527095070689,-0.013847076923725742,0.058835760070317884,-0.013443615374415678,0.04911890989469763,0.06158905452760208,-0.07137671791781969,0.00926028845494757,0.018848051129856973,-0.04861222353209748,0.055890385129194864,0.09574350891410355,-0.009107652944876008,-0.009064374333085639,0.03340955213542546,0.03774092494939778,0.0063497604598972135,-0.03569276863260415,0.04390381155260603,0.09592122505409913,-0.014532496461932198,-0.038810244104584314,0.0166489836966726,-0.07829905164306519,-0.046827743386112224,-0.07771433564861033,-0.009913774397830479,0.09649073253252252,0.023610537398211884,0.06119578854632812,0.020486699250607043,0.0665611062795318,0.04026324601607282,0.02555459227781107,0.021280920413567026,-0.04170561699720713,0.014052762050787194,-0.02193754377858429,0.03980589916395905,0.0067685748013568215,-0.01528968177406965,0.06737711362797197,-0.09569447272740636,0.001192554405763333,0.09575869723202665,0.09305680720839779,0.08823079385593131,-0.0908999759174353,0.03754486057479678,-0.09074582247663653,-0.06684820502447204,0.04432225348118485,0.004540153460607724,-0.029258305781831903,0.057805526954449196,0.04357593700906172,0.07107825646559962,0.07605906576673045,-0.08192690065539791,0.010101936606183002,0.08453614738527825,0.00396592328367235,0.036155652759500126,-0.08094844282043978,0.006161178617795955,0.0961754504425886,-0.08226032506387566,-0.05159900739751899,-0.07052229575694054,0.0030179216203023262,-0.009536886875368501,-0.09208288594268296,-0.08291144715454964,-0.08098246457059304,0.09555569358868785,0.07722679870516747,-0.017200881569321536,0.039325743594196216
-0.1982598204378059,0.05716925302156939,-0.038413382204543094,-0.09892954474123716,-0.013144574291985206,-0.039238074935273363,-0.09141905606340156,-0.09690280113452639,-0.018314458140237994,-0.021204821552213704,0.050560616209994746,-0.003150482435183233,-0.03266849524137437,0.024859167695903527,0.05438936554944124,0.04424293879819892,0.007551674382173311,-0.09550013332838547,-0.000997679591683981,-0.06425935791818557,0.004831679443577805,-0.09590028444727901,-0.08341024347795173,-0.0020330030567836666,0.07822135977831698,0.03185141456127322,-0.08617020521147611,-0.009746945031001306,-0.06210013855168346,0.018904853249998993,-0.053331550105661374,-0.06034088579857433,-0.09960945496314018,0.06277968118648501,0.043792488758393124,-0.02981376738833813,-0.05778456839927204,0.030659895436283512,-0.00629943365803574,0.043506035651955065,-0.011491421088565504,0.03761757410154937,-0.047582713226434675,0.03287210448748716,-0.0900093904400642,-0.03746442581508279,-0.00747472058175698,0.015007398221729468,0.07622346874594055,-0.04948475497796883,-0.07337016902946414,0.09667791424752914,0.06878483692355,0.0016713091416632186,-0.05739099415934521,0.048082660245089726,0.0723767308343378,0.040543167356111076,0.08607323843805967,0.03873226403166647,-0.012690557304296786,-0.036240589186039,-0.036317147538320556,-0.09107168518476709,0.022874927139466057,0.027660181702716898,0.006048339377860487,-0.051285844615396516,-0.09125272547056451,-0.002347461788342972,-0.02484977634631641,0.08629656578528257,0.06974445399313045,0.013983825037183819,-0.02274188239961969,-0.034301869172201925,0.09449512455702751,0.052392340648848665,0.0193479656114057,-0.009938591136119205,0.08641706669645623,-0.08255526180489559,-0.0126165224154824,-0.0328292175696078,-0.0951525335456988,0.054154965237610236,-0.04552557781896818,-0.03701301767560265,-0.017225232431010862,-0.044496852894586915,-0.0320528004755753,0.04676021859887448,0.06595179680038996,0.03603537222173719,-0.0009812874589975517,0.04625726121750859,0.014545238793730595,-0.021198277965473265,-0.0665107012804657,-0.0963245483269612,0.019032661804283528,0.07254487785905694,0.011393481727087538,-0.09279210124192792,0.08043519648413804,-0.05989820198465357,0.03115593666191862,-0.030939609466602593,-0.07728051971839074,-0.009821376960673917,-0.0637819801196636,0.07218820904130913,0.047867419736798006,-0.03582372850847848,0.028629437644531994,0.041357616715286066,0.01182770568829258,0.06483618386627461,-0.07751431003099399,-0.001932248175380418,-0.0813880219906857,-0.014603323284488389,0.02788599854680801,0.004600426914997227,0.08028295165153468,-0.0777385340776582,-0.015522855409665422,-0.11815824343670785,-0.07820514598277295,-0.08675187661277309,-0.00241575612372945,0.012605111902744916,-0.02077114426720433,0.002626397438308957,-0.09999706265727556,0.06038366237419785,0.03941639179892773,-0.08901707180046996,0.04252091156914978,0.000496092470248424,-0.07476292279401485,0.05686859858788315,0.023026044839981427,0.028101612195842427,-0.03909849982247229,0.011292224494919633,0.038207556970385276,-0.06915371048248051,0.029537311245977537,0.04099878131409107,-0.07636262948999432,0.021142358973919965,0.07866385298456113,-0.09995281888621642,-0.01151424920252064,-0.0783712841546167,-0.07133666781713312,-0.039795653530255014,0.04118785206822705,0.0189878424702003,-0.11669454528735483,0.017668014972708746,-0.07437043053297632,-0.06039670482526034,0.04093429232933758,0.032635987919018235,0.008083455910818198,0.02951219231795209,-0.0018638822101538944,0.08705743700404214,0.0674097875042411,0.0018545618716467975,0.034120312059444616,-0.07241292294468715,-0.09187298335388518,0.04758169329216438,0.04308501792959676,-0.09337089182312468,0.01647514204565114,-0.022802175606510405,-0.09165400582201477,0.022027499537182204,0.009534661765474814,-0.046122987882144736,-0.041276453019167374,-0.011955627815991661,-0.07264039052258016,-0.052051003884190386,0.04285804045724281,0.06204990907521786,-0.08192409169128669,0.006708968739710028,0.0019461064877054595,-0.017465422897703663,-0.026169147832233147,0.09055795528558462,-0.07451082340630964,-0.03163513763732358,-0.0031226643481549595,-0.05584011527250419,-0.09648481748966672,0.06605062176782148,0.0015540682520387053,-0.051456386734662206,-0.0032916080045102517,-0.08209614849107816,0.018771631891192644,-0.0803617060186955,-0.015135307310272576,-0.15108132737691243,-0.08332184973053267,-0.10369933382747205,-0.131156510513854,-0.009203827702707697,-0.14354709678955044,0.03779974134662209,0.019663830979570408,-0.02565488645416247,0.02222287493244724,-0.07141971650175244,-0.06990395828262648,0.06601043245001116,0.05789628364567897,-0.01945962199508077,-0.06681156147062718,-0.0852354300723858,0.03840385970519705,-0.08875354604077594,0.04456362057574248,0.0811127800680272,-0.09255706150356538,0.08231708780944309,0.028568236067038583,-0.006585684567538992,-0.08544997617571559,-0.01906296004484541,0.01583548439402417,-0.11676976662017824,-0.08157904770323714,-0.022240817623420624,-0.1619710487667286,-0.05918865459910948,-0.12652538763275298,-0.12905346035408854,-0.06916429976830533,0.0679456146973022,-0.04239114185065723,0.013311696956377132,0.038467289068043205,-0.04191121862082389,-0.01966415245056176,-0.0036057658059544394,-0.029930866597661768,-0.03536542222544646,0.018464120985447988,0.07796080173552412,0.062137112150426194,-0.06590050778938575,-0.037257299517651894,-0.0680081437877239,-0.08326044469449623,0.06040189206351005,-0.14317095824475587,-0.037278670894209644,0.011404617494158638,-0.09596424659798068,-0.15037778573218374,-0.09081905907170354,-0.048675340724478156,-0.11429636748236291,-0.13328658183857106,0.03523375195247294,-0.024472921052881083,-0.10350712221222018,-0.11865193477775915,0.027163586067627043,0.006437640252967566,-0.10190110686693744,-0.09829761906397985,-0.034836895181015605,0.09749159735246861,-0.05544912361205938,-0.08770081093055582,0.023691106597412512,-0.004657174888579227,0.004510783972584201,0.0040566216120981385,-0.0675922112978042,-0.06865008352760579,-0.0671367854087421,0.032745792659455805,-0.0910239051195494,-0.014800719282214799,-0.02890251159967504,0.03458547388994143,-0.02197965166949012,-0.05618579369403468,-0.015018793783857603,-0.10425798118920668,-0.03253034523541984,-0.00010623686158114045,-0.0504161788569091,-0.039445695122616455,-0.020824051883199964,-0.027271036593995403,-0.07404768976238912,0.028863016726181245,0.07451430720972466,0.016746757475607287,-0.072887095372927,-0.006254908581832379,0.0965455345853414,-0.08568563613430255,-0.05489912624736595,-0.056973216393248496,-0.006200679610264643,0.04730598147044568,0.06062380235734213,0.058078956113901355,-0.09534010452958794,0.04081952636393353,-0.13098577810139037,-0.015336909113451142,-0.041147875899876556,-0.03357147769268375,-0.108790916644772,-0.10660271232369946,-0.06518523823892125,-0.14250313854185137,0.008778086346683162,0.005320400660515189,0.058677937292363584,0.06830394576794752,0.03272663283703683,0.057391744205429585,0.052961066890670636,-0.07393743793830398,-0.02315151279841201,-0.08129197001761684,0.039574052578300344,0.023660342558313605,-0.09689593226018292,-0.027993461544007,-0.07363068055456674,-0.09395763358319953,-0.04179381147434556,0.036158766285827176,-0.040322288791530894,-0.03634048062968404,-0.02961666294048951,-0.15726989798370664,0.00954884401642797,-0.1565640882313224,5.638833300921645e-05,-0.03174034871392527,-0.13934206897010748,-0.014832928751444673,0.04089173536022316,0.05569948881441182,-0.04201104830988769,0.07835113340879606,-0.04226911364453419,-0.04526992351554789,0.048388669401729034,0.03329918378706648,-0.017680520268581426,-0.061010518997601,-0.052153091030797696,-0.056908255769356784,-0.017090407553535598,0.02084461134604519,7.895622803409308e-05,0.07685472011246941,-0.10090242919504862,-0.07330979361628757,-0.09098900158059609,-0.04309956715114591,-0.004195129391473935,-0.13728154822287222,-0.15338764751836448,-0.10778042352613103,-0.030507505581100144,-0.07054410262761526,-0.004462796660818222,-0.09459107405442904,0.027131266075713135,-0.07671773974263804,-0.04978320845930872,-0.011213056152337805,0.004851829756174332,0.09951790855787648,0.07674335314463822,0.029782028211329054,-0.07464003819880312,0.050918429324856476,0.00977775262380245,0.07530404936179969,-0.09875266329938474,0.025251852521409518,0.04897371450965826,-0.11977766360725238,-0.00018288548683522402,-0.07067815214811099,0.05148478924925861,-0.12880075477915326,0.03221733218541442,0.012508264524232302,-0.14038858907950968,-0.04956538828126074,0.03683316908845539,0.01650705628428647,0.02271975926817015,0.017631828807073476,0.04700277708706578,-0.09343355239631342,0.08583444612515446,-0.06787542652959322,-0.07504447664735014,0.0766179373113497,-0.021694498722451206,0.06772570025232708,-0.026224897975344132,0.05018614720150187,0.08745023020997322,0.09218759966151381,0.013548311414356314,-0.013863758716410034,0.005816436449263844,-0.04934197861025586,-0.03905235067488061,0.027843204053537945,-0.120363707649637,-0.026852368443169777,-0.043681194296469925,-0.12490901049025978,-0.12635271118424107,-0.11731108238913796,-0.12372499531462737,0.02571812415934183,-0.05636596968058112,-0.008098271427054425,-0.07641398379312041,-0.11381704382110046,0.05878049028109572,0.03219895092859021,0.0032140441972817292,-0.05266915051132991,-0.017989376372971218,-0.08531879056276552,0.0695782217308732,-0.09554543205874572,0.026694549208469524,0.09938137271560597,-0.07402018532751041,-0.041896403638520964,-0.10439711265493395,0.07828277502439278,0.04186370661405634,-0.12959762608785885,-0.024578904532839663,-0.12193999617721643,-0.07317938002707929,-0.0810324978179672,-0.10504867497264171,-0.15259885789282898,-0.015670539313660355,-0.11298626599271164,-0.058528050972375754,-0.09517286874123213,-0.11800463491310541,-0.01551723314932554,-0.0929020967838086,0.08000482153937004,-0.05983520195979828,0.006401175642396722,-0.08201399239156316,-0.0719832343383636,0.08927685731952989,-0.0930368504683457,0.028408152088506132,-0.06455762690614376,0.09901257946198494,-0.06839605105085039,-0.0071090515589471584,-0.09235914546395615,0.020360790820834956,-0.09613208457428314,0.008870037410182276,-0.051876246418712156,-0.14016622944311344,-0.15224456671424957,-0.015465118884545525,0.015122868304174678,-0.12391791038825704,-0.10371803965755022,-0.05182530494302187,-0.056992779904975026,0.012632319602677662,0.001333621395255098,-0.07032316171516605,-0.08230019840948581,-0.06330190521372908,-0.07363010862183275,0.08530917709609492,0.047823263864979176,-0.06676149726368714,-0.0433476122782654,0.005341423847378514,-0.002072552631647997,0.035565176865245435,-0.040900133992186706,-0.060412177783234225,-0.09521416382739784,-0.10151673925037201,-0.020716087789725453,0.010408458173603651,0.020117388696408844,-0.02298670235964821,-0.1541014684262465,-0.0028601744356295377,-0.03443649195197167,0.007328953145846548,-0.06510481065732387,-0.12601485404217114,0.045284868299593044,-0.04215238055297703,-0.0995005520782033,0.07681397897622447,-0.05100164614001337,0.05203489200971987,-0.08293613224986479,-0.09276172824362361,-0.08875006462455737,0.09067938206685586,-0.05149047754427953,-0.04252641487969476,-0.07919855022961464,-0.06736653695458146,-0.05317510380895286,0.07027378191685947,0.007773970354175581,0.02895635343340986,-0.06951889272190029,-0.09641807109034081,0.030026322851453853,-0.025420982274012835,-0.12638703248830396,-0.019972225955790242,-0.010266953916055952,-0.07263340062632459,-0.07788822508506722,-0.0003968393317987615,-0.051713097555704246,-0.1022449579761327,-0.028679529655780227,0.05155354946514024,-0.020024884506428968,-0.005271700666106598,0.026609558375648403,0.06245549014333918,-0.05879192322279997,0.0034856464381853164,-0.06864561353249704,-0.06862049785165995,0.07349618638807041,0.028117233634057142,-0.05432928156048551,-0.0391083473759487,0.014222915969399688,0.005296394736164072,-0.015447278279470119,-0.10608323865977617,-0.04215620271342344,-0.0507538775088962,0.013918413549203567,-0.11257704573567434,-0.1361224993618792,-0.08612413959426021,-0.07875466012348374,-0.10366018628300447,0.057673811550900435,-0.06999021701078495,0.08286356624859922,-0.07144531312170219,-0.029720351088506305,0.09389102941055187,-0.012734273009040608,0.09131993675025019,0.04963765086789216,-0.0889757866352817,0.07633109362909753,0.045737393637707804,0.016851833570858173,-0.032697059372082275,0.08692789857846082,-0.07175223661765294,-0.041314637887898305,-0.12104284587509737,0.0019811852566358956,-0.12741978779830035,-0.029064818689119473,-0.1345911278364498,-0.0672477235284994,-0.04607171893225747,-0.03684618346888413,0.030446602472094415,0.014738876290758287,-0.02054375012358112,-0.043361284310833,0.06868143641658976,0.032090216145535484,-0.10004276595972117,-0.0073250891245813365,-0.02470458024552724,-0.008586577596258638,-0.06888197750339699,0.09868281811888412,-0.06369635594029646,-0.08001569931648757,-0.014847326685180566,-0.05476711383196221,-0.012475658575923443,0.040759661746606626,0.03250157947825631,-0.040577606686362,-0.09826423701160975,-0.0679159661323438,-0.04857138165663486,-0.015089598158044903,0.010436432554795016,-0.08698119339108352,-0.1044882327772897,0.022428004168064293,-0.09265259505767655,-0.01786420319904459,-0.06800999902613258,0.07078099358676511,-0.10031718488152311,-0.05831696508802743,-0.01727257294817078,-0.049109348302799956,0.041595504113802875,0.08584081606290651,0.07443927880626343,0.047651624281463675,0.08917333684844728,0.07792585231624671,0.01951682508173488,-0.08155167416657984,-0.08158777234963306,-0.02768640486084113,0.02366563834173333,-0.029394171299406614,-0.046204221689093605,0.0683331401464556,0.023527869472817917,0.04890995975592498,-0.09409533370906283,-0.056222105723944864,-0.01299414441275564,0.015637792776960008,-0.07846003214635151,0.03583596517142357,-0.08942382453845579,0.006611294707280588,-0.026952871956919415,0.004189258734809802,0.012117201372381557,0.08338666555777252,0.0028622068458722216,-0.037319731952063874,0.0815695286253462,-0.04990819500986905,-0.07224994125944201,0.022474461364813722,-0.07069006640906313,0.05620689420266133,0.020238539906669236,0.09794317396443797,0.054401296451972246,-0.06805563984921473,-0.03363104848307046,0.022541590066602033,0.03173380891769908,-0.01030486245751849,-0.028129851566873407,0.036833245308542734,-0.0823593486493986,0.05304720275924517,0.06982512841804524,0.0824270000998596,0.01651067381853665,-0.005193663705135553,-0.08784879943194698,-0.09791698068818641,0.08102714821105803,0.03501044733330529,-0.0705912927378048,-0.06405026473088324,-0.07169795592802677,0.06081411506301851,0.055774514252884794,0.0667502972678464,0.0025453649522040045,-0.010924264693931955,-0.082496212584499,0.08103050900019168,-0.0008360281776161781,-0.08789566037225073,0.053170180984332384,-0.09348632145369552,0.07313246302701715,-0.0881021397878877,-0.003163210858464799,-0.09151479118746182,0.04612559160977698,-0.08324053608058256,-0.08569133584034401,-0.07908713433997866,0.08937661274134742,-0.0031120826420749184,-0.010126449966316653,-0.06584210797705306,0.02895972325121015,-0.013446699071505813,-0.05470391178793589,-0.0905737551052344,-0.07445865094169299,-0.06351171247875434,0.04962304301109202,0.08708158395661428,-0.020993086987724577,-0.019886303342729943,0.08219330503090322,0.08499961966806067,-0.06413690946591138,0.06083105951155856,-0.019290436454869418,0.009688269512048488,0.09012157624242308,0.09010308564857557,0.011527462118193239,-0.040940120182365265,0.03363971099085982,0.031044353863275934,0.013735548076961444,-0.06285793977041135,0.07454198488366309,0.06165962944794393,-0.08520446632148726,-0.055320097652756334,-0.03707071227193288,0.09422114882685284,-0.03494473646671201,-0.016586797441274722,-0.02811597053526571,0.06266654560926982,-0.05082767879441326,-0.017732153520230193,-0.06293576277389175,0.006957100686922124,-0.057520999840857186,0.09389901752388467,-0.03833757476000451,0.012696654875615838,-0.08827155149602688,-0.0035755468162451238,-0.021771164106532178,0.03393491773343202,0.051879434610222624,-0.03738405768709865,0.08090781151269173,0.03630854067779593,0.0987805240887624,-0.07807958973857107,0.05708867505745539,-0.010203568995417711,0.08490491904656092,0.03236908625929778,0.03827729294191575,-0.03722103891412594,0.07972904171736495,0.01860982693837661,0.02170071234388267,-0.06060272100463729
1.3453350487971238,0.09409611140232019,0.06858309476825389,-0.07221933773702238,0.0802899864659046,0.06933942450996397,0.05722077284032975,-0.05483554302328604,0.00960493520957599,-0.07076209773653071,0.0038313059613209743,0.006832686104905533,-0.06777956043687333,-0.06966031171727781,-0.04701778900379015,0.09841037120553443,-0.06991847717756862,-0.023754160751516595,-0.06829571361401543,0.012790145263163646,0.03113685382515205,-0.08387975292937738,0.029827629795110222,-0.038308384468667224,-0.010867192062839842,-0.0223696388374552,0.07431713733375009,-0.027347042602820934,0.03333540513694144,-0.0876838222816671,-0.04733082427828997,-0.027725970741955888,0.01773068122562335,-0.000466754091407476,0.054455789614020936,0.05175677277705977,-0.09143439461957163,-0.07971722463034489,-0.00347210168253749,0.05883974035034938,0.05481591753401023,0.07581457216524264,0.059262620570249246,0.0025937483612729142,0.046122891336357726,-0.09716948448763682,0.05933739713155196,0.052432809755713135,0.053113031776121346,-0.05883602583802985,0.05874458306834605,-0.0018358873412296557,-0.03433833235187129,0.0922507616332354,-0.07953367581164475,0.039144691268384074,-0.0955600926021885,0.09184090437755729,-0.09288144465155584,0.06573700571619343,0.0014319575233248812,0.06438583158794602,-0.09008298029245598,-0.016475678879180545,-0.03190837910621045,-0.03497807222332303,-0.0415548782385922,0.07206622032199836,0.03615050545076355,-0.002650437041700624,0.050576834024903046,-0.002292419147636284,-0.021696098121106587,0.055665664622623054,0.047834320124425074,-0.018594435877656145,0.040909564177596766,0.004905733021532231,0.07030097477234991,-0.05531112223902342,0.0006515979762222937,0.007950880653839492,-0.0664992414315937,-0.09125802338994307,-0.011319187953792095,0.04329347806163289,0.011757724377712497,0.08698591429646109,-0.05445472465844461,-0.029418672398925955,0.0325313356809494,-0.030203784196543192,0.06304620697848486,0.013464325399639862,0.08917589781513952,0.06686239268955617,0.14893189819120042,0.05414133202720591,0.07371386803031368,0.10828064193676587,0.011179998368883217,0.05564672797044013,-0.04669508334046931,0.03870000914906707,0.0764504813375394,0.051083423614837226,0.11105308927903339,-0.006881897043851845,0.032400587224064,-0.08380858281407437,-0.04799077981511702,0.015582493683938709,0.09349897732302156,0.051844795644217345,0.09252558416629823,-0.026983619203249824,0.05315818800394303,0.06635692139140753,0.05568309112965382,-0.010502902255942272,0.04931287739908409,-0.008747588389711531,0.00482552347689242,0.10324623450285009,0.008897559095935896,0.06371095716243355,-0.0459727523358984,0.05118776150938171,0.026605304238665826,-0.047503857546572326,0.04665010117919916,0.1579789532569581,0.024684029043276236,0.05733753370779072,-0.025835458399027164,0.06053378898518213,-0.004122002737606376,0.07911316818404764,-0.024026610592945356,-0.061171913165883274,0.09530569056899955,0.0939964545596996,-0.04557488267783638,0.09241715257354034,-0.050917652025786915,0.03262570494527259,0.08941596660076756,0.0008351557154867525,0.002132317826887354,0.016798717760270532,0.04873477128422076,0.041232787190127566,-0.013075153756043734,-0.01888031358624638,-0.06244055853059578,-0.03913859524707502,-0.010515062650089429,0.0009291080649434885,0.08532836936971253,-0.09565849824549724,0.04690569392514455,0.03554488251353075,0.016943690472572263,0.02416914641895918,-0.06768803696121739,0.11786901356121988,-0.0623435168208644,-0.053044868864028025,-0.09631982402898312,-0.09819342439831885,0.037654649543904496,0.0211129487088505,0.030087458026691143,-0.04475553475789587,0.02123046308346683,-0.05249518146786621,0.0020039865022347526,-0.004923376163625302,-0.08980934506424662,0.005357549939067869,-0.023851001906367714,-0.008541997390004363,-0.0726144797699253,-0.05996942255021149,0.011921805130489264,0.08212336825712949,0.08211886496694742,0.0079156696718617,-0.01765459290795648,-0.055925535790920584,-0.026780374086569116,-0.09197511955265356,-0.07634622995155571,0.018974861684494453,-0.006079547136459074,-0.04527464629917981,-0.07583027502013774,0.07082200619529586,-0.011211329340019113,0.06980674208066444,0.03641774366303182,-0.04668776317633521,0.0013909264881565642,-0.018176483644606483,-0.00408833169793976,0.018140468891215105,-0.0059968699379083995,-0.005990111919134301,-0.06352267620301845,0.020429193023279005,-0.061653080577508304,-0.04282939413525859,-0.01289788342924419,0.08424135732038276,0.09034155408781387,0.06982375291164691,-0.08507743614913087,0.0066451619677633834,0.03483745837383878,-0.014534293625030928,-0.034132846303400445,-0.01940096075998604,0.039514347159395,0.022512796667065082,0.07407424158587222,0.04511548397292483,0.03119808716080014,0.011525933404757287,0.04653705616086608,-0.0013510547258011947,-0.017192456017582118,0.056302012768924846,0.003956799973433905,0.01643174749086119,0.049916783218205925,0.04971163617643742,0.03719750641791144,-0.08464544751532153,-0.027607276624048216,0.010752973346812352,-0.047200736548753404,0.1606120483959721,0.11321943503573362,0.061628502707952865,-0.09031831595656695,-0.19013594081739144,-0.004135664866715576,-0.010482612272019807,-0.043625065662622045,-0.0191203935310708,0.002626498498873547,-0.06945275364452723,-0.05461097876111911,-0.044931522938608234,-0.07004293761589885,-0.04320672031439461,0.03425287408422448,0.028477837718184896,0.016494680930217144,-0.044458674828032556,0.05130627491607968,0.03848338499350462,0.1006627124489564,0.07628236182050678,0.043117425316752264,-0.03689936541720467,-0.05663422095164354,0.06720099128621601,0.06490540440765212,0.15513451892469354,0.05659319515680633,0.1331352750636225,-0.001349165541900459,-0.05232276867371947,-0.029204443143200885,-0.06686729370351124,0.01605749512783098,0.09259178003421173,0.01655473289519538,-0.0812413952309236,-0.04054044568194405,-0.03222874499248648,-0.007418770109422065,0.041878028392041425,0.00330210804380394,-0.04786338701551225,0.036367750355560606,-0.016755985920870343,-0.016098978474851963,-0.01975120192567956,0.012636647048755632,0.008263987457061587,-0.008298095530506628,-0.05219544435541396,-0.04281506851774087,-0.045400070693943494,0.02295877463887177,0.2137864167330977,0.11659893734936787,0.14982687057924562,-0.05411763773631383,-0.07175960781182697,-0.07623633291154194,-0.005351836328856205,0.013760798440605243,-0.012243607143049366,-0.02870415126551477,-0.06801728190358226,0.07757450380918537,-0.04230829219173105,-0.0013437491721991074,-0.005609993118552555,-0.02656093117848896,0.013220647988953314,0.035644137856732275,-0.02510928369695295,-0.0832922252962495,0.011294817793198332,0.07515160690613075,-0.19755527967925673,-0.0843157922800419,-0.21005243393458367,-0.07253563789717717,-0.09188732373501723,-0.014229035269532859,0.0872451649439531,0.09497748755864228,-0.005782227456521671,-0.09249075471936756,-0.006136847770487432,-0.04542629154105464,-0.024928737520852146,0.055610776852871,-0.014495149459214969,-0.04802612113517451,0.07919351723615561,0.09252137630683155,0.03849374867581139,0.057377720705145116,-0.05491252328311911,-0.046040626286054695,-0.12447096752910765,-0.05101276705516703,0.00446069615974155,-0.011091770728110881,0.04370953160379606,0.09338799119100341,-0.09494938033263937,-0.1252313980628974,-0.2673905090498516,-0.1456844321736262,-0.12373363920050372,-0.05160757558003961,-0.029333068576208716,0.08533350274739951,0.03154622883488678,0.07856620126531692,-0.00423159094613325,0.009894978509105895,-0.05994959535278659,0.04612180304222648,0.033564632946510346,0.041907638814371054,-0.02987884233927239,0.019175308950601204,-0.053555047712094225,-0.0640045693198318,-0.020914452296883157,-0.040276157578455735,-0.032529895387418996,0.07170861125914375,0.05697647894247251,-0.009444078973837998,0.07121446174557526,-0.0403042923912436,-0.14881363327392166,-0.23263228961673668,-0.2517904494791877,-0.2792739004059665,-0.1257909906000546,-0.033969993552049736,-0.017832163948292783,0.1341916398207729,-0.018942657986904195,0.003243501754299255,0.011644346137666142,-0.08271843877692293,-0.02789063092189438,0.14493173792799102,-0.09159841056176546,0.01408204600402509,0.0215169383856537,0.07995001787672933,0.0792688489654774,-0.0447354404987477,0.032421170038888066,0.09380873142898076,-0.06089743567812792,0.02407830612790192,-0.005687714379380676,0.048125852296814826,0.06749598779729273,-0.04041078707219111,-0.16362382816924387,-0.33271320733534765,-0.3466246144056227,-0.32184294239534084,-0.22170620142729933,-0.09554588509762663,0.012165519861434798,0.12645459706614914,0.08528730437816322,0.04800947571258573,-0.007364354054813591,-0.01653858352452275,-0.02693893585873737,-0.10848931278995207,-0.014173836604440158,-0.06734427819480308,-0.08204008106361249,0.011209478793110503,0.021475106075654546,-0.04544852458753973,-0.025674392534625584,0.07689513666940671,-0.046455284247531446,0.07439096593039847,0.09782075574507199,0.135346936242015,0.07858431304535186,-0.04747075149066858,-0.21526827990588862,-0.20057027671169203,-0.21373553522761368,-0.10129374208991503,-0.16509714114473278,-0.013081677671592254,0.060089729717225,-0.0023586970936112783,-0.039104875930743535,-0.04465550921217012,0.036582402500260035,-0.0876442738020666,0.1080695661666905,0.08181541431199042,0.009066743680488544,0.022912244815960638,0.06707146608318522,-0.05096492346841551,-0.03190445936025296,-0.08435225163834711,-0.1007909470747668,0.008002686280692303,-0.09703179119055377,-0.03809305395949386,0.057674223492862886,0.13816608878767406,0.06854036683054407,-0.09899479022763803,-0.1386387712368359,-0.09198636803554734,-0.09793872782093367,0.03803035319435055,-0.023037213343240732,0.12701530594499263,0.020766115291042803,-0.04257215665684515,-0.0693910105108797,0.03888113946462167,-0.019924189729502825,0.08227198511136909,-0.013335461448846477,0.002053341369327913,-0.029919935734423832,0.06090177379069811,-0.0019056156897980685,0.01621882867122993,-0.036396483554761064,0.003437467554156852,0.0786574528685286,0.00261894011064499,0.026639434145941,0.03998623841627986,0.12215794398394576,0.04754529925521033,0.1760353162611237,-0.01986962808996098,-0.08205476196608516,-0.063798014287286,0.004501924408320718,0.13680861100250186,-0.008485020868301642,0.0763766583438173,0.01219610515711323,-0.06034919022274312,-0.12160068191607365,-0.12060307276421223,-0.06649045374875567,-0.07866994876600213,0.07312827447817877,0.00746223624014274,0.04459600650147148,0.010249293378767373,-0.033283395850460015,0.05764893683311443,-0.03398809391692668,-0.05713032974805136,0.09138427874336183,-0.07943265017923541,0.0338258114814796,0.13395014838172428,0.0258854641979264,0.1024408129123722,0.16015621043778205,-0.010608329907344788,0.037635526659251906,-0.03650264398457023,0.04075063901484232,-0.04352930938925893,0.07366050046308198,0.009501868004344835,0.044478632934271935,-0.020286452455319515,0.008852646579382504,-0.06674298485113518,-0.07161756814428143,0.021529479966816416,0.03362559158078177,0.035964994164304764,0.0016138897692133428,0.044372310701574595,0.03842445534166112,-0.029025836879741005,-0.0979320575884637,0.08874888979036406,0.0244164426232233,0.01111135660821115,0.02447688512505725,0.004872170793591715,0.05159559755122852,0.0708436793806278,0.08821713196296943,-0.04964756255302524,-0.021382415225920718,-0.015602805851033899,0.07188613706196641,-0.00406160563346873,0.029839294622084057,-0.004215664929307046,0.10114188478503319,0.024872813258127593,0.017025170811106605,-0.05664632109613501,-0.1242876868072552,0.06892194910232974,-0.01090577642500779,-0.007458251145233249,-0.01908557172651957,-0.0168340082379703,0.07188137804627241,0.038922264877076285,-0.014692386596990278,-0.03535431726633709,-0.07860242357618151,-0.02927533310788066,0.042634739722425485,0.05096336054174382,0.1416680534440912,0.06942415325813756,0.015910795390321197,0.013649579243543595,0.04648787382332928,-0.007209008038635847,0.012715628640164412,-0.007151783746186285,-0.12213940697170479,-0.02703082962500595,0.02430212255819067,-0.0395014906873539,-0.05734687807281076,0.11336179928740046,0.0953900377629844,0.01986988523291536,0.03145986458432943,0.03810955635315219,-0.01522882900003501,-0.01796997672213488,0.024946588378119198,-0.0014336035363262051,0.09314419428870994,-0.022936350959663048,-0.05777370080693285,0.07679546087053453,-0.03301319717682943,0.051028756514819515,0.08038991769946795,0.06768683235433741,0.08765430241699652,0.10381530882166659,0.10728706933965343,-0.041877807420620174,-0.04340117449721107,-0.04031979537445379,-0.022331346666216514,0.000721011578929658,0.04759267424965971,0.004431457872835859,0.04464477371168534,0.06108707196770699,0.04870303426609856,-0.03213895975592021,-0.07994399703572515,-0.0067871577604917775,-0.06315881916807708,0.03780310184515415,-0.033279200196900005,0.05027231910661702,0.03171722464768209,0.0459594897652795,0.05732182156138129,-0.007484271676693077,-0.045679931739131485,0.01797385475710468,0.007163159886835861,-0.03147504946817741,0.10681672468732144,0.08656181143411533,0.04776926192952694,0.010432142699494893,-0.16924813863099097,-0.17642390215348577,-0.16174075032943963,-0.024946068737553822,0.07096076674523015,0.07319744342965838,-0.14079468420646338,0.07394298073589928,0.005048016377054318,0.11802882094702294,-0.09945431777400712,0.10616188334686184,-0.10986505913625078,0.06147196121934288,0.05664443824080192,0.06039614988723202,0.04911875166505558,0.02039922221534582,-0.08850757244781489,0.026560102148931626,0.03756843195062204,-0.09272488874719446,0.033375989120031424,0.0013917976649450638,0.0418129804938667,-0.0003111920840676492,0.016584683427350987,-0.09702389405754644,-0.11618641920084191,-0.15717019167241997,-0.12414626774326412,0.009879316869167164,0.064287530322565,0.07666538179163133,0.0005237639917103515,-0.07190517173115263,-0.0006741601443745408,-0.058803859935043425,-0.04129597563523442,-0.01784107407545518,-0.0025585556574023085,-0.03358408838597328,0.05494893376163138,-0.00351467201884878,0.019883963638057597,-0.07769337027602655,-0.012040768181092069,-0.010428655630053005,-0.004383497720500961,-0.02715113765819426,0.09595546110648297,0.04535141577861984,-0.011763271887160837,-0.03997034541780138,-0.07266493922444989,-0.08330950521695057,-0.11701972256848914,-0.10958758999385991,-0.06576546154086585,-0.0010691890379888084,0.014496602876008336,0.02873726748181735,0.0037274180044916953,0.062109470784899735,-0.09552449035046513,-0.029773084457734883,0.08367009263738116,-0.07821400317346267,-0.04013276027359488,-0.005058896864932967,0.07988703177060538,-0.09100222169206158,0.08785963796686769,0.03434793025588612,-0.03198120292175889,-0.0408381696130456,0.002960955658928514,0.03577082182857518,-0.06765395445412793,0.0858330839761681,0.10545538821804346,0.01780302590877125,0.012553526725394061,-0.04188965546374519,-0.10887466556072943,-0.021706642673030463,-0.0910843447729365,-0.07323887539440613,0.009911174033347835,0.022324508348699767,0.010723952135412383,-0.0643787992991359,0.0041299901704633865,0.013150769236338362,0.025770589838324955,-0.034867345405800415,-0.06504725364063425,0.05355786484746337,0.0847448178024155,0.06485705309328715,-0.0457688657500662,0.002613311888628206,-0.07186388068737411,0.051963209244356975,0.06538028242567706,0.023040052317406967,-0.0056285771483039915,0.03308082700583625,0.008318637825354035,0.048780762799523376,-0.05105653619355967,-0.06711827394866698,-0.014559473847384572,0.009176846924174647,0.00337361501254877,0.004953363403671286,-0.044611311905995724,-0.040744770378937444,-0.04434332946051518,-0.04241713442308575,0.006976424987819181,-0.028529327793595433,0.0714906275688615,-0.0026656212306949687,-0.02670427469488975,-0.042589077641835935,0.061751082728881745,0.06050823949701367,-0.048944713981444156,-0.0701186522006362,-0.009629633402767082,-0.017842971892212248,0.09805327044245542,-0.009668474442395063,-0.00217022880885088,-0.051702749712364625,0.04165833934843498,0.01777077392603325,0.08203181131195356,-0.03046669974695911,0.09278312045177534,0.11076706202424734,0.06414941423384724,0.06852626840998904,0.0009614752077935884,-0.02361556451942696,-0.054881107819826365,-0.014958977562678886,-0.022754618126359146,0.09556366764209258,-0.0029311921738459676,-0.04728817283686555,-0.06450833654383033,-0.05435019427510879,0.04223264748430727,0.04663354418366408
0.19397644426374275,0.08477276986615634,-0.03126875178919482,-0.08224825535803931,-0.07534681924675726,0.07013436203259965,-0.04315720203629658,0.027547395707346434,-0.007366688908762756,-0.07360442197939093,-0.03566768674384091,0.04783546638719707,0.03605755154807097,0.09377946113281452,-0.024847837299485045,0.020824226082707183,-0.08701159612772245,0.08853279894734237,0.07266444235821753,0.0812291929010423,0.007150011233389125,0.08377259277087518,0.015142515950652108,-0.011099698583171572,0.027821844404625207,0.01819363278358263,0.03234497211210971,0.03098423017666671,0.0494610284995915,0.015383400665078234,-0.09231541270283017,0.024057216965225975,-0.056401184900864924,0.023612636137189322,0.09709299711238556,-0.06474536721162528,0.0732968493720564,-0.09477533990714418,-0.06395018705618613,0.0929563920725481,-0.08477535660620683,0.026534717506031986,0.09351189109465148,0.025443909133410308,0.0960452868419454,0.06993755927567293,0.06824298759860326,0.028605930630353917,-0.08131246340956502,0.09633892189337913,0.04691575019438577,0.0019344657519772416,-0.03652088799834172,0.013423403523771762,0.02355112584436174,0.03955051588815228,0.0007379432328795954,-0.047648892432739155,0.014316462155363058,-0.06645101530188878,0.013700123605192873,-0.04704618935263147,0.05694090357694222,0.05511425028936574,-0.05015501803336927,-0.03401230580523665,-0.03774342348812119,-0.07666670509809781,0.03662426316405717,0.02191022666497506,0.04946545880201686,-0.06948163249086096,0.0012545169372607642,-0.051100732447991376,-0.0699816978268618,0.056942723858244663,0.08078066303275584,-0.09671107264455772,0.06301864432799141,0.06707553913561792,0.021573605978844,-0.010270265174622668,0.017217926047694027,0.058051296361268795,0.08175291494608672,0.006713674488386626,-0.029060235026113587,-0.08619672583791446,0.06006636904009513,-0.026827976363807775,0.04575790469216553,0.0814856961645576,-0.05835345078239194,0.06496431126872106,-0.04505744422790988,-0.08986495446223093,0.08361182168426765,-0.008193990333142795,0.035400381699097774,-0.07757306899097895,0.09229008800153388,-0.007300188307461783,0.007041004499967236,-0.03297457472788385,0.009024498526307314,0.06350966829602508,-0.019050564344992357,-0.02444503815941148,-0.0816588961559059,0.08761300129860712,-0.00539795534871351,0.0470278371290716,0.0979319168708776,0.046876433426429276,0.013071534010728322,-0.07039342796252325,3.0137187304665304e-05,0.021900437696582935,-0.09947314821834152,-0.01629085523335084,-0.024956545627222763,-0.0897029697988468,-0.0052246501417275585,-0.001180091534298988,0.01323027922593543,0.05002277690057896,-0.05378265958261296,0.030862550533871682,-0.07104018099157446,0.06690467689901705,0.05404878914238467,0.10752633804363831,0.015468260901266932,0.028912147166311738,-0.044004858614988804,0.07038249789829847,-0.0007245915510688351,-0.05348602053885821,-0.0726146351772907,0.07653414097628304,0.0357964025879757,-0.07958047888620655,0.07215207650972763,-0.004826458509338373,-0.07076930054429685,0.09256480206998126,-0.0034236138173500243,-0.09634520034357469,0.07853746685680957,0.03681281923083647,0.055338657780125214,0.06851285225408384,-0.04670363144900172,-0.015238946049490656,0.014218049060404428,0.14101896677147518,0.13879418012412392,0.062077322030211976,-0.014305898068351305,0.07127439488004615,-0.04685169433191716,0.06574394659835152,0.014082217507226859,5.371261966018513e-05,0.011843095928558318,-0.024003642215573825,0.07169021743032124,0.09556411601903458,-0.07913071836772716,0.010259268862567589,0.047212874286148517,-0.01606867146803819,-0.07338867209605854,0.040974086085736466,0.02523753935453289,-0.04655632775993942,0.06220309056674458,0.02234921057175459,-0.023820674294821036,-0.02698102585955141,0.06916591001571198,0.13140853450975876,-0.04795915801557477,0.04130542123493412,0.1446191067753177,0.061160389774307176,-0.014316452526499077,0.006724919419242792,0.0970043183019878,0.040967682426581935,-0.050604385709447766,-0.0065007737015599365,0.09255625788439195,-0.03757314992821179,-0.007534517810624587,-0.0689265380974394,-0.09717078221691104,-0.008052137496548558,0.010071804831679736,-0.021608245771532888,0.0822779562401532,0.04630013734979189,-0.025741251886189653,0.05337744963303149,-0.02616318152016873,-0.025293317228332404,0.09506339909245473,0.02097264866007332,0.03792291004102947,0.06367259885766002,0.10665771086962776,0.09848636695915611,-0.01517828606270941,0.05760061594278127,0.03622153511175589,-0.024496061155554163,-0.04904557424106256,0.040054885402416376,0.08287202054312962,0.05920517869019258,-0.014313308402366755,0.08862154577807081,0.08466824040442862,0.07788604105515037,0.019170788477872867,0.09613878044418557,0.09077649948142935,-0.06821560186757769,0.042759084832287804,0.07942043317571536,-0.09048289359475026,0.01564616248123345,0.09213703480493537,0.11240242105488316,0.0643524818077019,0.13583536391958395,0.09512715637622501,-0.020264601927235937,0.152466289241261,0.02496915746031851,0.0001585814889931742,0.12631368631428597,0.07853044952021596,0.15044201490648243,0.1040495642739908,0.07430192274527105,0.08773229961913326,0.08278583435340045,-0.00958787315398315,0.040133887138768226,0.051836014105971516,0.04693235925152032,-0.09461615849885759,-0.022891313113173706,-0.049977365624597786,0.044340854473708134,0.05251663410415399,-0.04887985104836559,-0.08073215944004,0.10495262578939114,-0.049958401876672345,0.11868638367219672,-0.02145595866438455,0.059589180952937366,0.0014718483580577907,-0.03945040989922684,0.0028370483928037283,0.16332620115017077,-0.0030516258279473896,-0.017670265345983763,0.10899750850507903,0.07543982060076185,-0.04478962354302317,0.03193982145659329,0.10274587954432358,-0.04483641834862304,0.09364112293836212,0.02135965295219021,-0.010234066424126892,-0.09427885665472356,0.06964422871867229,-0.09467764312914514,-0.03407797788357493,-0.05788948680709647,-0.0920937155615401,-0.05253685158808684,-0.06887306192584615,-0.058373527680758486,0.0624018945249647,0.07947347855822194,-0.030886758401748433,0.08098524272144772,0.0033515171891774307,0.0008010755422594181,-0.021645100979990835,-0.021268257712020948,0.08255504352974873,0.15784436182004094,-0.022858239166919852,0.04830673827331726,0.08906244604259542,-0.014166261715729715,-0.07690106820824509,-0.007895453489002079,-0.04733809175899078,-0.058773009159591855,0.09991318602302263,0.008208234978529523,0.016300863013881485,0.014715429017272345,0.03640454153505265,-0.03440998252835496,-0.08523632650596158,0.006027362978029941,0.02695202580373179,0.10419046428572976,-0.0020807734096235497,0.026805916879538816,0.07350476372613793,0.044064103825264093,0.09873786024294173,0.02866039608592616,0.03531592647393925,0.055083474169614365,0.12375273384611225,-0.005881610867146755,0.10894615316214032,0.11765712624547818,0.03194717382625,0.07532671331892886,-0.04509166655753765,-0.028876885080660542,0.028993153572131967,-0.037071445567816975,-0.006928640964030067,-0.04528688936619738,-0.0886514353003755,-0.06713990618544013,0.057263029688586084,-0.01574889737383879,-0.04470575712014992,0.05764029771548649,0.07879367131554842,0.05038044551929167,-0.034897494065535495,0.029014686422370404,-0.0351408564227066,0.05205839616073593,-0.02377547488199318,0.10219745016866205,0.08510223403636989,0.013334102723823717,0.16559032284541217,0.05357052358370994,0.06251940409717888,0.06079004993816534,0.05931630810365875,-0.0685091136709305,0.09484040837930058,-0.020130382993232315,0.09293619499712139,0.016473831112886122,-0.04068594939633482,-0.044083084220739366,-0.025940596792941063,0.030577704056177112,0.07610617755822703,0.028785371424334696,0.040243010699565346,-0.040797566804414924,0.002971626532666098,0.056072419834006244,-0.012875826209940499,0.1003466496989307,0.010301993350744163,-0.020131715664376656,0.11977020129380314,0.09867219537386744,0.057947812662917535,0.04101190957643853,0.04595068902235198,0.004372214946063253,0.10734622062537652,-0.013559726033394847,0.04943180250461608,-0.033552368293779986,-0.04964676751235922,0.0023583684053545403,0.025059695456513827,0.017850859733012463,0.06054720301804439,0.09944975634433867,-0.03824273073509688,-0.0980987954163873,0.017506651075564806,-0.04014846555576854,0.05705753499356943,0.07279796539696103,0.028762843954942077,-0.020435350332404626,-0.02952188870539634,-0.07073709643917388,0.10503876999199988,0.05050396637266346,-0.018508845853099042,0.00012627531202671598,0.09211431629516198,-0.010614239064274516,0.15134692185405849,0.14941928910842361,0.023711706980867792,-0.046012184168580654,0.036969382310478846,0.026695663818705976,-0.043503808329528215,-0.022701725693240683,-0.018634497723382083,0.0017169023843679862,0.07924136809940721,0.03716181217373202,-0.07030415748335242,-0.0536946998273674,0.08609539285048758,0.07108817278019748,0.03975085620895633,0.09603435101812899,-0.0028142191173375145,-0.0754906371743166,0.07515451296082529,-0.012447747870638825,-0.026634064503828648,0.12899750158799658,0.032345851802721946,0.1200885812240548,0.09135057854033246,0.10127455783558864,0.031045722059699896,-0.01624491419355831,0.14331231284874205,0.031500050822402904,-0.01825371183558773,-0.02636635345929457,0.033885378435472686,-0.06572003804701247,0.09284673787357826,0.05740108684413208,-0.06190627567817565,-0.030296624993249723,0.00039405986540452787,-0.04512271211415696,0.08347776469188682,0.09403822212341742,0.07335380956152188,0.07509426268896308,0.05931318652657774,0.007837634281821129,-0.030843788962508188,0.07043410735138544,0.10126852240246519,-0.053142190023972094,0.07705963500147701,0.04533849011213419,0.16713624964547114,0.07272225375906073,0.08449736769975837,0.15057795269802302,0.0714026644868779,0.1212962627859777,0.04482921134489878,0.014254221352507718,0.1120937884534693,-0.05894587474887577,0.007654081779608004,0.005321936269545729,-0.07947442055602726,0.054899678095141964,0.09795339771995802,-0.007254141873153028,-0.04841231802124586,0.02142689333692807,-0.03448170737237145,0.024851160939679623,-0.045930950346710624,0.05921629742224225,0.05990474949650092,0.08121501259549667,-0.013017736361180718,0.04071184054144214,0.11636856782549618,0.06894117029567895,0.0920950150533871,0.06043658023017715,0.10961608104458401,0.039297403536973134,0.006265148457053807,0.10516907729467609,0.0610102120002671,0.03629826917792771,0.012681328044563475,0.06538764199593276,-0.0025225320236883235,0.031543489485606785,0.03477149884821606,-0.024588416235239857,0.07837887900090285,-0.02535977342325398,0.05271424135327915,0.014727811864060138,-0.07224383534602125,-0.05194508844900927,-0.07235646475977918,0.010731126408895444,-0.0012173078547271909,-0.07329035863496963,0.012725263275523204,0.002211601046194162,0.09588035310121557,-0.0501192247015546,0.13710258072177364,0.1582442719294734,0.023604618991100314,0.12452117768428869,0.0845741201900442,0.09373461006090125,-0.016769911745787014,0.06437167977475819,-0.07733254778071541,-0.06748141880684937,0.0849589636371406,0.05817409510402524,0.04494206110155293,0.019905119868869697,0.0647822300446504,0.07192158337863891,-0.09528401896890795,-0.05130564469602118,0.07732564186574273,0.006840661449990881,0.09275483445621356,-0.027449465252790545,-0.04203113870123328,0.09324433824341577,-0.05289789566896654,0.08463701565403742,-0.027278917554428513,0.09288086862971714,0.033435372534111,-0.0012645103292593753,-0.01508600224291875,0.007172123865951238,0.006207296612963462,0.06188900533136471,0.05543462928754835,0.01096385301486169,-0.024889878580734708,0.09487774352131369,0.0015006949219599419,0.012455235903789346,-0.07609223540288351,-0.08204690043781245,-0.0780883172317263,-0.07575431132722268,0.03125129214559368,0.026222173302940292,0.03025368973630017,0.031554484773895435,6.530764729740523e-05,-0.014293181729244386,0.02042666576367091,0.07676009937121123,-0.003330882729563462,0.09910147404273326,0.13148456970295463,0.06545854048139305,0.10137986390160829,0.06506858450332263,0.10601608830852989,0.017913206900122124,0.055953411021893384,-0.0024504411521219975,0.10814069415505348,0.03152053197930457,0.012223927781329963,-0.018491471682280703,-0.02586588801138836,0.002709784121656725,-0.02713832717824438,0.015152966200409613,-0.014806407570019752,0.08326945454289192,-0.009040743886424524,0.07098489462518907,0.07098538080331607,-0.09443814966100247,-0.07082901566847946,0.06949042339171961,-0.0053979753768505865,0.01038717275874806,-0.0513623876511898,0.03807903076463636,3.692019853545808e-05,0.08131177127652119,0.019007642247821612,0.13162234227795197,0.04730388034228502,0.010097757243592896,0.07146627660564404,-0.06574709459836758,0.09738627440502474,0.05647773982030111,-0.0822517174118094,-0.03285539240347903,-0.01256733184116578,0.04012998942395983,0.012872673948260553,-0.03946769214422375,0.09600321152607368,-0.003043709543912787,-0.007594424047914894,-0.035425485316660406,-0.06485047624366015,-0.0549033657508453,-0.019371105614070665,0.05285548819690338,0.0456068429651931,0.10691358659474619,0.0492215659787108,0.07741520314894848,-0.0060125607713959256,-0.035392950122579876,0.1463407363761464,0.03345452672232414,0.08619346462362892,0.058368696242321855,0.0006613090049854936,0.04315880827206205,-0.007227896412419871,-0.06077772934181312,0.0884657217496894,-0.06568627912008677,0.07909181602428655,-0.0586509361062956,-0.04738204444953623,-0.04035040002883395,-0.0948211307642814,0.011159963602451084,0.02808824030802473,-0.03854437731141891,0.08601001989182382,0.062134474479355294,0.09082830198262379,-0.038108011643565365,-0.020812880815506144,0.09804221502533918,0.0518320283685079,0.1150943738564694,-0.045755920353668086,0.08456843449913183,0.1563489821639961,-0.00020456661182321903,-0.03393657651344305,0.09820173612083861,0.07480198231883901,0.04293833824804889,-0.061870579068695475,0.09517289491561988,-0.037260628193951824,-0.031238206378502824,-0.04536743414425522,0.009615741043732303,-0.05779696715286248,0.048665855819555986,-0.058033141671125214,-0.07823842699817266,-0.0966495947822357,-0.07196452187599513,-0.045798262109495835,-0.03988953900916402,-0.05179454526764392,-0.09652857921188168,0.014882234245930846,-0.01884861941416097,-0.019504947319368807,-0.0763314708197156,0.1160535136465816,0.05426261788062149,0.04352934263848142,0.00030458456271430256,-0.030577593379546315,-0.07417536564717887,0.002144857613022687,0.004900223569694619,0.09942341368035063,0.023177270607836534,-0.008900590863413688,0.09031888422616316,0.07919396902740486,0.09867477481749494,0.09198355089133108,-0.09297804549566789,0.00496049352399415,-0.08934805443957634,-0.01307441663756656,0.057947346724993895,0.03318354993667178,-0.08100554964934079,0.034713303478812026,-0.007934545632291764,-0.04774326730750308,0.06704061445364526,-0.051742811768728275,0.08985811763513739,0.06088322002056292,0.08157529568961343,-0.0407342813562572,0.09103217157062247,-0.015671335228332202,0.05348467272081471,0.08351732879145675,-0.02694368783463267,0.0379196439891453,0.03324193473389609,-0.026190287075132126,0.09092939138795461,0.04431661290016243,0.08002025858783951,0.031647202894204,0.04406385685550279,0.047618214323164015,-0.060237446477412276,-0.07374693406785278,0.06640619549189661,0.057081289352584594,-0.042417096292779094,0.019835961081841887,0.061583858146227494,-0.00013858245061115779,-0.052830445963886606,-0.0802241482483709,-0.05650884385053726,0.032240314702353806,-0.0864065002780301,0.09513421777456132,-0.024635287650725216,0.04112734013581156,0.04412488872610598,0.07305542001193979,0.02450727282695051,0.02292232572904788,0.088086945360902,0.03021897472640096,0.06074552978678616,0.0964007060837749,-0.07532686461903321,0.06880478115541643,-0.03672746187441851,-0.011946406706653659,0.04173713743678842,0.03642571259022517,-0.027948000899630773,-0.018211493836335385,0.09563405113022466,-0.08118725089140791,-0.06500006838804415,-0.06633338814053483,0.029621601665840196,0.012746271919426426,0.014271078559489865,0.006130556029010461,0.02818175663990653,-0.077396115578994,-0.0654743223199765,0.05478439175664684,-0.03298785686502719,0.06801791674098123,0.08000880059696275,0.01437422213545221,-0.06730418917450676,0.027890915325935912,0.07727839450545367,-0.04328444233507549,-0.08826108793870775,0.07265213043447788,0.06591430366351692,0.04554476250865
0.140197336882574,0.07295852461056082,0.04892588366294509,0.00015027355821613242,-0.09607785416589337,0.011250814646221935,-0.04393688083355021,-0.06745403925352289,0.09492814563252477,-0.024482572388620796,0.0478488319990939,0.0036573520266708764,0.010338841645592248,0.04438261421695447,-0.04451497090849128,0.058971269127253895,-0.05369026643586204,-0.07967127871467855,-0.07774794824368414,0.07585995782392957,-0.06649386653607267,-0.09720183963077796,-0.0323819473248088,0.06707844759324008,-0.01089937315096598,0.082297896793011,-0.004438293568214208,0.01293964129197922,0.03400891920404464,0.051160591540931166,-0.0908491211586692,0.028256916162109458,-0.09892344653081137,0.07475303130756675,0.05385507998150757,-0.09618313773800188,-0.09193254174831902,0.07333288941013832,0.027590327498548266,0.0541671754525191,-0.07520309373426715,-0.06464289962707058,0.02266790340792848,0.05086697134358735,-0.06859578516722968,-0.08415029725628272,-0.07410332158637016,0.0003507063156724259,0.06578225556729658,0.05204339438161022,-0.0837448798774948,-0.07020285623412155,0.04432100174901407,0.07143844395342466,-0.0070344364951163,0.03677758900923289,0.08720285428793789,0.07446577840126614,0.08607284932203443,-0.04783836083909409,-0.016665945174313336,0.03408563951678383,0.08406173095052102,0.085127542285817,-0.012197739172143396,-0.07165385216225596,0.004569137864886308,0.01951050849310091,0.06162095708133273,0.09328012637073885,-0.08371003443858344,0.08863349378639808,0.06751456084346287,-0.007756297172028346,0.07170281538336698,-0.09774319594180729,-0.0978538294038593,0.002778426008495829,0.012792949046995744,0.06556893409837075,0.009638204888955249,0.07384558699772885,-0.008616489223149915,-0.025833006822848795,-0.007831517636743682,-0.04273659872323643,0.06673354544369417,-0.0650338074446835,0.0272790574349123,-0.010020241903185812,0.08539187033977774,-0.04458209055847862,-0.097341972170932,-0.07360103461410512,-0.031990754958838366,-0.04543660034885302,0.01656852912387544,0.09825178698940212,0.06589455331781877,0.08304141482633602,-0.06085749008276866,0.05426850415668624,0.006720103053399261,0.03253945191338025,-0.09248540035282767,0.02619389848207597,0.009121668236902778,0.021315385069532584,0.01287869377367334,-0.033197856954716186,-0.009029533227990431,0.08438187494871997,-0.053802303351214345,-0.048519429993071087,0.0818201810056377,-0.048033070700713165,-0.024776738786115096,-0.023782349249643613,-0.002532187061243537,-0.08470098670654959,-0.03380898511999395,-0.09619354057011792,0.09934727032670992,-0.07240783500071886,0.006993602486064124,-0.0807762571659614,0.0938615428734217,-0.010366437646800963,-0.020181562560753753,-0.04282724067721025,0.05299621393013107,-0.07391209249825434,0.09522549779305499,0.01915698765280369,0.03110138272042164,-0.008744826445860556,0.022691582327270733,-0.02263738702516204,0.0369059745108958,-0.0811196516604231,-0.04758018254948634,-0.01027034661321205,-0.029078504522373774,-0.07598778773997698,-0.0016004593781985485,-0.07472929122603143,-0.0867636241230481,-0.10057458359359796,0.04750303515112985,-0.08809640647420525,0.06662354822787644,-0.04160541971654237,0.031432222484321794,0.002917004922065196,0.08673603845212675,-0.010755112665928278,-0.052824751572322096,-0.051005351644286386,-0.03607590663108789,-0.0803747168478642,0.0024041327263673315,-0.018025714457817928,0.052311331393445716,-0.0009684545617651088,-0.011701881254253687,-0.0625127170858808,-0.07938871682280052,-0.0689877301979625,0.06127815418891426,0.07176885616915771,-0.04198627386322491,0.02432048249330452,-0.053238281010379716,0.04485958443327789,-0.062357980727757174,0.05823109967946887,0.06434613688622028,0.05636078181351267,0.06316590204475761,-0.08717159681837072,0.028594442903357845,0.08782054282891757,0.11342916840621647,-0.02613479118843828,0.05637674299599876,0.08183173482321518,0.006643910687899292,0.07771847646974803,0.07373575157611767,0.057793709333289624,0.04978050577352121,-0.1009843742489082,0.013222003046756225,-0.003011462422558695,-0.028536309839009445,0.05807875783786071,0.05061856632384389,-0.006223935204138733,-0.06803365876087152,-0.02288196503827885,0.07236768799146899,-0.08476523082671225,0.021704091702342193,0.0621334105799743,0.04150378067318284,-0.05790086502357387,-0.0912490621826675,-0.007680817506972565,-0.005189190947537915,0.11540142429083652,-0.0626379899691293,0.06715035817330497,0.007486204655542664,0.06777169605126156,0.049538264705956264,0.09773921376546353,0.11856149937913846,-0.06791711728683257,0.001308897982367177,0.07364247364441795,-0.04920258446473,-0.010751448595631187,0.01513679022818822,0.001093521481556599,0.006911386603083007,-0.04387178286919784,0.08120657910615808,0.09759963082044906,-0.08722340842020458,-0.07773996430378641,0.05143127281769015,-0.0626262445700607,-0.02833546572706242,0.09468374918695749,-0.05291202026822946,0.06811177160106063,0.09533539912484947,0.050781007006443085,-0.027365958687191914,-0.036160066122128555,0.0038629384057609507,-0.029992456121484767,0.12972478801452375,0.08807638433830281,0.09496186888721325,-0.08136213620800332,-0.08010386101727861,0.1067418177909322,0.02479892848199037,0.037601541402318875,-0.04124565082460552,-0.06177361230921932,-0.01946519307162194,0.013358950148890254,-0.03690558640631708,0.015982447608670992,-0.05861966412794851,-0.0619616542039726,0.03467941277119181,-0.005113379447286269,-0.02785698891507453,-0.0875797844790456,0.060848377895362654,0.0419409687863138,0.047660810169571396,0.08061490109825785,-0.0026987366465241807,0.0852141379623679,0.09808416086047916,0.14856048741268052,0.01673934911825191,-0.0029330607423108026,-0.016213350729143265,0.046871159942301344,-0.03488662686478222,-0.06945630992936724,-0.02207226443110865,0.0439998199736972,0.0026484320797937723,0.020971116609327992,0.023784856841703374,0.02022559984111493,-0.09480639331171668,-0.08943104869540758,-0.09708939429535071,0.016657860211240688,-0.020305945063552277,0.050202282253000816,0.025946036485433432,0.06071166318873001,0.017140009985771427,0.11509411794801745,0.11880939055154721,0.027104911043414018,-0.03927473501783115,0.11744581058920461,0.1327987145511498,-0.029742367774733446,-0.01750201316363065,-0.038294057593761754,0.050675869916426246,0.09311466097970467,-0.059684054872516414,0.06773171389784247,0.017702035709684514,-0.02965567759343843,-0.012596488063234657,-0.01909313244064809,-0.07352359116571812,0.01321373334991596,-0.07549373247226916,-0.07527110817360312,-0.04870024641866332,-0.02599279996554761,-0.038534159169950774,0.028650775499875315,0.06473331755371081,-0.014161439251452496,0.02413745367608792,0.10697143107920999,-0.019739707925735806,-0.08179922364554004,0.014452269442812745,0.10992098472309417,0.015959341104336493,0.14215599475372165,0.042942097781012184,0.10318319202874277,0.05377831790385154,-0.0022987163450622168,0.07225147024770169,-0.08262382680129537,0.0514796856333314,0.05422851708469093,0.08057107528615559,-0.09534842368460625,-0.014233107420828818,0.09186493726347895,0.02443873080292097,-0.06615751698823732,-0.05801880644353262,-0.020898823257267968,0.03788092327690787,-0.0678424355053337,-0.01794634217652938,0.07681536671213385,0.05713563414732658,0.06873787542041614,-0.03914668548241978,0.022982356051153775,-0.020490332618609917,0.11780125778945988,-0.010689584348254491,0.09439553134973343,0.1148374216940386,0.02702569794174568,0.11167347217820031,0.04002259800501994,0.06308918815297751,0.029293103189564518,0.03555726584005086,0.025153077222725168,0.027841788420827084,0.019642941462638334,-0.032827796246358634,-0.010277751668399943,-0.00567310274525046,0.00536762405299267,-0.03621216412517101,-0.08105654997225034,0.04337191580960324,-0.05083524548514444,0.018864023462325453,0.005043015733977446,-0.05077919504541423,-0.024083804155902028,-0.0017645999160822642,0.08661883604190264,0.1219035113927506,0.015141694583429812,0.09614407346338802,0.02326445597365413,-0.014966621366337555,0.057111092434161674,-0.003969382527010555,-0.05956965339686178,0.038309173495254915,0.06592108341787042,-0.07267868102096937,0.022154993233796105,0.028673006464296692,-0.0001586583158391781,0.020160356829438755,-0.008650444892573397,0.01674577913149949,-0.01324686527095933,0.0633733476649201,0.001726803996029653,-0.0930617348584159,0.009280692438757673,-0.010861366699320385,-0.042407939357948586,0.023844342292361053,0.08498460205683962,0.04989822976575202,0.03951460027851878,-0.005107197441347234,0.17295504928931818,0.11533465473967883,0.07985175003183674,0.11372972917587448,0.10555734698556514,-0.06079461178940397,0.09388194083690689,-0.014409911716590663,-0.03209589080009388,-0.04926264838497744,-0.0734247729798038,0.04895008040874467,-0.0772971700345824,-0.07274553554403863,0.0862102218866132,0.0015104200711129059,-0.0322696136887988,-0.040152436129450374,-0.07741020585617103,-0.11040951644573054,0.009309050094661318,-0.08260314885757539,-0.0811170320936277,-0.004214672410193151,0.0782261280049191,0.10810188883752614,0.006319791659720262,0.06029094130385428,0.17212261915853197,0.022819144011190097,0.06192433639798396,0.03953515558319696,-0.012030144672587994,-0.03380643673418947,-0.007011794825998651,0.04918826762176654,0.043518133579923124,-0.08518162936067035,-0.09767158114795857,-0.06525600997077867,-0.033398446264229456,-0.0688047977952783,-0.0440068577979128,-0.009888627875116828,0.05716114289338659,-0.02365109767779735,0.004787912363927935,-0.06726999280215214,-0.0013036442492323106,-0.046563298741388884,-0.0824438275066025,0.0837413299553602,0.09027473998852394,0.029482988656397032,0.13629477436873477,0.14888403177958578,0.11413055337577752,0.07018356043972232,0.023823155431694085,0.03038070373094469,0.0428662793052543,0.029876559221773343,-0.016117865187219558,-0.04846513259812227,0.013278465860690014,-0.06295312466088401,0.012144696017924438,-0.060363005044194444,0.01976290187274157,0.052537882066606305,-0.05482724827838077,0.006436421795941576,-0.03857121018465426,0.01733278019922067,0.0066626504765794755,-0.0012861718054921227,0.07810716238294299,0.06501901221691128,0.10242196398895932,-0.05560983051160275,0.10380529993390039,0.019028658203705178,0.02627139634144973,-0.028454982773924848,0.09202963149040759,0.13841152192523137,-0.03323171175121983,-0.03732987254273333,-0.053744449488731826,0.10096605031322774,-0.1007214283551933,-0.03207409356886199,0.023189511837567907,-0.07929349389523312,-0.08178519382639898,0.02414585775119011,-0.02225898504663557,-0.09395399348172961,0.03983000231754385,0.013930917958756728,-0.051742054848624174,0.052301682351630914,-0.0532175970202462,0.08524494574656961,0.006142240360496723,0.07703644219144473,0.030787705575911255,-0.06455967122700138,0.07935330703860347,0.026780222575376655,0.054752756522171875,0.08820749926098918,0.03771663770592202,0.09901191015751289,0.010330777816159655,0.10941105732683534,0.07195013531326874,0.11490107763482765,0.018236139370331465,-0.04478380504626707,-0.09514515321164738,-0.04479969680932002,0.03970325994065796,0.08989660834089837,0.09707422276625906,0.09405208959575358,-0.06636825889330855,-0.010561958437794351,-0.07439800876341848,0.04534470654342582,0.017993846057830123,0.0616116888191425,-0.05819447620285721,-0.019132078648488638,-0.03366179945067334,-0.044116819517944696,0.06030244320021834,0.03247317351760952,0.06726364125935624,-0.006584363594184354,0.1291853524809587,0.010617744321673209,0.0904988070910225,0.053948801795910176,0.09050052757935341,0.06386020403492275,0.011028124687026897,-0.08251693965609816,0.0036449738116156954,-0.03214053048365614,-0.014067528134196892,-0.014318740102603802,-0.06520051487375478,-0.04676711338218488,-0.07523645990964348,-0.04440304443522873,-5.584235109720634e-05,0.030224211033486464,-0.03525493192479937,0.04510395568715323,0.040592859459381146,-0.023829296987921033,0.11428994119196578,0.10222006420795421,0.06633563070335366,0.08685957590727614,-0.005397188314769274,0.1450612859841013,0.10024314842053417,0.10563611716126717,0.06261805157788193,0.1098774007257707,0.02193313322417705,0.05441669926505496,0.03446385260479727,-0.08803226837622471,-0.07987090983112911,-0.09398681681017071,-0.0922410881040452,0.06358221972299478,-0.012265570091461366,0.03438494362256898,0.039923423497549695,-0.01011950172546844,-0.017403149737271337,0.011132466416979729,-0.05421618269075371,-0.020774432267750057,0.08473095202052333,0.04931315250912931,-0.05932220038485048,-0.06942110839240097,0.09628434140427183,0.0693617636995916,0.04421382949150053,0.04403433793948724,0.15065238092231473,-0.008706248974386715,0.11651877717332085,-0.020210670147975795,0.02454766139175797,0.04381622205521265,0.004227727370466676,0.017565081114276647,0.011625212196714712,0.044298869986249566,-0.08860490674690208,-0.0345155190585638,0.028575007251506048,-0.05597327671409127,-0.0008766512267753798,0.06290923777531145,-0.020335491199254725,0.05912332696554974,0.048191246198792795,-0.0194857705215968,-0.05672948665089552,-0.025086192607031023,0.0022141364773391064,0.030711806257283678,-0.025542171414286184,0.07964356165205934,0.12169508214316639,0.05949578629988793,0.13222847600883358,0.1170873145046126,0.09353180301202832,-0.016620186951406008,0.041360364829533085,-0.010377278407189406,-0.06434978059859577,-0.10926858560220827,0.08441711267608433,0.0896338122792912,-0.08630057761393586,-0.029577785953147067,-0.04158668373923981,-0.031867617812030735,0.03993763194045219,-0.05271489630243889,-0.014548542844239431,0.097236316319631,0.04667855224797394,-0.028136967755921876,0.09526414889218542,-0.078782586386093,-0.01193534064918912,0.05858651579493642,0.07106728443574406,-0.05385040610951227,0.04858829919666205,-0.009031618408364169,0.02563785282684069,0.001621368383214438,-0.006007510810101922,-0.0021825766689401328,-0.024733690788717382,-0.09979505026624508,-0.09596447310848255,0.032513093573827506,-0.09270468453425973,-0.10002841689893141,0.032579769030994195,-0.012985508124936485,-0.0436562850999348,-0.08156378816862526,0.03222128687584522,-0.08392014422615596,-0.08023746394880904,0.04352294798244486,0.05867220118431555,-0.023130585866295388,-0.021475493097904856,-0.0884667659663778,0.06400268507733815,-0.08751689671935704,-0.02779966323432585,-0.04354682849064365,0.04986294043002703,0.05745536428931892,-0.04518637303330595,0.08337127408234331,-0.07159808700877013,-0.02849720604354871,-0.08166570469288205,0.06200245090515041,0.07502428445191724,0.08014545161489672,-0.05032975324353702,0.03819860741867786,0.061970300411356954,0.07181193558253206,-0.09419822040311643,0.07509006613457955,-0.03747186169019981,0.03605599295618339,-0.014991174220422104,-0.07058565775470424,0.01583945451577794,-0.09115413791771575,0.03223532564311676,-0.025965252101870964,-0.040204891140355095,-0.06139073661645277,0.013500186722575245,0.03407999382626215,-0.02809595435489566,-0.006402599155711008,0.04983676862994085,0.05105080789696667,0.0016589781131886544,0.06844806055378254,-0.08007953116165682,0.07175439186484177,-0.005465193146365384,-0.07094806231139736,-0.03654384241309511,0.05745836297071203,-0.020980086921357815,0.023667114649610254,0.03552618202070321,-0.03892901520097525,-0.0474063185947135,-0.027497282757479966,-0.003980408243797334,0.08585726362144887,0.0501716652337615,-0.08065235662763506,0.0031491289323579323,-0.018704944897089282,-0.08848769417950852,0.06950861114045329,-0.09153919992190827,0.03853688783985535,0.006411723245560096,0.056368427542576455,0.010865504035792612,-0.00831573322305464,-0.09393169837656774,-0.05515447827950781,0.0490543993623142,-0.08591401575516387,-0.04511907518522872,0.095438182010183,0.07238031452418922,0.024245060615623152,0.024962412457540828,-0.03723221452294329,0.08038028289125618,0.06635120201079556,0.037994988609164754,-0.0924424067563886,-0.07560008889634176,-0.07332483533103858,-0.0006919825390940055,0.03626096868454448,-0.02540735809117083,0.09643318052446359,0.05501993086687803,-0.053121613093861014,-0.06320562661647038,-0.002473272761301968,-0.09806885488759191,-0.05291052199189587,-0.03962782658819309,-0.04023382151299712,-0.08928887645785744,0.04239252610090763,-0.00027660461174986806,0.06165698017776619,-0.035881246364152714,0.04459401235763508,0.013168545018302355,0.07997432988781673,0.016882113537444662,-0.04143685702373126,0.09996768364810113,-0.027709744102928396
1.4678943697118159,-0.05039826071385654,0.06598817453548927,0.03756785679103533,0.09721351982232235,-0.037400456997208606,0.07965861869776239,-0.01622041253499125,0.034568223147276034,0.0010344169170259099,-0.005483892834950807,0.02210006638398314,0.07011843321240838,-0.0868646764437379,0.04222029906540333,0.05453947784748626,-0.008433317099463431,0.04614803104301826,0.07208458625866204,-0.033624939444997295,0.015356061809014498,0.06167096863735916,0.06427523834065926,-0.05982577221681682,-0.09726954954199807,0.06498126552368616,0.06219806467236086,0.030663632392579132,-0.006135364218271502,0.007300218422273047,0.013673367784534957,-0.0866519750198407,0.0904608950568439,-0.042129071342762545,0.018376570417141715,-0.07143054059964453,-0.0809369584869315,0.031041417235952752,0.08163316839163764,0.04141364740736964,0.07481011667184673,-0.059455143779902284,-0.046229942703283546,0.06841396830268208,0.03730516658371208,0.06743257652535602,-0.01907812967375051,0.08743865838689512,-0.015197295341217998,-0.07808735369640654,0.07514189442760723,0.05634647229581021,-0.0005254185454137495,-0.041686769371770585,-0.07603196840168203,-0.03814501921211244,0.021532831009410308,-0.001945214027052125,0.008037697279533448,0.0308164730568906,-0.03297394058606394,0.05637256005918108,-0.01485984797526207,-0.053862743286934925,-0.06319976727766335,0.10736893762638333,0.07794245960268444,0.08806125769424682,0.08443664543169752,0.06593342569251191,0.16230983223195114,0.05492392703209701,0.04172352181809584,0.07847470997486972,-0.04201692275073656,0.007250647404925477,0.011157431694555445,0.014254193524341405,-0.09004575383014678,0.05211373991372226,-0.08014995145833587,-0.07566810796092698,0.07254125730651972,-0.09100132241190369,-0.07548427409800762,-0.09489595971477116,-0.03782933744215533,0.022951826074523347,-0.03852818278869738,-0.013300752564700419,0.10686771131691343,-0.023838150061744397,0.029777975998594226,-0.06473848012471481,0.018093764937377157,-0.041667197208945024,0.0224391616279147,0.004911934730920174,-0.0649657249842521,-7.134963583921826e-05,0.04452119834382206,0.17585075545103002,0.20708573316432177,0.025596702643941222,-0.06285037423589136,-0.11634360293709559,-0.08469464606131225,0.044686101736531474,-0.023956552235733793,-0.01630426710205429,0.03376962413090694,0.08870012829233488,-0.016237056505127995,-0.04857995255450545,-0.09108114724582317,0.02458232179546007,-0.09399078286814208,-0.0071733867065359915,0.08011765006993257,-0.030801624968479192,0.045750126118523804,0.05487919281187004,-0.10957051864872565,-0.02814434520984594,-0.016253552616730022,-0.09958844442384544,0.07436475903928137,0.006598691091394311,0.10754676132967647,0.1191772897312119,0.12699141430300434,0.06005720991697658,-0.013248211304835465,0.13046794720077837,-0.05822474236246486,-0.03133733442671677,-0.01496965960724456,-0.06038666525756856,0.0777777969817529,-0.05914610998905012,-0.0519562097487166,-0.006531110038881363,0.011886876701543564,-0.09527717066287063,-0.037386945134484297,0.015336035590239334,0.10246630984220438,0.02689821912334312,-0.07988984177571022,-0.012786449705299234,-0.08540243102043475,-0.062014796718763705,-0.14473145251678193,-0.0902363048466553,0.06441617356800203,-0.018057976579710044,0.004156121340371633,-0.06904247093083787,0.02604857538932499,-0.0306630669555877,0.07631510723714459,0.0044058636169917245,-0.059835939400622276,-0.13964819093283373,-0.0005168322685281898,0.08982196518405879,0.07677154116071062,-0.08908482531190164,-0.08057828272777649,0.02866243690112158,0.006912457814549612,-0.04648068490838399,-0.011829639316103771,-0.011469731022384456,0.03977323932382056,-0.08783357165643611,0.08860791882449721,-0.08729756000501489,0.006988645906222814,-0.07911538871904443,0.03902449557678503,-0.03843196039168716,0.14356472755319544,0.04769967890147526,0.2450655406122355,0.005956374179992231,-0.01632537603435872,-0.05358265496592737,-0.020128572668659746,-0.02544779404456786,-0.06008829397658946,-0.0791122472533632,-0.06753732746266788,-0.04323551399707404,0.007177194207373805,-0.031242277218480417,-0.008966154042044214,-0.03815132002653767,-0.04427864925188088,0.040947060775918795,0.0188101932674422,0.06555030188844499,0.016393341458726316,-0.016637753195934933,0.005330860483970672,-0.06717137700996181,-0.07319181302032413,-0.17925723066313232,-0.12890813719581087,-0.03796449574601114,0.056108352911346984,0.1419857990610479,0.031258751405020296,-0.10268869455635646,-0.05961630433455202,-0.08128643191051522,-0.08397689679434785,0.13065202061859418,0.06125249141707728,-0.12412897865789178,-0.055897324184141964,-0.1261740558943106,-0.09688547051211811,-0.05992829605964969,0.06382018178890254,-0.07316208217091964,0.07792234847965034,-0.03473480150515492,0.07960206889040712,-0.04850220784354138,-0.09388779341811877,0.03459142192909326,-0.14559944517775272,-0.0787153110459419,-0.0325063648063783,-0.08930566171647833,-0.02884965991574522,0.05320310050171236,0.08085425529822961,-0.07852851588226555,-0.14598353958258656,-0.12928451755468962,-0.002589061473508915,-0.1464448945741599,-0.08716240013981698,-0.1611332137158638,0.06858152707350329,-0.0476509427851344,-0.11676929731863281,0.01697104153022159,0.0020282543760741403,0.008035580547609751,-0.08124395698130049,-0.01535604357135694,0.056263651936995354,-0.022138305953208665,0.003960904479650811,0.049706279556357265,-0.03689601324670286,-0.09046102842771293,-0.017081118494261062,-0.02345136992274544,-0.0744631787374297,0.014138701520732582,-0.06094637828874448,-0.018759893298247267,-0.0167227577939948,-0.11964176693852366,-0.07484504955381432,-0.1484778493552668,0.10571719200650623,0.09369438354642269,0.044266875434772084,-0.08400310514290851,0.013167548624831691,-0.15076341682315186,-0.022232264684643285,-0.05966294731410751,-0.1413587568974523,-0.06045776382488752,0.02992825372790767,0.06287242999011403,0.08219772660689449,-0.01376207677079429,0.051046868560126364,0.040742011768204585,-0.044010268503523624,0.020128175839895485,0.03017411378659396,-0.018383966932478058,-0.02299534015647305,0.09191191619983524,0.03841426470183209,-0.025576048589525932,-0.13438110934051237,-0.03580888388823626,-0.1339314061669573,-0.052082427176390375,0.09933869071041468,0.074648127564911,0.07361723364851455,0.012495496348857868,-0.015780709835251955,-0.1095815508210451,-0.13340713276338234,-0.09061419707850472,0.03812203711666462,0.08726601023185868,-0.014264071304016402,-0.08388466534255351,-0.07774656153172836,0.053302500422794816,-0.025313382070064956,0.0629744252390525,0.0015863970425183955,0.006294815484184311,0.055912977191769415,-0.07733877362842033,0.026674694496408496,-0.10817900073226988,-0.045309516941859904,-0.04939304516759868,-0.03553671730931896,-0.0164516646668002,0.06172056801992453,0.07913719457955132,0.1241358597776642,0.15218413435996045,-0.07348471348654809,-0.10966534153807533,-0.08116448013550809,-0.09425632236453796,-0.06384081617914501,-0.024350949070575757,0.033088604489341505,-0.06947634262872288,0.060166180566894406,-0.08461476326042164,-0.05690236310841368,-0.0781450996933742,-0.05977342474813889,-0.010125349563550911,-0.0959474643095975,0.018142040014562225,0.09814693808746101,-0.03393938504729674,-0.03053042979366222,-0.10806997608685057,-0.05624337053076222,-0.09230947038307143,-0.12584045935043436,0.008411437395279973,0.1518410627317913,0.05918435624819597,0.08631692752666927,0.03585919176301676,-0.003937038586991256,-0.17412682089904702,-0.0770062084561845,-0.008748628954771093,0.02261925301205965,-0.0007420598532410692,0.017680980287316666,-0.0076219767418415655,0.015121745222992427,0.09193975084912809,-0.07854486756017211,-0.021617906489334957,-0.01222673529517882,-0.06419176592400008,0.06442388409725099,0.020534996667725458,0.13140319636996656,0.029009654202835758,-0.049711586141972394,-0.010873209198684237,-0.05540524124570687,-0.013128246513370658,-0.03004749486946993,0.0020684828129197315,0.13487718239797356,0.1266015721379708,-0.015207239658569538,-0.13580709477591638,0.07816404854130862,-0.08098172156248636,-0.004499328860771302,-0.026166360953589145,0.13295687152796873,0.03314615560901221,-0.04243590639956113,-0.0439326491480921,-0.0023842849865813066,0.03212991498173911,0.022887681927454447,-0.011444876858916314,0.047539993161254165,0.10951229546659892,0.0505843760683949,-0.06305376575593682,0.16778719496518163,0.042022232754297166,0.0630431675080752,0.010760085859780154,0.015509698651107292,-0.1277336740639002,0.13271976998371204,0.16777365701764632,0.07707197607519678,0.07066064363657669,-0.06717425852321697,-0.05250848077267197,-0.049843176578109286,-0.020457196038563684,-0.06023056092556764,0.014560073072581394,-0.016595503850546558,0.05233961501445986,0.01936135112301865,0.013731259326978567,-0.012640100665822676,0.03092804119103487,0.09547974146069217,0.05882584164844508,0.04589433762581895,-0.04265198803010368,0.042274741846315494,0.03075919936714536,0.08254910712658703,0.05580546243881541,0.04958400024740328,-0.028146656568504368,-0.02340114651409054,0.15212031029969894,0.16259879196847904,0.20089860647014593,0.10655562918082098,0.06336351881783728,-0.06164584767000812,-0.06235222280845211,-0.03854069505205211,0.04766444882059414,-0.11887163340700048,0.11801093649232716,0.07264705228395184,0.11554335817604801,-0.028670367751785622,-0.00029350748782443003,0.07610123902855011,0.0717715980673338,0.09203088493710293,0.029630621014393118,0.025080413838477145,-0.033329907942863474,0.13790489117306753,0.026478440565567914,0.10406831977570555,0.037594360810215784,0.04528343014658568,-0.06331369407647008,0.10186774041590695,-0.013621936914978322,0.12377096222006054,0.22746863111979243,0.08481624430209497,-0.009268976374421936,0.05565170165845451,0.10656052391086755,0.10663105183971985,0.05711988165596126,-0.11058250898182662,-0.0728776662348119,-0.042797461339325146,0.12197571199639434,0.016715408768557604,-0.10105877485726861,-0.022458880464513945,0.0980431506531182,-0.009452497127392576,0.04073777427182387,0.06300106863696762,0.14360803950156778,0.025055038336912416,0.1049786180290748,-0.024889446179505108,-0.06710318372718029,-0.11666818330542421,-0.03784032073094433,-0.06690576814517964,0.12616715825001748,0.18053082259082576,0.1858370412855188,0.09552372424558175,0.006175870329219795,0.09856394962481016,0.1733070719427986,0.10052001249704827,0.06940460481210411,-0.07486476366715099,-0.0400156012149284,0.07786504502925759,-0.012048474147299714,0.10051931449428814,0.008881844225354579,0.07558564329329864,-0.006333091752123265,0.033400107328966595,0.023340479035510446,-0.1147181032129504,-0.07670446660469497,0.018993232666618242,0.016839094753462215,0.011153133387861242,-0.18284910661198964,-0.06728665416566602,-0.08607498013483127,0.11870209494332112,0.12880904054617073,0.280886983082772,0.11013584686602113,0.012938705596986379,0.06298020594605448,0.1864703401156418,0.10348282849787971,0.15235796890354622,0.07681790157808878,-9.35588316303726e-05,-0.12217060344641406,0.07269458569548017,-0.01086178577823284,-0.017426316474111716,-0.06774521142453839,-0.055347873801630185,-0.05042311953427881,0.08268121171878755,0.005615329976072118,0.01111900439046315,-0.005889860851307455,0.03928780238503019,0.049067131440937564,-0.062276805879318886,-0.15467446334387805,-0.05432221290886382,-0.01038973690314103,0.10223094448280984,0.1598278694872359,0.14635422770186046,0.09078585198272189,-0.1287895932362319,0.022948507268136645,0.1125916418869896,0.26566353736099857,0.22466938335152561,-0.12180052606177927,0.03292884536682744,-0.13294992915391823,-0.04761005689831792,0.028145641934342734,0.016603188137349727,0.01082272025256185,-0.07657744872053192,-0.025309926613600917,0.013961547274849537,-0.07621140006636784,-0.02828444905490645,0.01228541498477328,0.0936589553536512,-0.01691427494275196,-0.14344722893213802,-0.16432678093263603,-0.06342336244312044,-0.009888248152763738,0.11213886281036899,0.20275268428475796,0.03477186096725674,-0.08483286956845083,-0.15614536706088566,-0.11661574085248143,0.012115053906340677,0.08138735293779832,0.024277523626703424,0.09139989280189116,-0.06642613035370998,-0.010115012467820648,-0.06285055188967029,-0.017867016334599778,-0.10654702713710729,-0.01025119547251272,0.09768423418396176,-0.01705703368336975,-0.04601360246860119,0.07636083252073736,0.029155627044896455,0.00317955751359502,-0.010858472283303753,-0.006031764102919274,-0.12944216658821406,-0.20787596505135597,-0.21776828919672142,-0.00692352147104853,-0.05990006890051691,0.0057177983491552824,-0.13314686531409745,-0.2990495550961355,-0.25488600665414046,-0.17249828033526332,-0.10545305184649907,-0.05477858755738791,0.0904377966463971,0.018233138984976503,0.015298656009338073,-0.0035784367249776508,0.08313014904501179,0.06730574217705147,0.08394814191792631,-0.08551820499273617,0.08887733811520823,0.08199770493425412,0.0626510460879257,-0.07834616771632995,-0.06848752219928743,0.024478932196030385,-0.013500385471236392,-0.04160332128011958,-0.053946165613336074,-0.26830189089663414,-0.27418824155362864,-0.17349958959096345,-0.22454275711328842,-0.26046621974057627,-0.21215819432164615,-0.20527885274238117,-0.1337221252564324,0.005459815516185917,-0.06801513369754279,-0.03856293891866702,0.09539721114015202,0.011195930802251465,0.01786618645922661,0.05014991723402453,0.049016375946780134,-0.019010175815785325,0.017675735789656487,0.008779863735664563,-0.06243584955613677,-0.0022610901182872345,0.09421380546034394,0.09894918043821341,0.0139593220825173,-0.06386937254789687,0.08344873047882782,0.0406478212918356,-0.11259010823402037,0.01130685391873272,-0.1113856048633541,-0.0880168822366104,-0.07458326048942715,-0.2798899650261888,-0.08184595349703448,-0.16461675751143534,-0.03504131356287724,-0.057003736926668575,0.07707526650167836,0.03755833809045848,-0.029037985337757997,0.07857101525927924,-0.02872729875824946,-0.12441622166453555,-0.08500831510952572,-0.07094002536752884,-0.051518521028502746,0.06019830857216643,0.039434545034752244,0.021008069580594424,0.08389389967250047,0.09690242178886972,0.08130933006093512,0.0411998644786788,0.002340803735226339,0.023158583385580488,-0.07736644306741469,-0.071438727720922,-0.152258220644094,-0.07559698015943556,-0.0408429450390553,-0.13780573507981778,-0.1713303129729787,-0.09336559116031731,0.1009319532250555,0.08570447287055684,0.13503218805442738,0.15424437069488176,0.056772599326036774,-0.01973255265324516,0.025932734073182546,-0.03097256089403233,0.04473214256402408,0.07560334500722372,-0.050293182758217266,0.04975482543037555,-0.09538862522674359,-0.045396854818374105,0.0023905112507551507,-0.0038832821431632612,0.004832581295638284,-0.061401233322843855,-0.060985328625549846,0.0031907348027874925,-0.12272967518149623,-0.04788861117272118,-0.04979956136799848,0.034534625404451104,-0.01359263256695708,-0.011838835033848812,0.03158218219297083,0.004653011670919724,0.020977135725511784,0.011742091111082846,0.07498659053555078,0.0028694632370514406,0.16848011658392043,-0.005439737555386427,0.009491631199792554,-0.10788388478824781,0.06146970955829115,0.055026786401820287,-0.018471424254434887,0.03449810137679728,-0.011130238535496703,-0.026205804421609427,0.07620806915894332,-0.09538686756801809,0.016172439051167352,-0.039431355565399215,0.019434430740908892,-0.0253587132385269,-0.1468377379043686,-0.09111186876608868,-0.01086696109477832,-0.034877423700013274,-0.08787254024549422,-0.10992989006315644,-0.06558127599049916,0.03623322989042289,0.07393294268431272,0.04900504821367864,0.08762296606788346,0.012598881577682084,0.010385234469406965,0.016070746946940124,-0.057409530870186284,-0.026965128733649882,-0.011255029020228445,-0.01208607040904102,-0.09303190561536542,-0.06520045705307984,-0.034771084534301555,-0.02538709396546468,-0.08384630216157929,0.07225702488573099,0.01851680169895578,-0.07707338401512748,-0.08309482735906715,-0.058472105925145866,-0.07039786773807333,-0.077390492359016,-0.06279071417915645,0.049752243258098655,-0.01406869258725501,-0.031824257130439224,-0.026496664916353208,-0.01059123519336339,0.04859150542918713,-0.018248743610470717,-0.004277984034207457,0.05939081241340594,-0.010311978152192364,-0.05870303694377802,0.004152339188201746,-0.006394229789542017,-0.0642704897545076,-0.029066935427448648,-0.016864571667935827,0.05292879555504451,0.0885999249742998
